Language model created by QuickLM on Tue Oct 24 22:05:36 EDT 2017
Copyright (c) 1996-2010 Carnegie Mellon University and Alexander I. Rudnicky

The model is in standard ARPA format, designed by Doug Paul while he was at MITRE.

The code that was used to produce this language model is available in Open Source.
Please visit http://www.speech.cs.cmu.edu/tools/ for more information

The (fixed) discount mass is 0.5. The backoffs are computed using the ratio method.
This model based on a corpus of 25 sentences and 71 words

\data\
ngram 1=71
ngram 2=110
ngram 3=113

\1-grams:
-1.1335 </s> -0.3010
-1.1335 <s> -0.2679
-2.2304 A -0.2985
-2.5315 ALARM -0.2679
-2.5315 AN -0.2998
-2.5315 ARE -0.2998
-2.5315 ATTACK -0.2679
-2.5315 BASE -0.2679
-2.5315 BLIND -0.2867
-2.5315 BRIGHTER -0.2679
-2.5315 CENTER -0.2985
-2.2304 CHECK -0.2854
-2.5315 CONNECTED -0.2679
-2.5315 COUNT -0.2679
-2.5315 COUNTDOWN -0.2679
-2.5315 CURRENT -0.2985
-2.5315 DARK -0.2679
-2.5315 DAY -0.2679
-2.5315 DEE -0.2998
-2.5315 DIM -0.2867
-2.5315 DOES -0.2998
-2.5315 ELECTION -0.2679
-2.5315 EMAIL -0.2679
-2.5315 ENCOM -0.2679
-2.2304 ENEMIES -0.2651
-2.2304 ENEMY -0.2665
-2.5315 FEELING -0.2679
-2.5315 FOR -0.2985
-2.5315 GET -0.2972
-2.2304 GO -0.2959
-2.5315 HACK -0.2867
-2.5315 HISTORY -0.2679
-1.9294 HOW -0.2907
-2.5315 INCOMMING -0.2998
-1.8325 IS -0.2854
-2.5315 IT -0.2998
-2.5315 JOKE -0.2679
-2.5315 KING -0.2679
-2.5315 LAUNCH -0.2867
-2.5315 LICKS -0.2998
-2.2304 LIGHTS -0.2665
-2.5315 LONG -0.2998
-2.5315 MAKE -0.2867
-2.5315 MANY -0.2998
-2.5315 MASSACRE -0.2998
-2.5315 ME -0.2985
-2.5315 MY -0.2998
-2.5315 NOTIFY -0.2985
-2.5315 NUKES -0.2679
-2.2304 OF -0.2972
-2.5315 PLAY -0.2998
-2.5315 PLAYLIST -0.2679
-2.5315 POP -0.2679
-1.1335 SABRE -0.2679
-2.5315 SEARCH -0.2998
-2.5315 SEND -0.2998
-2.5315 SET -0.2998
-2.5315 SHUTDOWN -0.2679
-2.5315 START -0.2998
-2.5315 TAKE -0.2972
-2.5315 TELL -0.2998
-1.4901 THE -0.2854
-2.0544 TO -0.2841
-2.5315 TOOTSIE -0.2998
-2.5315 TRAFFIC -0.2679
-2.5315 UNTIL -0.2998
-2.5315 WEATHER -0.2679
-2.5315 WHAT -0.2946
-2.5315 WHERE -0.2946
-2.2304 WHO -0.2946
-2.5315 YOU -0.2998

\2-grams:
-0.3010 <s> SABRE 0.0000
-0.6021 A JOKE 0.0000
-0.6021 A TOOTSIE 0.0000
-0.3010 ALARM </s> -0.3010
-0.3010 AN EMAIL 0.0000
-0.3010 ARE YOU 0.0000
-0.3010 ATTACK </s> -0.3010
-0.3010 BASE </s> -0.3010
-0.3010 BLIND THE -0.2808
-0.3010 BRIGHTER </s> -0.3010
-0.3010 CENTER OF -0.1761
-0.6021 CHECK HISTORY 0.0000
-0.6021 CHECK THE -0.2808
-0.3010 CONNECTED </s> -0.3010
-0.3010 COUNT </s> -0.3010
-0.3010 COUNTDOWN </s> -0.3010
-0.3010 CURRENT ENEMY -0.1761
-0.3010 DARK </s> -0.3010
-0.3010 DAY </s> -0.3010
-0.3010 DEE DAY 0.0000
-0.3010 DIM THE -0.2596
-0.3010 DOES IT 0.0000
-0.3010 ELECTION </s> -0.3010
-0.3010 EMAIL </s> -0.3010
-0.3010 ENCOM </s> -0.3010
-0.6021 ENEMIES </s> -0.3010
-0.6021 ENEMIES OF -0.1761
-0.6021 ENEMY </s> -0.3010
-0.6021 ENEMY COUNT 0.0000
-0.3010 FEELING </s> -0.3010
-0.3010 FOR ENEMIES -0.1761
-0.3010 GET TO -0.2218
-0.6021 GO DARK 0.0000
-0.6021 GO TO -0.2218
-0.3010 HACK THE -0.2808
-0.3010 HISTORY </s> -0.3010
-0.9031 HOW ARE 0.0000
-0.9031 HOW IS -0.0792
-0.9031 HOW LONG 0.0000
-0.9031 HOW MANY 0.0000
-0.3010 INCOMMING ATTACK 0.0000
-1.0000 IS CONNECTED 0.0000
-0.3979 IS THE -0.2139
-0.3010 IT TAKE 0.0000
-0.3010 JOKE </s> -0.3010
-0.3010 KING </s> -0.3010
-0.3010 LAUNCH THE -0.2808
-0.3010 LICKS DOES 0.0000
-0.6021 LIGHTS </s> -0.3010
-0.6021 LIGHTS BRIGHTER 0.0000
-0.3010 LONG UNTIL 0.0000
-0.3010 MAKE THE -0.2596
-0.3010 MANY LICKS 0.0000
-0.3010 MASSACRE PLAYLIST 0.0000
-0.3010 ME A -0.1761
-0.3010 MY BASE 0.0000
-0.3010 NOTIFY ENEMIES -0.1761
-0.3010 NUKES </s> -0.3010
-0.6021 OF A -0.1761
-0.6021 OF INCOMMING 0.0000
-0.3010 PLAY MASSACRE 0.0000
-0.3010 PLAYLIST </s> -0.3010
-0.3010 POP </s> -0.3010
-1.6990 SABRE BLIND 0.0000
-1.3979 SABRE CHECK 0.0000
-1.6990 SABRE DIM 0.0000
-1.3979 SABRE GO 0.0000
-1.6990 SABRE HACK 0.0000
-1.0969 SABRE HOW 0.0000
-1.6990 SABRE LAUNCH 0.0000
-1.6990 SABRE MAKE 0.0000
-1.6990 SABRE NOTIFY 0.0000
-1.6990 SABRE PLAY 0.0000
-1.6990 SABRE SEARCH 0.0000
-1.6990 SABRE SEND 0.0000
-1.6990 SABRE SET 0.0000
-1.6990 SABRE SHUTDOWN 0.0000
-1.6990 SABRE START 0.0000
-1.6990 SABRE TELL 0.0000
-1.6990 SABRE WHAT 0.0000
-1.6990 SABRE WHERE 0.0000
-1.3979 SABRE WHO 0.0000
-0.3010 SEARCH FOR 0.0000
-0.3010 SEND AN 0.0000
-0.3010 SET ALARM 0.0000
-0.3010 SHUTDOWN </s> -0.3010
-0.3010 START COUNTDOWN 0.0000
-0.3010 TAKE TO -0.2218
-0.3010 TELL ME 0.0000
-1.3424 THE CENTER 0.0000
-1.3424 THE CURRENT 0.0000
-1.3424 THE ELECTION 0.0000
-1.3424 THE ENEMY -0.1761
-1.3424 THE KING 0.0000
-1.0414 THE LIGHTS 0.0000
-1.3424 THE MY 0.0000
-1.3424 THE NUKES 0.0000
-1.3424 THE TRAFFIC 0.0000
-1.3424 THE WEATHER 0.0000
-0.7782 TO ENCOM 0.0000
-0.7782 TO GET 0.0000
-0.7782 TO THE -0.2808
-0.3010 TOOTSIE POP 0.0000
-0.3010 TRAFFIC </s> -0.3010
-0.3010 UNTIL DEE 0.0000
-0.3010 WEATHER </s> -0.3010
-0.3010 WHAT IS -0.0792
-0.3010 WHERE IS -0.0792
-0.3010 WHO IS 0.0000
-0.3010 YOU FEELING 0.0000

\3-grams:
-1.6990 <s> SABRE BLIND
-1.3979 <s> SABRE CHECK
-1.6990 <s> SABRE DIM
-1.3979 <s> SABRE GO
-1.6990 <s> SABRE HACK
-1.0969 <s> SABRE HOW
-1.6990 <s> SABRE LAUNCH
-1.6990 <s> SABRE MAKE
-1.6990 <s> SABRE NOTIFY
-1.6990 <s> SABRE PLAY
-1.6990 <s> SABRE SEARCH
-1.6990 <s> SABRE SEND
-1.6990 <s> SABRE SET
-1.6990 <s> SABRE SHUTDOWN
-1.6990 <s> SABRE START
-1.6990 <s> SABRE TELL
-1.6990 <s> SABRE WHAT
-1.6990 <s> SABRE WHERE
-1.3979 <s> SABRE WHO
-0.3010 A JOKE </s>
-0.3010 A TOOTSIE POP
-0.3010 AN EMAIL </s>
-0.3010 ARE YOU FEELING
-0.3010 BLIND THE ENEMY
-0.3010 CENTER OF A
-0.3010 CHECK HISTORY </s>
-0.3010 CHECK THE WEATHER
-0.3010 CURRENT ENEMY COUNT
-0.3010 DEE DAY </s>
-0.3010 DIM THE LIGHTS
-0.3010 DOES IT TAKE
-0.3010 ENEMIES OF INCOMMING
-0.3010 ENEMY COUNT </s>
-0.3010 FOR ENEMIES </s>
-0.3010 GET TO THE
-0.3010 GO DARK </s>
-0.3010 GO TO ENCOM
-0.3010 HACK THE ELECTION
-0.3010 HOW ARE YOU
-0.3010 HOW IS THE
-0.3010 HOW LONG UNTIL
-0.3010 HOW MANY LICKS
-0.3010 INCOMMING ATTACK </s>
-0.3010 IS CONNECTED </s>
-0.9031 IS THE CURRENT
-0.9031 IS THE KING
-0.9031 IS THE MY
-0.9031 IS THE TRAFFIC
-0.3010 IT TAKE TO
-0.3010 LAUNCH THE NUKES
-0.3010 LICKS DOES IT
-0.3010 LIGHTS BRIGHTER </s>
-0.3010 LONG UNTIL DEE
-0.3010 MAKE THE LIGHTS
-0.3010 MANY LICKS DOES
-0.3010 MASSACRE PLAYLIST </s>
-0.3010 ME A JOKE
-0.3010 MY BASE </s>
-0.3010 NOTIFY ENEMIES OF
-0.3010 OF A TOOTSIE
-0.3010 OF INCOMMING ATTACK
-0.3010 PLAY MASSACRE PLAYLIST
-0.3010 SABRE BLIND THE
-0.6021 SABRE CHECK HISTORY
-0.6021 SABRE CHECK THE
-0.3010 SABRE DIM THE
-0.6021 SABRE GO DARK
-0.6021 SABRE GO TO
-0.3010 SABRE HACK THE
-0.9031 SABRE HOW ARE
-0.9031 SABRE HOW IS
-0.9031 SABRE HOW LONG
-0.9031 SABRE HOW MANY
-0.3010 SABRE LAUNCH THE
-0.3010 SABRE MAKE THE
-0.3010 SABRE NOTIFY ENEMIES
-0.3010 SABRE PLAY MASSACRE
-0.3010 SABRE SEARCH FOR
-0.3010 SABRE SEND AN
-0.3010 SABRE SET ALARM
-0.3010 SABRE SHUTDOWN </s>
-0.3010 SABRE START COUNTDOWN
-0.3010 SABRE TELL ME
-0.3010 SABRE WHAT IS
-0.3010 SABRE WHERE IS
-0.3010 SABRE WHO IS
-0.3010 SEARCH FOR ENEMIES
-0.3010 SEND AN EMAIL
-0.3010 SET ALARM </s>
-0.3010 START COUNTDOWN </s>
-0.3010 TAKE TO GET
-0.3010 TELL ME A
-0.3010 THE CENTER OF
-0.3010 THE CURRENT ENEMY
-0.3010 THE ELECTION </s>
-0.3010 THE ENEMY </s>
-0.3010 THE KING </s>
-0.6021 THE LIGHTS </s>
-0.6021 THE LIGHTS BRIGHTER
-0.3010 THE MY BASE
-0.3010 THE NUKES </s>
-0.3010 THE TRAFFIC </s>
-0.3010 THE WEATHER </s>
-0.3010 TO ENCOM </s>
-0.3010 TO GET TO
-0.3010 TO THE CENTER
-0.3010 TOOTSIE POP </s>
-0.3010 UNTIL DEE DAY
-0.3010 WHAT IS THE
-0.3010 WHERE IS THE
-0.6021 WHO IS CONNECTED
-0.6021 WHO IS THE
-0.3010 YOU FEELING </s>

\end\
