Language model created by QuickLM on Fri Oct 27 02:33:44 EDT 2017
Copyright (c) 1996-2010 Carnegie Mellon University and Alexander I. Rudnicky

The model is in standard ARPA format, designed by Doug Paul while he was at MITRE.

The code that was used to produce this language model is available in Open Source.
Please visit http://www.speech.cs.cmu.edu/tools/ for more information

The (fixed) discount mass is 0.5. The backoffs are computed using the ratio method.
This model based on a corpus of 78 sentences and 135 words

\data\
ngram 1=135
ngram 2=227
ngram 3=233

\1-grams:
-1.0982 </s> -0.3010
-1.0982 <s> -0.2615
-2.2122 A -0.2979
-2.6893 ALARM -0.2649
-2.9903 AM -0.3001
-2.9903 AN -0.3001
-2.9903 AND -0.3006
-2.9903 ANSWER -0.2984
-2.6893 ARE -0.2993
-2.6893 ATTACK -0.2649
-2.6893 BASE -0.2645
-2.9903 BATCO -0.2649
-2.6893 BLIND -0.2925
-2.9903 BOY -0.2649
-2.6893 BRIGHTER -0.2630
-2.6893 CENTER -0.2993
-2.5132 CHECK -0.2916
-2.6893 CONNECTED -0.2649
-2.6893 COUNT -0.2649
-2.6893 COUNTDOWN -0.2649
-2.5132 CURRENT -0.2984
-2.6893 DARK -0.2649
-2.6893 DAY -0.2649
-2.6893 DEE -0.3001
-2.6893 DIM -0.2907
-2.9903 DO -0.2993
-2.6893 DOES -0.3001
-2.9903 DOWN -0.2649
-2.9903 DUDE -0.2649
-2.6893 ELECTION -0.2649
-2.6893 EMAIL -0.2649
-2.9903 EMCON -0.2649
-2.9903 ENCOM -0.2649
-2.9903 END -0.3006
-2.3883 ENEMIES -0.2630
-2.3883 ENEMY -0.2640
-2.9903 EVERYTHING -0.2649
-2.6893 FEELING -0.2649
-2.6893 FOR -0.2993
-2.9903 FOURTY -0.3006
-2.9903 FUN -0.3006
-2.9903 GAETAN -0.2649
-2.6893 GEE -0.2997
-2.6893 GET -0.2984
-2.5132 GO -0.2975
-2.6893 GOOD -0.2645
-2.9903 GUARD -0.2649
-2.6893 HACK -0.2925
-2.9903 HEARD -0.3006
-2.9903 HELLO -0.3001
-2.9903 HIGHER -0.2649
-2.6893 HISTORY -0.2649
-2.1452 HOW -0.2925
-2.6893 I -0.3001
-2.9903 I'VE -0.3006
-2.9903 INCOMMING -0.3001
-2.9903 INVERT -0.2649
-1.8764 IS -0.2870
-2.6893 IT -0.3001
-2.9903 JAMMING -0.2649
-2.6893 JOKE -0.2649
-2.9903 KILL -0.2649
-2.9903 KILLING -0.3006
-2.6893 KING -0.2649
-2.6893 LAUNCH -0.2925
-2.6893 LICKS -0.3001
-2.9903 LIFE -0.2925
-2.3883 LIGHTS -0.2640
-2.9903 LOCATION -0.2649
-2.6893 LONG -0.3001
-2.9903 LOVE -0.2993
-2.9903 LOWER -0.3006
-2.9903 MAKE -0.2925
-2.6893 MANY -0.3001
-2.9903 MASSACRE -0.3001
-2.6893 ME -0.2984
-2.9903 MY -0.3001
-2.9903 NEXT -0.3001
-2.6893 NOTIFY -0.2993
-2.6893 NUKES -0.2649
-2.3883 OF -0.2970
-2.9903 OKAY -0.2649
-2.9903 ON -0.3006
-2.9903 ONE -0.3006
-2.9903 PATROL -0.2649
-2.9903 PAUSE -0.2649
-2.9903 PLAY -0.3006
-2.9903 PLAYED -0.2649
-2.6893 PLAYLIST -0.2649
-2.6893 POP -0.2649
-2.9903 PRANK -0.2649
-2.9903 PREVIOUS -0.3001
-2.9903 RICKROLL -0.2649
-1.1452 SABRE -0.2645
-2.6893 SEARCH -0.3001
-2.6893 SEND -0.2997
-2.6893 SET -0.3001
-2.6893 SHUTDOWN -0.2649
-2.9903 SILICON -0.3006
-2.9903 SNEAK -0.3001
-2.6893 SONG -0.2649
-2.9903 SPREE -0.3001
-2.6893 START -0.3001
-2.9903 STAY -0.3006
-2.9903 STOP -0.3006
-2.6893 TAKE -0.2984
-2.6893 TEA -0.2997
-2.6893 TELL -0.3001
-2.9903 THANK -0.3006
-2.9903 THANKS -0.2649
-1.7116 THE -0.2893
-2.6893 THERE -0.2649
-2.9903 THINK -0.2993
-2.9903 THIS -0.3006
-2.2122 TO -0.2907
-2.6893 TOOTSIE -0.3001
-2.6893 TRAFFIC -0.2649
-2.6893 TURN -0.2997
-2.9903 TWO -0.3006
-2.9903 UNIVERSE -0.3006
-2.6893 UNTIL -0.3001
-2.9903 UP -0.2649
-2.9903 VALLEY -0.2649
-2.6893 VOLUME -0.3001
-2.9903 VOLUMNE -0.3006
-2.6893 WEATHER -0.2649
-2.9903 WELL -0.3006
-2.2122 WHAT -0.2921
-2.9903 WHERE -0.2952
-2.1452 WHO -0.2952
-2.9903 WHO'S -0.3001
-2.9903 WHY -0.2649
-2.9903 WOW -0.2984
-2.3883 YOU -0.2635
-2.9903 YOU, -0.3006

\2-grams:
-2.1931 <s> GEE -0.1761
-2.1931 <s> HELLO 0.0000
-2.1931 <s> I'VE 0.0000
-2.1931 <s> OKAY 0.0000
-0.3480 <s> SABRE 0.0000
-2.1931 <s> THANK 0.0000
-2.1931 <s> WHO 0.0000
-2.1931 <s> WHO'S 0.0000
-2.1931 <s> WOW 0.0000
-1.0792 A FUN 0.0000
-1.0792 A GOOD -0.1761
-0.7782 A JOKE 0.0000
-0.7782 A TOOTSIE 0.0000
-0.3010 ALARM </s> -0.3010
-0.3010 AM GOOD -0.1761
-0.3010 AN EMAIL 0.0000
-0.3010 AND EVERYTHING 0.0000
-0.3010 ANSWER TO -0.2632
-0.3010 ARE YOU -0.1761
-0.3010 ATTACK </s> -0.3010
-0.6021 BASE </s> -0.3010
-0.6021 BASE LOCATION 0.0000
-0.3010 BATCO </s> -0.3010
-0.3010 BLIND THE -0.2775
-0.3010 BOY </s> -0.3010
-0.6021 BRIGHTER </s> -0.3010
-0.6021 BRIGHTER LIGHTS -0.0969
-0.3010 CENTER OF -0.1761
-0.4771 CHECK HISTORY 0.0000
-0.7782 CHECK THE -0.2894
-0.3010 CONNECTED </s> -0.3010
-0.3010 COUNT </s> -0.3010
-0.3010 COUNTDOWN </s> -0.3010
-0.7782 CURRENT BASE -0.1761
-0.4771 CURRENT ENEMY -0.1761
-0.3010 DARK </s> -0.3010
-0.3010 DAY </s> -0.3010
-0.3010 DEE DAY 0.0000
-0.6021 DIM LIGHTS -0.0969
-0.6021 DIM THE -0.2775
-0.3010 DO YOU -0.2430
-0.3010 DOES IT 0.0000
-0.3010 DOWN </s> -0.3010
-0.3010 DUDE </s> -0.3010
-0.3010 ELECTION </s> -0.3010
-0.3010 EMAIL </s> -0.3010
-0.3010 EMCON </s> -0.3010
-0.3010 ENCOM </s> -0.3010
-0.3010 END PATROL 0.0000
-0.4260 ENEMIES </s> -0.3010
-0.9031 ENEMIES OF -0.2430
-0.6021 ENEMY </s> -0.3010
-0.6021 ENEMY COUNT 0.0000
-0.3010 EVERYTHING </s> -0.3010
-0.3010 FEELING </s> -0.3010
-0.3010 FOR ENEMIES -0.0969
-0.3010 FOURTY TWO 0.0000
-0.3010 FUN PRANK 0.0000
-0.3010 GAETAN </s> -0.3010
-0.6021 GEE GEE -0.1761
-0.6021 GEE WELL 0.0000
-0.3010 GET TO -0.2218
-0.4771 GO DARK 0.0000
-0.7782 GO TO -0.2632
-0.6021 GOOD </s> -0.3010
-0.6021 GOOD BOY 0.0000
-0.3010 GUARD </s> -0.3010
-0.3010 HACK THE -0.2775
-0.3010 HEARD THIS 0.0000
-0.3010 HELLO I -0.1761
-0.3010 HIGHER </s> -0.3010
-0.3010 HISTORY </s> -0.3010
-0.8451 HOW ARE 0.0000
-1.1461 HOW IS -0.1648
-0.8451 HOW LONG 0.0000
-0.8451 HOW MANY 0.0000
-0.6021 I AM 0.0000
-0.6021 I LOVE 0.0000
-0.3010 I'VE HEARD 0.0000
-0.3010 INCOMMING ATTACK 0.0000
-0.3010 INVERT </s> -0.3010
-1.4150 IS A -0.2632
-1.1139 IS CONNECTED 0.0000
-1.4150 IS FOURTY 0.0000
-1.4150 IS GAETAN 0.0000
-0.5699 IS THE -0.2126
-1.4150 IS THERE 0.0000
-0.3010 IT TAKE 0.0000
-0.3010 JAMMING </s> -0.3010
-0.3010 JOKE </s> -0.3010
-0.3010 KILL </s> -0.3010
-0.3010 KILLING SPREE 0.0000
-0.3010 KING </s> -0.3010
-0.3010 LAUNCH THE -0.2775
-0.3010 LICKS DOES 0.0000
-0.3010 LIFE THE -0.2894
-0.4260 LIGHTS </s> -0.3010
-0.9031 LIGHTS BRIGHTER -0.1761
-0.3010 LOCATION </s> -0.3010
-0.3010 LONG UNTIL 0.0000
-0.3010 LOVE YOU -0.2430
-0.3010 LOWER HIGHER 0.0000
-0.3010 MAKE THE -0.2775
-0.3010 MANY LICKS 0.0000
-0.3010 MASSACRE PLAYLIST 0.0000
-0.3010 ME A -0.2218
-0.3010 MY BASE -0.1761
-0.3010 NEXT SONG 0.0000
-0.3010 NOTIFY ENEMIES 0.0000
-0.3010 NUKES </s> -0.3010
-0.6021 OF A -0.2218
-0.9031 OF INCOMMING 0.0000
-0.9031 OF TEA -0.1761
-0.3010 OKAY </s> -0.3010
-0.3010 ON GUARD 0.0000
-0.3010 ONE DUDE 0.0000
-0.3010 PATROL </s> -0.3010
-0.3010 PAUSE </s> -0.3010
-0.3010 PLAY MASSACRE 0.0000
-0.3010 PLAYED </s> -0.3010
-0.3010 PLAYLIST </s> -0.3010
-0.3010 POP </s> -0.3010
-0.3010 PRANK </s> -0.3010
-0.3010 PREVIOUS SONG 0.0000
-0.3010 RICKROLL </s> -0.3010
-2.1461 SABRE BATCO 0.0000
-1.8451 SABRE BLIND 0.0000
-2.1461 SABRE BRIGHTER -0.1761
-1.6690 SABRE CHECK 0.0000
-2.1461 SABRE CURRENT -0.2218
-1.8451 SABRE DIM 0.0000
-2.1461 SABRE EMCON 0.0000
-2.1461 SABRE END 0.0000
-1.6690 SABRE GO 0.0000
-1.8451 SABRE HACK 0.0000
-1.3010 SABRE HOW 0.0000
-2.1461 SABRE I -0.1761
-2.1461 SABRE INVERT 0.0000
-2.1461 SABRE KILL 0.0000
-2.1461 SABRE KILLING 0.0000
-1.8451 SABRE LAUNCH 0.0000
-2.1461 SABRE MAKE 0.0000
-2.1461 SABRE NEXT 0.0000
-1.8451 SABRE NOTIFY 0.0000
-2.1461 SABRE PAUSE 0.0000
-2.1461 SABRE PLAY 0.0000
-2.1461 SABRE PREVIOUS 0.0000
-2.1461 SABRE RICKROLL 0.0000
-1.8451 SABRE SEARCH 0.0000
-1.8451 SABRE SEND 0.0000
-1.8451 SABRE SET 0.0000
-1.8451 SABRE SHUTDOWN 0.0000
-2.1461 SABRE SNEAK 0.0000
-1.8451 SABRE START 0.0000
-2.1461 SABRE STAY 0.0000
-2.1461 SABRE STOP 0.0000
-1.8451 SABRE TELL 0.0000
-2.1461 SABRE TRAFFIC 0.0000
-1.8451 SABRE TURN 0.0000
-2.1461 SABRE VOLUME -0.1761
-2.1461 SABRE WEATHER 0.0000
-1.4472 SABRE WHAT -0.0669
-2.1461 SABRE WHERE 0.0000
-1.3680 SABRE WHO 0.0000
-0.3010 SEARCH FOR 0.0000
-0.6021 SEND AN 0.0000
-0.6021 SEND EMAIL 0.0000
-0.3010 SET ALARM 0.0000
-0.3010 SHUTDOWN </s> -0.3010
-0.3010 SILICON VALLEY 0.0000
-0.3010 SNEAK ATTACK 0.0000
-0.3010 SONG </s> -0.3010
-0.3010 SPREE PLAYLIST 0.0000
-0.3010 START COUNTDOWN 0.0000
-0.3010 STAY ON 0.0000
-0.3010 STOP JAMMING 0.0000
-0.3010 TAKE TO -0.2218
-0.6021 TEA TEA -0.1761
-0.6021 TEA WHY 0.0000
-0.3010 TELL ME 0.0000
-0.3010 THANK YOU, 0.0000
-0.3010 THANKS </s> -0.3010
-1.5798 THE ANSWER 0.0000
-1.2788 THE CENTER 0.0000
-1.2788 THE CURRENT -0.1249
-1.2788 THE ELECTION 0.0000
-1.2788 THE ENEMY -0.1761
-1.2788 THE KING 0.0000
-1.2788 THE LIGHTS 0.0000
-1.5798 THE MY 0.0000
-1.2788 THE NUKES 0.0000
-1.5798 THE TRAFFIC 0.0000
-1.5798 THE UNIVERSE 0.0000
-1.5798 THE WEATHER 0.0000
-0.3010 THERE </s> -0.3010
-0.3010 THINK OF -0.2430
-0.3010 THIS ONE 0.0000
-1.0792 TO ENCOM 0.0000
-0.7782 TO GET 0.0000
-1.0792 TO LIFE 0.0000
-0.7782 TO THE -0.2775
-0.3010 TOOTSIE POP 0.0000
-0.3010 TRAFFIC </s> -0.3010
-0.6021 TURN VOLUME -0.1761
-0.6021 TURN VOLUMNE 0.0000
-0.3010 TWO SILICON 0.0000
-0.3010 UNIVERSE AND 0.0000
-0.3010 UNTIL DEE 0.0000
-0.3010 UP </s> -0.3010
-0.3010 VALLEY </s> -0.3010
-0.6021 VOLUME LOWER 0.0000
-0.6021 VOLUME UP 0.0000
-0.3010 VOLUMNE DOWN 0.0000
-0.3010 WEATHER </s> -0.3010
-0.3010 WELL PLAYED 0.0000
-1.0792 WHAT A -0.2632
-1.0792 WHAT DO 0.0000
-0.4771 WHAT IS -0.1413
-0.3010 WHERE IS -0.1648
-0.3010 WHO IS -0.0322
-0.3010 WHO'S THERE 0.0000
-0.3010 WHY </s> -0.3010
-0.3010 WOW WHAT -0.2632
-0.9031 YOU </s> -0.3010
-0.6021 YOU FEELING 0.0000
-0.9031 YOU THINK 0.0000
-0.3010 YOU, THANKS 0.0000

\3-grams:
-0.3010 <s> GEE GEE
-0.3010 <s> HELLO I
-0.3010 <s> I'VE HEARD
-0.3010 <s> OKAY </s>
-2.1461 <s> SABRE BATCO
-1.8451 <s> SABRE BLIND
-2.1461 <s> SABRE BRIGHTER
-1.6690 <s> SABRE CHECK
-2.1461 <s> SABRE CURRENT
-1.8451 <s> SABRE DIM
-2.1461 <s> SABRE EMCON
-2.1461 <s> SABRE END
-1.6690 <s> SABRE GO
-1.8451 <s> SABRE HACK
-1.3010 <s> SABRE HOW
-2.1461 <s> SABRE I
-2.1461 <s> SABRE INVERT
-2.1461 <s> SABRE KILL
-2.1461 <s> SABRE KILLING
-1.8451 <s> SABRE LAUNCH
-2.1461 <s> SABRE MAKE
-2.1461 <s> SABRE NEXT
-1.8451 <s> SABRE NOTIFY
-2.1461 <s> SABRE PAUSE
-2.1461 <s> SABRE PLAY
-2.1461 <s> SABRE PREVIOUS
-2.1461 <s> SABRE RICKROLL
-1.8451 <s> SABRE SEARCH
-1.8451 <s> SABRE SEND
-1.8451 <s> SABRE SET
-1.8451 <s> SABRE SHUTDOWN
-2.1461 <s> SABRE SNEAK
-1.8451 <s> SABRE START
-2.1461 <s> SABRE STAY
-2.1461 <s> SABRE STOP
-1.8451 <s> SABRE TELL
-2.1461 <s> SABRE TRAFFIC
-1.8451 <s> SABRE TURN
-2.1461 <s> SABRE VOLUME
-2.1461 <s> SABRE WEATHER
-1.4472 <s> SABRE WHAT
-2.1461 <s> SABRE WHERE
-1.3680 <s> SABRE WHO
-0.3010 <s> THANK YOU,
-0.3010 <s> WHO IS
-0.3010 <s> WHO'S THERE
-0.3010 <s> WOW WHAT
-0.3010 A FUN PRANK
-0.3010 A GOOD BOY
-0.3010 A JOKE </s>
-0.3010 A TOOTSIE POP
-0.3010 AM GOOD </s>
-0.3010 AN EMAIL </s>
-0.3010 AND EVERYTHING </s>
-0.3010 ANSWER TO LIFE
-0.3010 ARE YOU FEELING
-0.3010 BASE LOCATION </s>
-0.3010 BLIND THE ENEMY
-0.3010 BRIGHTER LIGHTS </s>
-0.3010 CENTER OF A
-0.3010 CHECK HISTORY </s>
-0.3010 CHECK THE WEATHER
-0.3010 CURRENT BASE LOCATION
-0.3010 CURRENT ENEMY COUNT
-0.3010 DEE DAY </s>
-0.3010 DIM LIGHTS </s>
-0.3010 DIM THE LIGHTS
-0.3010 DO YOU THINK
-0.3010 DOES IT TAKE
-0.3010 END PATROL </s>
-0.3010 ENEMIES OF INCOMMING
-0.3010 ENEMY COUNT </s>
-0.3010 FOR ENEMIES </s>
-0.3010 FOURTY TWO SILICON
-0.3010 FUN PRANK </s>
-0.3010 GEE GEE WELL
-0.3010 GEE WELL PLAYED
-0.3010 GET TO THE
-0.3010 GO DARK </s>
-0.3010 GO TO ENCOM
-0.3010 GOOD BOY </s>
-0.3010 HACK THE ELECTION
-0.3010 HEARD THIS ONE
-0.3010 HELLO I AM
-0.3010 HOW ARE YOU
-0.3010 HOW IS THE
-0.3010 HOW LONG UNTIL
-0.3010 HOW MANY LICKS
-0.3010 I AM GOOD
-0.3010 I LOVE YOU
-0.3010 I'VE HEARD THIS
-0.3010 INCOMMING ATTACK </s>
-0.3010 IS A GOOD
-0.3010 IS CONNECTED </s>
-0.3010 IS FOURTY TWO
-0.3010 IS GAETAN </s>
-1.1461 IS THE ANSWER
-0.8451 IS THE CURRENT
-0.8451 IS THE KING
-1.1461 IS THE MY
-1.1461 IS THE TRAFFIC
-0.3010 IS THERE </s>
-0.3010 IT TAKE TO
-0.3010 KILLING SPREE PLAYLIST
-0.3010 LAUNCH THE NUKES
-0.3010 LICKS DOES IT
-0.3010 LIFE THE UNIVERSE
-0.3010 LIGHTS BRIGHTER </s>
-0.3010 LONG UNTIL DEE
-0.3010 LOVE YOU </s>
-0.3010 LOWER HIGHER </s>
-0.3010 MAKE THE LIGHTS
-0.3010 MANY LICKS DOES
-0.3010 MASSACRE PLAYLIST </s>
-0.3010 ME A JOKE
-0.3010 MY BASE </s>
-0.3010 NEXT SONG </s>
-0.6021 NOTIFY ENEMIES </s>
-0.6021 NOTIFY ENEMIES OF
-0.3010 OF A TOOTSIE
-0.3010 OF INCOMMING ATTACK
-0.3010 OF TEA TEA
-0.3010 ON GUARD </s>
-0.3010 ONE DUDE </s>
-0.3010 PLAY MASSACRE PLAYLIST
-0.3010 PREVIOUS SONG </s>
-0.3010 SABRE BATCO </s>
-0.3010 SABRE BLIND THE
-0.3010 SABRE BRIGHTER LIGHTS
-0.4771 SABRE CHECK HISTORY
-0.7782 SABRE CHECK THE
-0.3010 SABRE CURRENT BASE
-0.6021 SABRE DIM LIGHTS
-0.6021 SABRE DIM THE
-0.3010 SABRE EMCON </s>
-0.3010 SABRE END PATROL
-0.4771 SABRE GO DARK
-0.7782 SABRE GO TO
-0.3010 SABRE HACK THE
-0.8451 SABRE HOW ARE
-1.1461 SABRE HOW IS
-0.8451 SABRE HOW LONG
-0.8451 SABRE HOW MANY
-0.3010 SABRE I LOVE
-0.3010 SABRE INVERT </s>
-0.3010 SABRE KILL </s>
-0.3010 SABRE KILLING SPREE
-0.3010 SABRE LAUNCH THE
-0.3010 SABRE MAKE THE
-0.3010 SABRE NEXT SONG
-0.3010 SABRE NOTIFY ENEMIES
-0.3010 SABRE PAUSE </s>
-0.3010 SABRE PLAY MASSACRE
-0.3010 SABRE PREVIOUS SONG
-0.3010 SABRE RICKROLL </s>
-0.3010 SABRE SEARCH FOR
-0.6021 SABRE SEND AN
-0.6021 SABRE SEND EMAIL
-0.3010 SABRE SET ALARM
-0.3010 SABRE SHUTDOWN </s>
-0.3010 SABRE SNEAK ATTACK
-0.3010 SABRE START COUNTDOWN
-0.3010 SABRE STAY ON
-0.3010 SABRE STOP JAMMING
-0.3010 SABRE TELL ME
-0.3010 SABRE TRAFFIC </s>
-0.6021 SABRE TURN VOLUME
-0.6021 SABRE TURN VOLUMNE
-0.3010 SABRE VOLUME LOWER
-0.3010 SABRE WEATHER </s>
-1.0000 SABRE WHAT DO
-0.3979 SABRE WHAT IS
-0.3010 SABRE WHERE IS
-0.3010 SABRE WHO IS
-0.3010 SEARCH FOR ENEMIES
-0.3010 SEND AN EMAIL
-0.3010 SEND EMAIL </s>
-0.3010 SET ALARM </s>
-0.3010 SILICON VALLEY </s>
-0.3010 SNEAK ATTACK </s>
-0.3010 SPREE PLAYLIST </s>
-0.3010 START COUNTDOWN </s>
-0.3010 STAY ON GUARD
-0.3010 STOP JAMMING </s>
-0.3010 TAKE TO GET
-0.3010 TEA TEA WHY
-0.3010 TEA WHY </s>
-0.3010 TELL ME A
-0.3010 THANK YOU, THANKS
-0.3010 THE ANSWER TO
-0.3010 THE CENTER OF
-0.3010 THE CURRENT ENEMY
-0.3010 THE ELECTION </s>
-0.3010 THE ENEMY </s>
-0.3010 THE KING </s>
-0.6021 THE LIGHTS </s>
-0.6021 THE LIGHTS BRIGHTER
-0.3010 THE MY BASE
-0.3010 THE NUKES </s>
-0.3010 THE TRAFFIC </s>
-0.3010 THE UNIVERSE AND
-0.3010 THE WEATHER </s>
-0.3010 THINK OF TEA
-0.3010 THIS ONE DUDE
-0.3010 TO ENCOM </s>
-0.3010 TO GET TO
-0.3010 TO LIFE THE
-0.3010 TO THE CENTER
-0.3010 TOOTSIE POP </s>
-0.3010 TURN VOLUME UP
-0.3010 TURN VOLUMNE DOWN
-0.3010 TWO SILICON VALLEY
-0.3010 UNIVERSE AND EVERYTHING
-0.3010 UNTIL DEE DAY
-0.3010 VOLUME LOWER HIGHER
-0.3010 VOLUME UP </s>
-0.3010 VOLUMNE DOWN </s>
-0.3010 WELL PLAYED </s>
-0.3010 WHAT A FUN
-0.3010 WHAT DO YOU
-0.9031 WHAT IS FOURTY
-0.4260 WHAT IS THE
-0.3010 WHERE IS THE
-1.1461 WHO IS A
-0.8451 WHO IS CONNECTED
-1.1461 WHO IS GAETAN
-0.8451 WHO IS THE
-1.1461 WHO IS THERE
-0.3010 WHO'S THERE </s>
-0.3010 WOW WHAT A
-0.3010 YOU FEELING </s>
-0.3010 YOU THINK OF
-0.3010 YOU, THANKS </s>

\end\
