Language model created by QuickLM on Wed Oct 25 17:28:33 EDT 2017
Copyright (c) 1996-2010 Carnegie Mellon University and Alexander I. Rudnicky

The model is in standard ARPA format, designed by Doug Paul while he was at MITRE.

The code that was used to produce this language model is available in Open Source.
Please visit http://www.speech.cs.cmu.edu/tools/ for more information

The (fixed) discount mass is 0.5. The backoffs are computed using the ratio method.
This model based on a corpus of 542 sentences and 1435 words

\data\
ngram 1=1435
ngram 2=3256
ngram 3=3425

\1-grams:
-3.6735 'EM -0.3008
-3.9745 'EM. -0.2753
-2.1550 - -0.2740
-3.9745 . -0.2753
-3.9745 .|I -0.3004
-3.9745 095 -0.3010
-3.4974 1 -0.2752
-3.9745 1. -0.2753
-3.9745 100,000 -0.3007
-3.9745 17 -0.3010
-3.9745 1979. -0.2992
-3.9745 2,400 -0.3010
-3.9745 2. -0.2753
-3.6735 20 -0.3008
-3.9745 22 -0.3010
-3.9745 27, -0.2998
-3.9745 27.|I -0.3000
-3.9745 28 -0.3010
-3.6735 30 -0.3008
-3.6735 319TH -0.3003
-3.9745 3|AND -0.3001
-3.9745 40 -0.3009
-3.9745 43RD -0.3009
-3.9745 48 -0.3009
-3.9745 5 -0.3008
-3.9745 5. -0.2753
-3.9745 5.3 -0.3009
-3.9745 50 -0.3008
-3.9745 50LB|SURVIVED -0.3002
-3.9745 6.30, -0.3008
-3.9745 69% -0.2991
-3.9745 72 -0.3010
-3.9745 85 -0.2974
-3.9745 95% -0.2991
-3.9745 97... -0.2753
-1.2405 </s> -0.3010
-1.2405 <s> -0.2157
-2.0714 A -0.2954
-2.9331 ABOUT -0.2949
-3.9745 ABOUT? -0.2753
-3.9745 ACCEPT -0.2973
-3.9745 ACCEPTABLE -0.3010
-3.9745 ACT -0.3008
-3.6735 ADDRESS. -0.2753
-3.9745 ADDRESS? -0.2753
-3.9745 AEROBICS -0.3010
-3.9745 AFFIRMATIVE, -0.3005
-3.9745 AFFIRMATIVE. -0.2753
-3.9745 AFFORD -0.2974
-3.4974 AFTER -0.2945
-3.9745 AFTERMATH. -0.2753
-3.4974 AGAIN. -0.2753
-3.9745 AGE -0.3009
-3.9745 AGE. -0.2753
-3.9745 AGE? -0.2753
-3.6735 AHEAD. -0.2741
-3.3725 AIR -0.3008
-3.9745 AIRBORNE -0.3009
-3.6735 AIRCRAFT. -0.2753
-3.9745 AIRLINE -0.3010
-3.9745 AIRMAN -0.3010
-3.9745 AIRPORT. -0.2753
-3.9745 AKA -0.3008
-3.9745 ALARM -0.2753
-3.9745 ALARM.|THE -0.3009
-3.6735 ALASKAN -0.3008
-3.9745 ALERT. -0.3006
-3.9745 ALIVE -0.2999
-3.9745 ALIVE,|WHY -0.3006
-3.9745 ALIVE,|YOUR -0.3009
-2.7704 ALL -0.2935
-3.6735 ALL. -0.2753
-3.9745 ALMOST -0.2996
-3.6735 ALREADY -0.3008
-3.4974 ALWAYS -0.2971
-3.9745 AM -0.2974
-2.9331 AN -0.3005
-2.5943 AND -0.2925
-3.9745 ANIMAL -0.2753
-3.9745 ANIMALS -0.2753
-3.9745 ANNIHILATE -0.3009
-3.9745 ANSWER -0.2946
-3.9745 ANSWERS|OUT -0.2991
-2.9745 ANY -0.2985
-3.9745 ANYBODY.|THE -0.3010
-3.6735 ANYONE -0.2973
-3.6735 ANYTHING -0.3009
-3.9745 ANYTHING. -0.2753
-3.9745 ANYTHING?|- -0.3003
-3.9745 ANYWAY, -0.2946
-3.9745 ANYWAY. -0.2753
-3.9745 ANYWAY? -0.2753
-3.9745 ANYWHERE. -0.2753
-3.9745 APES -0.3010
-3.9745 APPROXIMATELY -0.3010
-2.4430 ARE -0.2845
-3.9745 AREN'T -0.2971
-3.9745 ARE|PENETRATING -0.2946
-3.6735 AROUND -0.2970
-3.9745 AROUND. -0.2753
-3.9745 ARRANGED -0.3006
-3.9745 ARREST, -0.2753
-3.3725 AS -0.2904
-3.9745 AS: -0.2753
-3.9745 ASK -0.2971
-3.9745 ASKED -0.2996
-3.9745 ASS -0.3006
-3.6735 ASSHOLE -0.3009
-2.8606 AT -0.2926
-3.4974 ATTACK -0.2753
-3.9745 ATTACK, -0.3010
-3.6735 ATTACK. -0.2753
-3.9745 AWAITING -0.3002
-3.9745 AWAY -0.3006
-3.9745 AWAY. -0.2753
-3.0714 BACK -0.2994
-3.9745 BACK. -0.2753
-3.9745 BACKFIRE -0.3010
-3.9745 BACKHAND. -0.2753
-3.6735 BASE -0.2753
-3.9745 BASE.|THE -0.3009
-3.6735 BASTARD -0.3005
-3.9745 BASTARDS -0.2995
-3.9745 BATHROOM. -0.2999
-2.6958 BE -0.2921
-3.4974 BECAUSE -0.2979
-3.9745 BEDTIME -0.3010
-3.1964 BEEN -0.2971
-3.9745 BEES -0.3010
-3.9745 BEFORE -0.3009
-3.9745 BEFORE. -0.2753
-3.9745 BEFORE.|WE'LL -0.3009
-3.9745 BEGIN. -0.2753
-3.1964 BELIEVE -0.2955
-3.9745 BELIEVE|THAT -0.2946
-3.9745 BELIEVE|THEY -0.3010
-3.9745 BERINGER -0.3004
-3.9745 BERINGER? -0.3008
-3.9745 BETCHA! -0.2753
-3.4974 BETTER -0.3000
-3.9745 BETTER|THAN -0.3002
-3.9745 BEVERAGE|WAITING -0.3001
-3.9745 BIBLICAL -0.3010
-3.9745 BIG -0.3010
-3.9745 BLIND -0.2946
-3.9745 BLIPS -0.2995
-3.9745 BLOW -0.3008
-3.9745 BLUE -0.3010
-3.9745 BLUFF, -0.3010
-3.9745 BLUFF. -0.2999
-3.9745 BMEWS -0.3008
-3.9745 BOARD -0.2946
-3.9745 BOARDS -0.2995
-3.9745 BOAT. -0.2753
-3.9745 BOAT.|THERE'S -0.3009
-3.9745 BOAT? -0.2753
-3.9745 BODY -0.3010
-3.6735 BOMB -0.3009
-3.9745 BOMBER -0.3007
-3.9745 BOMBERS -0.2996
-3.9745 BOMBERS! -0.2753
-3.9745 BOMBERS. -0.2753
-3.9745 BOMBERS.|GET -0.2946
-3.9745 BOMBERS|BACK -0.2974
-3.9745 BOMBERS|THAT -0.2995
-3.9745 BORING -0.3010
-3.9745 BOTHERING -0.3008
-3.9745 BOWERS. -0.2753
-3.9745 BOY -0.2996
-3.4974 BRASS -0.3009
-3.9745 BRIGHTER -0.2753
-3.9745 BRILLIANT -0.3010
-3.9745 BULLSHIT! -0.2753
-3.9745 BUS|AS -0.3010
-3.2755 BUT -0.2701
-3.9745 BUTTON -0.2974
-3.9745 BUT|I -0.3001
-3.9745 BUY -0.2946
-3.4974 BY -0.2960
-3.6735 BY. -0.2753
-3.9745 BYE -0.3008
-3.9745 BYE. -0.2753
-3.9745 BYE.|- -0.3010
-3.0714 CALL -0.2949
-3.9745 CALL? -0.2753
-3.9745 CALLED -0.3008
-3.9745 CAME -0.3009
-2.8284 CAN -0.2895
-2.9745 CAN'T -0.2965
-3.9745 CAN'T. -0.2753
-3.4974 CAN. -0.2753
-3.6735 CANNOT -0.3008
-3.9745 CANNOT|POSITIVELY -0.3008
-3.9745 CAPABILITIES. -0.2753
-3.9745 CARE -0.3005
-3.6735 CARE. -0.2752
-3.9745 CARED -0.3010
-3.6735 CAREFUL -0.3008
-3.9745 CAREFULLY. -0.2753
-3.9745 CARRY|OUT -0.3008
-3.9745 CAUGHT -0.2996
-3.9745 CAUSE -0.3001
-3.3725 CEDAR -0.3008
-3.9745 CENTER -0.2991
-3.9745 CENTRE -0.3010
-3.9745 CENTRE. -0.2753
-3.9745 CHANGE -0.3008
-3.6735 CHANGES. -0.2753
-3.9745 CHANNEL -0.3008
-3.9745 CHASE. -0.2753
-3.9745 CHASING -0.3010
-3.4974 CHECK -0.2945
-3.9745 CHECKING -0.3009
-3.9745 CHESS. -0.2753
-3.9745 CHESS? -0.2753
-3.9745 CHILDREN, -0.3004
-3.9745 CHOICE|BUT -0.2974
-3.6735 CHRIST! -0.3004
-3.9745 CHRIST!|- -0.3002
-3.6735 CHRIST'S -0.3009
-3.9745 CITY, -0.3010
-3.9745 CLASS. -0.2753
-3.6735 CLASSIFIED -0.3009
-3.9745 CLEANING -0.2946
-3.9745 CLEAR -0.3010
-3.6735 CLEAR! -0.2750
-3.9745 CLOSE -0.3009
-3.9745 CLOSED! -0.2753
-3.9745 CLOSED,|NOBODY -0.3009
-3.9745 CLOSING -0.3007
-3.9745 COBRA -0.3010
-3.9745 COC, -0.2974
-3.9745 CODE -0.2753
-3.6735 CODE. -0.2741
-3.6735 CODES -0.2996
-3.4974 CODES. -0.2714
-3.9745 CODES|SO -0.3006
-3.9745 CODES|THAT'LL -0.3002
-3.4974 COLONEL -0.3009
-3.9745 COLONEL, -0.2998
-3.9745 COLONEL? -0.2753
-3.9745 COLORADO -0.2753
-3.9745 COLORADO? -0.2753
-2.8606 COME -0.2954
-3.9745 COME. -0.3003
-3.9745 COMES. -0.2753
-3.9745 COMFORTABLY? -0.2753
-3.9745 COMING -0.3006
-3.9745 COMMAND, -0.3010
-3.6735 COMMAND. -0.2753
-3.9745 COMPLIMENTARY -0.3010
-3.2755 COMPUTER -0.2987
-3.9745 COMPUTER! -0.2753
-3.9745 COMPUTER-ENHANCED -0.3010
-3.6735 COMPUTERS -0.2960
-3.9745 CONCLUSION|THAT -0.3006
-3.6735 CONFIDENCE -0.2992
-3.3725 CONFIRM -0.2944
-3.9745 CONFIRMATION -0.2996
-3.9745 CONFIRMED -0.2973
-3.6735 CONLEY, -0.3003
-3.9745 CONNECTED -0.2753
-3.9745 CONSIDERATION, -0.3007
-3.9745 CONSISTENT|WITH -0.3010
-3.9745 CONTACT. -0.2753
-3.9745 CONTROLLER -0.3010
-3.9745 CONTROLLERS.|I -0.3009
-3.9745 CONVERSATION -0.3004
-3.3725 COULD -0.2983
-3.9745 COULDN'T -0.3010
-3.9745 COUNT -0.2753
-3.9745 COUNTDOWN -0.2753
-3.9745 COUNTERSTRIKE.|THAT'S -0.2995
-3.6735 COURSE. -0.2715
-3.9745 CRAP -0.2753
-3.2755 CRYSTAL -0.3008
-3.4974 CURRENT -0.3008
-3.9745 CURRENTLY -0.3010
-3.9745 DAD'S -0.3010
-3.9745 DAMN -0.3010
-3.9745 DANE, -0.2992
-3.9745 DARK -0.2753
-3.9745 DAVID! -0.3004
-3.4974 DAVID, -0.2990
-3.4974 DAVID. -0.2753
-3.9745 DAVID... -0.3009
-3.9745 DAVID.|YOU'RE -0.3004
-3.9745 DAVID?|- -0.3008
-3.9745 DAVIS, -0.3001
-3.6735 DAY -0.2743
-3.6735 DEAD. -0.2748
-3.9745 DEAD.|- -0.3003
-3.9745 DEAD.|I'M -0.3008
-3.4974 DEAD? -0.2753
-3.9745 DEATH. -0.2753
-3.9745 DEATH|COS -0.3007
-3.9745 DECIDED -0.2974
-3.9745 DECISION. -0.2753
-3.9745 DEE -0.3009
-3.9745 DEEP -0.3010
-3.1294 DEFCON -0.3007
-3.6735 DEFENCE -0.3008
-3.9745 DEGREES. -0.2753
-3.9745 DELTA -0.3010
-3.9745 DENVER. -0.2753
-3.9745 DENVER|WHERE -0.3009
-3.6735 DENY -0.3005
-3.9745 DEPENDING -0.2996
-3.9745 DEPLOYMENT. -0.2753
-3.9745 DESTROY -0.2946
-3.9745 DESTROYED. -0.2753
-3.9745 DESTROYING -0.3010
-3.9745 DESTRUCTION -0.2991
-3.9745 DESTRUCTION... -0.2753
-3.6735 DETECTION. -0.2753
-3.9745 DETECTION.|WE -0.3000
-3.0714 DID -0.2865
-3.6735 DID. -0.2753
-3.4974 DIDN'T -0.3003
-3.9745 DIE -0.3010
-3.9745 DIE. -0.2753
-3.9745 DIFFERENCE? -0.2753
-3.9745 DILATED, -0.3010
-3.9745 DIM -0.2946
-3.9745 DISAPPEARED. -0.2753
-3.6735 DISARM -0.2946
-3.9745 DISCONNECTED. -0.2753
-2.7704 DO -0.2884
-3.9745 DO, -0.3010
-3.6735 DO. -0.2753
-3.9745 DO?|- -0.2974
-3.9745 DOD -0.3010
-3.2755 DOES -0.2970
-3.4974 DOESN'T -0.2992
-3.9745 DOESN'T. -0.2996
-3.9745 DOIN', -0.3010
-3.4974 DOING -0.2996
-3.4974 DOING? -0.2753
-3.9745 DOING?|- -0.2999
-3.9745 DOMINATED -0.2946
-2.6523 DON'T -0.2894
-3.9745 DON'T. -0.2753
-3.9745 DOOR -0.3009
-3.4974 DOOR! -0.2750
-3.9745 DOOR?|- -0.2998
-3.9745 DOUGHERTY, -0.3005
-3.4974 DOWN -0.2945
-3.9745 DOWN. -0.2753
-3.9745 DPS -0.2992
-3.1294 DR -0.3006
-3.9745 EACH -0.2991
-3.9745 EAST -0.3010
-3.9745 EDUCATION. -0.2753
-3.9745 EGGS. -0.2753
-3.9745 EIGHT. -0.2753
-3.9745 EIGHT... -0.3010
-3.9745 EITHER -0.2991
-3.9745 ELECTION -0.2753
-3.9745 ELEVATOR. -0.2753
-3.9745 ELMENDORF -0.3008
-3.9745 ELMENDORF. -0.2753
-3.9745 ELSE -0.2996
-3.9745 ELSE|UNTIL -0.2974
-3.9745 EMAIL -0.2753
-3.9745 ENABLED. -0.2753
-3.9745 ENCOM -0.2753
-3.9745 END -0.2946
-3.9745 ENDING -0.3001
-3.6735 ENEMIES -0.2733
-3.4974 ENEMY -0.2748
-3.9745 ENEMY? -0.2753
-3.9745 ENGLISH. -0.2753
-3.9745 ENOUGH -0.3001
-3.9745 ENOUGH. -0.2753
-3.9745 ENTIRE -0.3010
-3.9745 ESCORTING -0.2971
-3.9745 ESPIONAGE.|- -0.3010
-3.9745 ESPIONAGE?! -0.2753
-3.4974 EVEN -0.2997
-3.9745 EVER -0.3008
-3.9745 EVERYBODY -0.3009
-3.6735 EVERYTHING. -0.2753
-3.9745 EVERYWHERE. -0.3006
-3.9745 EXACTLY. -0.3007
-3.9745 EXCEPT -0.2974
-3.4974 EXCUSE -0.3008
-3.9745 EXECUTION -0.3009
-3.9745 EXERCISE. -0.2753
-3.9745 EXERCISE?|- -0.2998
-3.9745 EXIST. -0.2753
-3.9745 EXTERNAL -0.3010
-3.9745 EXTINCTION -0.2992
-3.9745 EXTINGUISHED, -0.2999
-3.9745 EYES -0.2995
-3.9745 EYES.|- -0.3007
-3.9745 F-16S -0.3006
-3.9745 F-A-L-K-E-N, -0.2753
-3.9745 FAIL-SAFE. -0.2753
-3.9745 FALKEN -0.3009
-3.6735 FALKEN, -0.2971
-3.9745 FALKEN,|F-A-L-K-E-N, -0.3004
-3.1964 FALKEN. -0.2749
-3.9745 FALKEN? -0.2753
-3.9745 FALSE -0.3008
-3.9745 FANTASY. -0.2753
-3.6735 FAR -0.3001
-3.9745 FAR.|- -0.3009
-3.9745 FAULT. -0.2753
-3.9745 FAULT? -0.2946
-3.9745 FAVOUR. -0.2753
-3.9745 FAVOUR|AND -0.3001
-3.9745 FBI|ASKING -0.3010
-3.9745 FBL'LL -0.3002
-3.9745 FEED -0.2996
-3.9745 FEELING -0.2753
-3.6735 FERRY -0.3009
-3.9745 FERRY. -0.2753
-3.4974 FEW -0.3008
-3.9745 FILE. -0.2753
-3.9745 FILES|INDICATE -0.3009
-3.9745 FILE|HAS -0.3008
-3.9745 FILLED -0.3007
-3.1294 FIND -0.2861
-3.9745 FINE -0.2996
-3.9745 FIRE -0.3010
-3.9745 FIRST -0.2999
-3.9745 FISH -0.3010
-3.9745 FIVE -0.3008
-3.9745 FIVE... -0.2753
-3.9745 FIVE.|LET -0.3003
-3.9745 FLEW. -0.2753
-3.9745 FLIGHT -0.3010
-3.9745 FLOOR? -0.2753
-3.9745 FLOORS|IN -0.2946
-3.9745 FLUSH -0.2946
-3.9745 FLY. -0.2753
-3.9745 FOLKS. -0.3009
-3.9745 FOLLOW -0.3009
-2.6523 FOR -0.2894
-3.9745 FOR? -0.2753
-3.6735 FORCE -0.3009
-3.9745 FORCES. -0.2753
-3.9745 FORGET|ABOUT -0.2946
-3.9745 FORKS,|AND -0.3009
-3.9745 FORTUNATE -0.3010
-3.9745 FOUGHT -0.2999
-3.9745 FOUR -0.3008
-3.9745 FOUR... -0.2753
-3.9745 FOXTROT -0.3010
-3.9745 FREAKED. -0.2753
-3.0203 FROM -0.2901
-3.9745 FROM|MISTAKES -0.2998
-3.9745 FRONT -0.2991
-3.9745 FULL -0.2991
-3.6735 FULL-SCALE -0.3007
-3.9745 FUNCTIONING. -0.2753
-3.9745 FUTILITY. -0.3002
-3.9745 GAIN -0.2973
-3.9745 GALENA. -0.2753
-3.4974 GAME -0.2732
-3.9745 GAME!|HE'S -0.3006
-3.9745 GAME, -0.3009
-3.9745 GAME. -0.2753
-3.9745 GAME.|IT'S -0.3009
-3.9745 GAME? -0.2753
-3.9745 GAMES -0.3007
-3.9745 GAMES!|- -0.3009
-3.4974 GAMES. -0.2753
-3.9745 GAMES? -0.2999
-3.9745 GAME|THAT -0.2998
-3.6735 GATE'S -0.3005
-3.6735 GATE, -0.3009
-3.6735 GATE. -0.2752
-3.9745 GATES -0.2995
-3.6735 GAVE -0.3006
-3.6735 GENERAL -0.3009
-3.1294 GENERAL, -0.2854
-3.9745 GENERAL. -0.2753
-3.9745 GENERAL.|JUST -0.3010
-3.9745 GENERATORS -0.2996
-3.9745 GENERATORS|AREN'T -0.3010
-3.9745 GERMANY. -0.2753
-2.6523 GET -0.2815
-3.6735 GETS -0.2989
-3.9745 GETTING -0.2996
-3.9745 GIRLS -0.3006
-3.1964 GIVE -0.2976
-3.9745 GIVING -0.3008
-3.9745 GLOBAL -0.3010
-3.1294 GO -0.2962
-3.9745 GO, -0.3009
-3.9745 GO. -0.2753
-3.9745 GO.|- -0.3006
-3.9745 GOD -0.2974
-3.4974 GODDAMN -0.3007
-3.1964 GOING -0.2969
-3.9745 GONE? -0.2753
-2.9745 GONNA -0.2991
-3.4974 GOOD -0.2959
-3.9745 GOOD. -0.2753
-3.6735 GOOSE -0.3009
-2.8606 GOT -0.2854
-3.4974 GOTTA -0.2991
-3.9745 GOT|INTO -0.3007
-3.9745 GRACIOUSLY -0.3010
-3.9745 GRADE? -0.2753
-3.4974 GRAND -0.3009
-3.6735 GREETINGS, -0.3009
-3.9745 GROUND. -0.2753
-3.9745 GROUP.|SO -0.3001
-3.9745 GROWS -0.3010
-3.9745 GUYS.|WE'VE -0.3009
-3.9745 H -0.3009
-3.9745 HACK -0.2946
-3.6735 HAD -0.3008
-3.9745 HALF -0.2946
-3.9745 HALLUCINATION. -0.2753
-3.6735 HAPPENING? -0.2753
-3.9745 HARD -0.3009
-3.9745 HARDER -0.2996
-3.9745 HARDLY -0.3003
-3.2755 HAS -0.2977
-3.9745 HASN'T -0.3010
-3.9745 HAT, -0.2998
-3.9745 HAT.|ACKNOWLEDGE. -0.2753
-3.9745 HAT.|THEY'RE -0.3004
-2.6321 HAVE -0.2851
-3.4974 HAVE. -0.2753
-3.9745 HAVEN'T -0.3008
-2.9745 HE -0.2993
-3.9745 HE'LL -0.3005
-3.1294 HE'S -0.2989
-3.9745 HE'S|THE -0.3009
-3.9745 HEADSET. -0.2753
-3.9745 HEARD -0.3002
-3.9745 HELL -0.2991
-3.6735 HELL'S -0.3006
-3.9745 HELL?! -0.2753
-3.6735 HELLO, -0.3007
-3.6735 HELLO. -0.2753
-3.2755 HERE -0.2966
-3.6735 HERE! -0.2753
-3.9745 HERE!|- -0.3007
-3.9745 HERE, -0.3010
-3.4974 HERE. -0.2743
-3.9745 HERE.|- -0.3007
-3.9745 HERE.|I'M -0.3008
-3.6735 HERE?|- -0.2971
-3.9745 HEY! -0.2753
-3.9745 HEY, -0.3010
-3.6735 HIGH-SCHOOL -0.3009
-3.6735 HIGH. -0.2753
-3.4974 HIM -0.3008
-3.9745 HIM! -0.2753
-3.9745 HIM!|HE'S -0.3004
-3.6735 HIM. -0.3006
-3.9745 HIM? -0.2753
-3.9745 HIMSELF. -0.2753
-3.9745 HIS -0.3010
-3.9745 HISTORY -0.2753
-3.4974 HIT -0.2909
-3.1294 HOLD -0.2941
-3.6735 HOPE -0.2963
-3.9745 HOPING -0.3001
-3.9745 HORROR -0.2991
-3.9745 HOUR. -0.2753
-3.9745 HOURS. -0.2753
-3.9745 HOUSE.|YOUR -0.3010
-3.9745 HOUSING -0.3010
-2.9331 HOW -0.2890
-3.9745 HUH? -0.2974
-3.9745 HUMANITY|PLANNING -0.3010
-3.6735 HUME,|H-U-M-E, -0.2996
-3.9745 HUME. -0.2753
-3.9745 HUME.|- -0.2992
-3.9745 HURRY -0.2996
-3.9745 HURRY! -0.2753
-3.9745 HURT|THEMSELVES, -0.3008
-3.9745 HUSTLE.|THE -0.3009
-2.0824 I -0.2894
-3.9745 I'D -0.3010
-3.1294 I'LL -0.2980
-2.7704 I'M -0.2971
-3.4974 I'VE -0.3006
-3.9745 ICBMS. -0.2753
-3.9745 IDEA.|IT -0.3008
-3.9745 IDENTITIES. -0.2753
-3.1964 IF -0.2884
-3.9745 IMAGE|600 -0.3009
-3.0203 IMPACT. -0.2747
-3.9745 IMPACT|IN -0.2946
-3.9745 IMPORTANT -0.3010
-2.4974 IN -0.2831
-3.9745 IN! -0.2753
-3.3725 IN. -0.2752
-3.9745 INBOUND -0.3007
-3.9745 INBOUNDS. -0.2753
-3.9745 INBOUND|SOVIET -0.3010
-3.9745 INCOMMING -0.3009
-3.9745 INCREASE|IN -0.3008
-3.9745 INDICATE -0.2973
-3.9745 INDICTMENT -0.3001
-3.6735 INFORMATION -0.2970
-3.9745 INFORMED -0.2753
-3.6735 INITIAL -0.3008
-3.9745 INITIATE -0.3010
-3.9745 INSIDE.|- -0.3004
-3.9745 INSTRUCTIONS. -0.3010
-3.9745 INTELLIGENCE -0.3009
-3.9745 INTERNAL -0.3010
-3.9745 INTERPRET -0.2973
-3.9745 INTO -0.2973
-3.9745 INVADE -0.2946
-3.9745 INVITE -0.3006
-2.3725 IS -0.2823
-3.9745 IS? -0.2753
-3.9745 ISLAND|AND -0.3006
-3.9745 ISN'T -0.3008
-2.4694 IT -0.2891
-3.3725 IT! -0.2737
-3.9745 IT'D -0.3003
-3.9745 IT'LL -0.3002
-2.5766 IT'S -0.2872
-3.3725 IT, -0.3003
-3.4974 IT. -0.2751
-3.9745 IT.|- -0.3006
-3.9745 IT.|HAVE -0.2996
-3.9745 IT.|HOW -0.3009
-3.9745 IT?! -0.2753
-3.6735 IT?|- -0.2997
-3.9745 ITS -0.3009
-3.9745 ITSELF -0.2992
-3.9745 ITSELF?|- -0.3009
-3.9745 JACK. -0.2753
-3.9745 JAMMED -0.3006
-3.9745 JENNIFER? -0.2999
-3.6735 JESUS -0.3009
-3.6735 JESUS! -0.2753
-3.9745 JOHN! -0.3009
-3.9745 JOHN, -0.3010
-3.9745 JOHN. -0.3007
-3.9745 JOIN -0.3010
-3.9745 JOKE -0.2753
-3.4974 JOSHUA -0.3006
-3.9745 JOSHUA! -0.2753
-3.6735 JOSHUA'S -0.3007
-3.6735 JOSHUA, -0.2737
-3.2755 JOSHUA. -0.2753
-3.9745 JOSHUA|TO -0.3009
-3.9745 JUNCTION -0.3010
-3.9745 JUNCTION,|COLORADO -0.2974
-2.8606 JUST -0.2981
-3.6735 KID -0.2998
-3.9745 KID'S -0.3010
-3.9745 KID. -0.3008
-3.9745 KIDDING? -0.2753
-3.6735 KIDS -0.3004
-3.9745 KILL -0.3010
-3.4974 KIND -0.2991
-3.9745 KINDA -0.3010
-3.9745 KING -0.2753
-2.8284 KNOW -0.2888
-3.3725 KNOW. -0.2739
-3.4974 KNOWS -0.2986
-3.9745 KNOW|WHY -0.3004
-3.4974 LAND -0.2998
-3.9745 LAS -0.3010
-3.3725 LAST -0.3008
-3.9745 LATE. -0.2753
-3.9745 LATER. -0.2753
-2.7192 LAUNCH -0.2932
-3.6735 LAUNCH. -0.2753
-3.9745 LAUNCHING -0.3005
-3.9745 LAWYER -0.3010
-3.9745 LAWYER. -0.2753
-3.9745 LEAK -0.3008
-3.4974 LEARN -0.2941
-3.9745 LEARN, -0.3009
-3.9745 LEARNED. -0.2753
-3.9745 LEARNING. -0.2753
-3.9745 LEAST. -0.3009
-3.6735 LEAVE -0.2932
-3.9745 LEAVE?|- -0.3009
-3.9745 LEAVES -0.3006
-3.9745 LEFT. -0.2753
-3.6735 LEM, -0.3000
-3.9745 LEND -0.3003
-3.9745 LESSON -0.2992
-3.9745 LESSON. -0.2753
-3.3725 LET -0.2938
-3.1964 LET'S -0.2995
-3.6735 LETTING -0.3000
-3.9745 LICKS -0.3008
-3.9745 LIGHT -0.2753
-3.6735 LIGHTS -0.2753
-3.2755 LIKE -0.2905
-3.9745 LIKE|EVERYBODY -0.3010
-3.9745 LINE. -0.2753
-3.9745 LINES -0.3006
-3.4974 LIST -0.3005
-3.9745 LIST!|- -0.3006
-3.9745 LIST? -0.2753
-3.9745 LISTEN -0.3010
-3.9745 LISTEN, -0.3003
-3.9745 LISTENING -0.2974
-3.9745 LISTENING.|- -0.3006
-3.6735 LISTING. -0.2753
-3.9745 LISTING|FOR -0.2973
-3.6735 LITTLE -0.3009
-3.9745 LIVED|A -0.3010
-3.9745 LIVES -0.2996
-3.9745 LOAD -0.2991
-3.6735 LOCK -0.3006
-3.6735 LOCKED -0.3005
-3.9745 LOCKS -0.3010
-3.9745 LOG -0.3007
-3.9745 LOGIC.|- -0.2998
-3.4974 LONG -0.3006
-3.9745 LOOK -0.3004
-3.6735 LOOK, -0.2962
-3.6735 LOOKING -0.3000
-3.9745 LOOKING. -0.2753
-3.9745 LOOP. -0.2999
-3.9745 LORING -0.3008
-3.9745 LORING, -0.2753
-3.9745 LOSSES. -0.2753
-3.9745 LOSSES|AT -0.3010
-3.9745 LOT -0.3005
-3.9745 LOVED -0.2996
-3.6735 LSLAND, -0.3009
-3.9745 LSLAND. -0.2753
-3.6735 MACHINE -0.2971
-3.9745 MACHINE. -0.2753
-3.9745 MACHINES -0.3001
-3.9745 MADE -0.3002
-3.9745 MAGNIFICENT -0.3010
-3.9745 MAILING -0.3010
-3.4974 MAJOR -0.3009
-3.9745 MAJOR.|- -0.3009
-3.1964 MAKE -0.2888
-3.9745 MAKE. -0.2753
-3.9745 MAKING -0.2996
-3.9745 MALFUNCTION.|- -0.3009
-3.6735 MAN -0.2954
-3.6735 MANY -0.3008
-3.9745 MARIJUANA -0.2999
-3.9745 MASSACRE -0.3010
-3.9745 MASSIVE -0.3009
-3.9745 MAY -0.3002
-3.6735 MAYBE -0.2998
-3.9745 MCKITTRICK -0.3004
-3.9745 MCKITTRICK'S -0.3009
-3.6735 MCKITTRICK. -0.2753
-3.9745 MCKITTRICK.|- -0.3007
-3.9745 MCKITTRICK? -0.2753
-3.9745 MCKITTRICK?|AFTER -0.3009
-3.9745 MCKITTRICK?|I -0.3006
-2.7704 ME -0.2842
-3.9745 ME! -0.2753
-3.3725 ME. -0.2735
-3.9745 ME.|THANK -0.2971
-3.9745 ME? -0.2753
-3.9745 MEAN, -0.3010
-3.9745 MEAN?|HE -0.3009
-3.6735 MEN -0.3008
-3.9745 MEN, -0.3004
-3.9745 MESSAGE -0.3006
-3.9745 ME|EAT -0.3010
-3.9745 ME|THAT -0.3007
-3.4974 MIGHT -0.2999
-3.6735 MILES -0.3009
-3.9745 MILES. -0.2753
-3.9745 MILES|FROM -0.2973
-3.9745 MILITARY'S -0.3010
-3.9745 MILLION -0.3010
-3.9745 MILLIONS|WHO'LL -0.3010
-3.9745 MILLISECOND -0.2991
-3.4974 MINUTE -0.2963
-3.9745 MINUTE. -0.2753
-3.6735 MINUTES. -0.2753
-3.9745 MISSED -0.2946
-3.9745 MISSILE -0.3010
-3.4974 MISSILES -0.2985
-3.9745 MISSILES! -0.2753
-3.3725 MISSILES. -0.2753
-3.9745 MISSILES.|- -0.3008
-3.9745 MISSILES.|THEY'RE -0.3010
-3.9745 MISSILES?|- -0.3008
-3.9745 MISSILES|AT -0.3006
-3.6735 MODE. -0.2753
-3.9745 MODE.|CLOSE -0.3007
-3.9745 MOMENT|WE -0.3009
-3.9745 MONEY?|- -0.3009
-3.9745 MONITORING -0.3008
-3.9745 MORE -0.3010
-3.9745 MORE. -0.2753
-3.9745 MORE?|- -0.3006
-3.9745 MOST -0.3010
-3.9745 MOUNTAIN -0.2995
-3.6735 MOUNTAIN. -0.2753
-3.6735 MOVE -0.2990
-3.9745 MOVE. -0.2753
-3.9745 MOVIE -0.3010
-3.1294 MR -0.3005
-3.9745 MUCH -0.3010
-3.9745 MUCH, -0.3005
-3.9745 MUCH,|THEY -0.3008
-3.9745 MUST -0.3002
-3.0203 MY -0.3003
-3.6735 MYSELF. -0.2753
-3.9745 NATURAL -0.3010
-3.9745 NATURAL.|IT'S -0.3004
-3.4974 NATURE -0.3001
-3.1964 NEED -0.2962
-3.6735 NEGATIVE -0.3005
-3.6735 NEVER -0.3002
-3.6735 NEW -0.3009
-3.9745 NEW|SOVIET -0.3010
-3.9745 NEXT -0.3010
-3.9745 NICE -0.3009
-3.9745 NIGHT. -0.2753
-3.9745 NINE -0.3008
-3.9745 NINE... -0.2753
-2.8284 NO -0.2996
-3.4974 NO! -0.2736
-3.2755 NO, -0.2985
-2.9745 NO. -0.2724
-3.9745 NO... -0.2971
-3.9745 NOBODY! -0.2753
-3.9745 NOBODY|WOULD -0.3000
-3.9745 NONE -0.2991
-3.6735 NORAD. -0.2753
-3.9745 NORDKAPP,|BEARING -0.3010
-2.7192 NOT -0.2903
-3.9745 NOT, -0.3010
-3.9745 NOT?|- -0.3006
-3.9745 NOTHIN' -0.3006
-3.6735 NOTHING -0.2960
-3.9745 NOTIFY -0.3009
-3.9745 NOW -0.3002
-3.6735 NOW, -0.3009
-3.2755 NOW. -0.2753
-3.4974 NUCLEAR -0.3008
-3.9745 NUKED -0.3010
-3.9745 NUKES -0.2753
-3.3725 NUMBER -0.2980
-3.6735 NUMBERS -0.2973
-3.3725 NUMBERS. -0.2741
-3.9745 OBITUARY -0.3009
-2.3513 OF -0.2838
-3.6735 OFF -0.2946
-3.9745 OFF.|- -0.3008
-3.9745 OF|WHAT -0.2971
-3.4974 OH! -0.2715
-3.1294 OH, -0.2925
-3.9745 OH... -0.3010
-3.9745 OK, -0.3010
-3.4974 OK. -0.2748
-3.6735 OK? -0.2753
-3.9745 OLD. -0.2753
-2.4974 ON -0.2840
-3.4974 ON! -0.2753
-3.4974 ON, -0.3009
-3.1964 ON. -0.2738
-3.9745 ON.|- -0.3009
-3.9745 ON.|WE'RE -0.3008
-3.4974 ON? -0.2752
-3.9745 ON?|- -0.3007
-3.6735 ONCE -0.3009
-3.1964 ONE -0.2979
-3.3725 ONE. -0.2750
-3.9745 ONE... -0.3006
-3.4974 ONLY -0.3007
-3.6735 OPEN -0.3003
-3.9745 OPERATIONS.|COLONEL -0.3010
-3.9745 OPERATIONS.|LIEUTENANT -0.3009
-3.9745 OPERATION|AT -0.3006
-3.9745 OPTION. -0.2753
-3.3725 OR -0.2989
-3.6735 ORDER -0.2995
-3.9745 ORDER. -0.2753
-3.9745 ORDERING -0.3007
-3.9745 OREGON -0.3010
-3.9745 OREGON, -0.3010
-3.9745 OREGON. -0.2753
-3.9745 ORIGINAL. -0.2753
-3.1294 OUR -0.3004
-3.9745 OURSELVES. -0.2753
-2.9745 OUT -0.2920
-3.4974 OUT. -0.2753
-3.9745 OUT.|IT'S -0.3010
-3.9745 OUTSIDE. -0.2753
-3.9745 OUTTA -0.3009
-3.9745 OUT|HOW -0.2974
-3.3725 OVER -0.2971
-3.9745 OVER. -0.2753
-3.6735 OWN -0.2998
-3.9745 PALACE, -0.2998
-3.6735 PALACE. -0.2737
-3.9745 PALACE.|ARE -0.2971
-3.9745 PALACE.|WE'RE -0.3010
-3.9745 PALAEONTOLOGIST? -0.2753
-3.9745 PARENTS -0.3009
-3.9745 PARIS -0.3010
-3.9745 PARIS. -0.2753
-3.9745 PARIS? -0.3009
-3.9745 PART -0.2991
-3.9745 PASSWORD -0.3010
-3.9745 PASSWORD. -0.2753
-3.6735 PATH. -0.2753
-3.9745 PATIENT'S -0.3010
-3.9745 PAUL, -0.2998
-3.9745 PAY -0.2971
-3.9745 PCP. -0.2753
-3.9745 PENDING -0.3010
-3.9745 PENETRATION|INTO -0.3007
-3.9745 PENSION -0.3010
-3.9745 PEOPLE -0.3009
-3.9745 PEOPLE. -0.2753
-3.9745 PEOPLE|WHO -0.3008
-3.9745 PERFECTLY. -0.2753
-3.9745 PERHAPS -0.3009
-3.9745 PETROPAVLOVSK, -0.2753
-3.9745 PHANTOMS. -0.2753
-3.6735 PHONE -0.3006
-3.9745 PHONE. -0.2753
-3.9745 PHONE.|PLEASE, -0.3008
-3.6735 PHONE? -0.2753
-3.9745 PHONE?|- -0.2992
-3.9745 PICK -0.2996
-3.9745 PICKED|A -0.3010
-3.9745 PICKS -0.3006
-3.9745 PIG-EYED -0.3010
-3.9745 PISS -0.2996
-3.9745 PITY. -0.2753
-3.9745 PLACE,|DON'T -0.2971
-3.9745 PLACE?|- -0.3009
-3.9745 PLACED -0.3009
-3.9745 PLANNED -0.3009
-3.1964 PLAY -0.2970
-3.6735 PLAY. -0.2753
-3.9745 PLAYED -0.3010
-3.9745 PLAYER. -0.2753
-3.9745 PLAYERS -0.3010
-3.6735 PLAYING -0.2946
-3.9745 PLAYING|THE -0.3010
-3.9745 PLAYLIST -0.2753
-3.9745 PLEASE! -0.3008
-3.9745 PLEASE, -0.3007
-3.9745 PLEASE,|CALL -0.3009
-3.9745 PLEASE. -0.2753
-3.9745 PLEASE?|- -0.3009
-3.9745 PLENTY -0.2991
-3.9745 PLUG|IF -0.2974
-3.6735 POINT -0.2996
-3.9745 POINTLESS. -0.2753
-3.9745 POKER. -0.2753
-3.9745 POP -0.2753
-3.9745 POSSIBLE, -0.2753
-3.9745 POSSIBLY -0.3010
-3.9745 POWER -0.3010
-3.9745 POWER. -0.2753
-3.9745 PRACTISE -0.3009
-3.9745 PREMIER?|- -0.2946
-3.9745 PREPARED|TO -0.3010
-3.9745 PRESIDENT -0.2974
-3.6735 PRESIDENT'S -0.2996
-3.9745 PRESIDENT, -0.3009
-3.4974 PRESIDENT. -0.2753
-3.9745 PRESS. -0.2753
-3.9745 PRETTY -0.3010
-3.9745 PRIMARY -0.3010
-3.9745 PROBABLY. -0.2753
-3.9745 PROBLEM. -0.2753
-3.6735 PROFESSOR -0.3008
-3.9745 PROFILE|IS -0.2973
-3.9745 PROFILE|SUGGESTS -0.3007
-3.9745 PROGRAM. -0.2753
-3.9745 PROJECT -0.2973
-3.9745 PROJECTED -0.3010
-3.9745 PROVOCATION,|USING -0.3008
-3.9745 PROVOKING -0.3009
-3.9745 PUNCH -0.3007
-3.3725 PUT -0.2931
-3.9745 PUTTING -0.3007
-3.9745 QUESTIONS. -0.2753
-3.9745 QUICKLY -0.3008
-3.9745 QUITE -0.2973
-3.9745 RACE -0.2991
-3.3725 RADAR -0.2751
-3.9745 RAN -0.2999
-3.6735 RANDOM -0.3008
-3.9745 RATE|IT'LL -0.3009
-3.9745 RATIOS? -0.2753
-3.9745 REACH -0.3007
-3.9745 REACH. -0.2753
-3.6735 READY -0.2964
-3.9745 READY. -0.3010
-3.4974 REAL -0.3008
-3.9745 REAL! -0.2753
-3.9745 REAL. -0.2753
-3.9745 REAL? -0.2753
-3.4974 REALLY -0.3008
-3.9745 REASON -0.2974
-3.9745 REASONS,|THEY -0.3010
-3.9745 RECALL -0.2946
-3.9745 RECENTLY, -0.3002
-3.9745 RECOMMEND,|MR -0.3010
-3.9745 RECOMMENDING -0.3006
-3.6735 REPEAT, -0.2997
-3.9745 REPORT -0.2996
-3.9745 REPORT. -0.2753
-3.6735 REPORTS -0.3008
-3.9745 RESERVATIONS -0.3001
-3.9745 REST -0.2991
-3.9745 RETALIATORY -0.3009
-3.6735 RIDE -0.2969
-2.8606 RIGHT -0.2971
-3.3725 RIGHT! -0.2753
-3.1964 RIGHT. -0.2992
-3.9745 RIGHT?|- -0.3008
-3.9745 RISKY. -0.2996
-3.6735 ROAD, -0.2752
-3.9745 ROAD,|GOOSE -0.3009
-3.9745 ROAD. -0.2753
-3.3725 ROBERT -0.3008
-3.9745 ROCKS. -0.2753
-3.9745 RODENTS|HIDING -0.2996
-3.9745 ROGER. -0.3009
-3.9745 ROOM!|- -0.3009
-3.9745 ROOM,|THEY -0.3008
-3.9745 RUMOURS -0.2991
-3.9745 RUN -0.3001
-3.6735 RUN, -0.3008
-3.6735 RUN. -0.2753
-3.9745 RUNNING. -0.2753
-3.9745 RUSSIANS -0.3009
-2.5766 SABRE -0.2956
-3.9745 SAC -0.2996
-3.9745 SAC.|GET -0.3003
-3.9745 SACK -0.2991
-3.6735 SAID -0.3009
-3.9745 SAKE!|- -0.3007
-3.9745 SAKE. -0.3003
-3.9745 SAME -0.3009
-3.9745 SATELLITES. -0.2753
-3.9745 SAW -0.3008
-3.4974 SAY -0.2970
-3.9745 SAY? -0.3008
-3.9745 SAY?|- -0.2998
-3.9745 SAYIN'?|- -0.2996
-3.9745 SCOOTER! -0.3010
-3.9745 SCREENS -0.3007
-3.9745 SEAL -0.3009
-3.9745 SEALED. -0.2753
-3.9745 SEARCH -0.3001
-3.6735 SEATTLE -0.2741
-3.9745 SECOND. -0.2753
-3.2755 SECONDS -0.2974
-3.6735 SECURITY -0.3009
-3.3725 SEE -0.2927
-3.9745 SEE|ON -0.3009
-3.9745 SEE|SOME -0.3010
-3.9745 SEND -0.3005
-3.9745 SENDING -0.3009
-3.6735 SENIOR -0.3009
-3.9745 SENSE? -0.2753
-3.9745 SENSE?|- -0.3008
-3.9745 SERGEANT, -0.2974
-3.9745 SERIOUS -0.3010
-3.9745 SET -0.3010
-3.6735 SETUP. -0.2753
-3.9745 SEVEN! -0.2753
-3.9745 SEVEN... -0.2753
-3.9745 SHADOWS. -0.2753
-3.9745 SHAFT -0.3010
-3.9745 SHAFTS. -0.2753
-3.9745 SHIT! -0.2753
-3.9745 SHIT. -0.2753
-3.9745 SHIT.|WE -0.3004
-3.4974 SHOULD -0.3002
-3.9745 SHOULDN'T -0.3000
-3.9745 SHOWING -0.3006
-3.9745 SHOW|WITH -0.3008
-3.9745 SHUT! -0.3004
-3.9745 SHUTDOWN -0.2753
-3.9745 SHUTDOWN|AS -0.2946
-3.9745 SIGHTLESS -0.2753
-3.9745 SIGN -0.2996
-3.9745 SILOS -0.3006
-3.9745 SILOS. -0.2753
-3.9745 SIMPLE -0.3009
-3.9745 SIMULATION.|EVERYTHING'S -0.3009
-3.9745 SIMULATIONS.|- -0.2999
-3.1294 SIR, -0.2601
-2.8953 SIR. -0.2693
-3.9745 SIR... -0.2753
-3.9745 SITTING -0.3010
-3.9745 SITUATION... -0.2753
-3.9745 SIX -0.3009
-3.9745 SIX... -0.2753
-3.9745 SKIES. -0.2753
-3.9745 SKY -0.3007
-3.9745 SLEEP -0.2996
-3.9745 SLIP -0.2999
-3.9745 SMART -0.3009
-3.9745 SMASH -0.2946
-3.9745 SMOULDERING -0.3010
-3.2755 SO -0.2958
-3.9745 SO. -0.2753
-3.9745 SO.|- -0.3007
-3.1964 SOME -0.2988
-3.6735 SOMEBODY -0.2996
-3.9745 SOMETHING -0.2973
-3.9745 SOMETHING. -0.2753
-3.9745 SOMEWHERE. -0.2753
-3.9745 SON -0.2999
-3.9745 SOON -0.3008
-3.9745 SOON? -0.2753
-3.2755 SORRY. -0.2715
-3.9745 SOUND -0.3009
-3.9745 SOUTHBOUND -0.3004
-3.1294 SOVIET -0.2998
-3.9745 SOVIETS -0.3009
-3.9745 SPARED -0.2946
-3.9745 SPARK -0.3010
-3.9745 SPOKEN -0.2974
-3.9745 SQUARE.|- -0.2974
-3.2755 STAND -0.3007
-3.9745 STANDING -0.3009
-3.9745 STAR. -0.2753
-3.4974 START -0.2971
-3.9745 STARTED -0.3009
-3.9745 START|PLAYING -0.3010
-3.9745 STATES. -0.2753
-3.9745 STATIONS, -0.2998
-3.9745 STATUS -0.3010
-3.6735 STAY -0.2995
-3.9745 STAY.|YOU -0.3008
-3.9745 STEALTH -0.3010
-3.6735 STEP. -0.2753
-3.2755 STEPHEN -0.3005
-3.9745 STEPHEN, -0.3001
-3.9745 STEPHEN. -0.2753
-3.9745 STEPS -0.2998
-2.9331 STILL -0.3005
-3.9745 STOLE -0.2946
-3.4974 STOP -0.3007
-3.9745 STOP. -0.2753
-3.9745 STORY. -0.2753
-3.9745 STRANGE -0.3010
-3.9745 STRATEGIC -0.3010
-3.6735 STRIKE. -0.2753
-3.9745 STUDENTS, -0.2753
-3.9745 STUDENTS. -0.2753
-3.9745 STUPID! -0.2753
-3.9745 STUPID, -0.3010
-3.9745 SUBMARINE -0.3010
-3.9745 SUBMARINES|DEPARTING -0.3010
-3.9745 SUBMARINE|LAUNCH -0.3009
-3.9745 SUBS -0.2996
-3.9745 SUBS, -0.2753
-3.9745 SUBS. -0.2974
-3.9745 SUBS|CLOSING -0.2996
-3.9745 SUCKS. -0.2753
-3.9745 SUDDENLY,|QUITE -0.3010
-3.9745 SUITABLY -0.3010
-3.9745 SUPPOSED -0.2974
-3.9745 SURPRISE! -0.2753
-3.9745 SURVIVAL. -0.2753
-3.9745 SWAM -0.2753
-3.9745 SWEAR -0.2974
-3.9745 SWIM -0.3001
-3.4974 SWIM. -0.2753
-3.6735 SWIM? -0.2753
-3.4974 SYSTEM -0.2750
-3.9745 SYSTEM'S|NOT -0.3006
-3.6735 SYSTEM. -0.2753
-3.1294 TAKE -0.2932
-3.6735 TAKEN -0.2998
-3.9745 TAKING|POWER -0.3006
-3.1294 TALK -0.2969
-3.9745 TALK. -0.3009
-3.3725 TALL -0.3008
-3.9745 TAPEWORM.|- -0.3009
-3.9745 TARGET. -0.2753
-3.9745 TARGETED|AND -0.3010
-3.9745 TECHNICIAN? -0.2753
-2.9331 TELL -0.2893
-3.9745 TELLING -0.3008
-3.9745 TEN! -0.2999
-3.9745 TEN,|HE'LL -0.3002
-3.9745 TEN... -0.3010
-3.9745 TENNIS -0.3010
-3.9745 TERMINAL -0.2992
-3.9745 THAN -0.2946
-3.6735 THANK -0.3006
-3.9745 THANKS. -0.3004
-3.9745 THANKS.|- -0.3007
-2.7192 THAT -0.2924
-3.4974 THAT! -0.2740
-3.1294 THAT'S -0.2957
-3.9745 THAT,|YOU -0.3010
-3.4974 THAT. -0.2738
-3.9745 THAT.|SCRAMBLE -0.3008
-3.1964 THAT? -0.2749
-3.9745 THAT?|- -0.2974
-3.9745 THAT|I'LL -0.3010
-1.8346 THE -0.2910
-3.3725 THEIR -0.3007
-3.6735 THEM -0.3009
-3.6735 THEM. -0.2753
-3.6735 THEM? -0.2753
-3.9745 THEM|INTO -0.3010
-3.9745 THEM|WHAT -0.3009
-3.4974 THEN -0.3004
-3.9745 THEN. -0.2753
-3.9745 THEN... -0.3010
-3.0714 THERE -0.2941
-3.9745 THERE! -0.2753
-3.0714 THERE'S -0.2963
-3.6735 THERE, -0.3009
-3.4974 THERE. -0.2753
-3.9745 THERE? -0.2753
-3.9745 THERMONUCLEAR -0.3009
-3.6735 THESE -0.3009
-2.7192 THEY -0.2969
-3.9745 THEY'D -0.3009
-3.1964 THEY'RE -0.3003
-3.9745 THEY'VE -0.3009
-3.6735 THING -0.2970
-3.9745 THING! -0.2753
-3.9745 THING. -0.2753
-2.9745 THINK -0.2833
-3.9745 THINK? -0.2753
-3.9745 THINK|I -0.3006
-3.9745 THINK|YOU -0.3004
-2.5595 THIS -0.2934
-3.3725 THIS. -0.2753
-3.9745 THIS? -0.2753
-3.2755 THOSE -0.2992
-3.9745 THOSE? -0.2753
-3.9745 THOUGHT -0.3010
-3.9745 THOUGHT|THERE -0.3007
-3.9745 THOUSAND -0.2991
-3.4974 THREE -0.3008
-3.9745 THREE... -0.2753
-3.6735 THROUGH -0.2945
-3.9745 THROUGH. -0.2753
-3.9745 THROUGH|THIS -0.3009
-3.9745 TIC-TAC-TOE. -0.2753
-3.9745 TIC-TAC-TOE? -0.2753
-3.9745 TICKET -0.3006
-3.9745 TICKET, -0.3005
-3.9745 TICKET.|I'LL -0.3010
-3.9745 TIE. -0.2753
-3.9745 TIES. -0.2753
-3.6735 TIME -0.2973
-3.9745 TIME! -0.2753
-3.6735 TIME, -0.2995
-3.9745 TIME. -0.3004
-3.9745 TIME|FOR -0.2973
-3.9745 TIME|WHEN -0.2971
-2.0769 TO -0.2811
-3.9745 TO, -0.3010
-3.9745 TO. -0.2753
-3.6735 TOLD -0.2971
-3.9745 TOMORROW -0.2996
-3.4974 TOO -0.3008
-3.9745 TOO. -0.2753
-3.9745 TOOK -0.2996
-3.9745 TOOTSIE -0.3010
-3.9745 TOP -0.2991
-3.9745 TOTALLY -0.3010
-3.9745 TOUCH|AS -0.3010
-3.9745 TOUR -0.3009
-3.9745 TRACKING -0.2753
-3.9745 TRACKING|300 -0.3010
-3.9745 TRACKS -0.3010
-3.9745 TRAFFIC -0.2753
-3.9745 TRICKS -0.3010
-3.4974 TRIED -0.3005
-3.9745 TROOPS|MASSING -0.2996
-3.9745 TROUBLE.|- -0.3009
-3.9745 TRUE? -0.2753
-3.6735 TRY -0.3008
-3.3725 TRYING -0.2972
-3.9745 TURNED -0.3007
-3.9745 TURNING -0.3010
-3.9745 TV? -0.2753
-3.2755 TWO -0.2969
-3.9745 TWO... -0.2753
-3.9745 TYPHOON-CLASS -0.3010
-3.6735 UNDER -0.3007
-3.9745 UNDERSTAND. -0.2753
-3.9745 UNITED -0.3010
-3.9745 UNITS -0.3008
-3.9745 UNKNOWN -0.3010
-3.9745 UNLESS -0.3004
-3.9745 UNPLUG -0.2946
-3.9745 UNREAL! -0.2971
-3.4974 UNTIL -0.2973
-3.0714 UP -0.2916
-3.9745 UP!|- -0.3006
-3.9745 UP, -0.3009
-3.2755 UP. -0.2745
-3.6735 UP.|- -0.2995
-3.9745 UP? -0.3010
-3.9745 UPDATE -0.2996
-3.9745 UPDATE... -0.2753
-3.9745 UPON -0.2973
-3.9745 UP|IN -0.3009
-3.1294 US -0.2968
-3.9745 USE -0.2991
-3.9745 VAPORISED. -0.2753
-3.9745 VEGAS. -0.2753
-3.9745 VENTILATION -0.3010
-3.6735 VERY -0.3009
-3.9745 VISIBILITY. -0.2753
-3.9745 VISIT. -0.2753
-3.9745 VISUAL -0.3010
-3.9745 VODKA. -0.2753
-3.9745 VOTED -0.3010
-3.9745 W -0.3008
-3.9745 WAIT -0.3008
-3.6735 WAIT! -0.3009
-3.4974 WAIT, -0.3008
-3.6735 WAIT. -0.2753
-3.9745 WALL. -0.2753
-3.9745 WANDER -0.3010
-3.6735 WANNA -0.3007
-3.9745 WANNA|KNOW -0.2995
-3.1964 WANT -0.2912
-3.9745 WANT,|THERE'S -0.2973
-3.9745 WANT? -0.2753
-3.6735 WANTED -0.2974
-3.9745 WANTS -0.2974
-3.4974 WAR -0.2752
-3.9745 WAR! -0.2753
-3.6735 WAR. -0.2753
-3.9745 WARHEADS. -0.2753
-3.9745 WARNING. -0.3004
-3.0714 WAS -0.2932
-3.9745 WAS... -0.3004
-3.9745 WAS|TO -0.3007
-3.4974 WATCH -0.3005
-3.9745 WATCHING -0.3003
-3.9745 WATER. -0.2753
-3.3725 WAY -0.2934
-3.9745 WAY, -0.3010
-3.9745 WAY. -0.2753
-3.9745 WAY|TO -0.3010
-2.5595 WE -0.2950
-3.9745 WE'D -0.3009
-3.2755 WE'LL -0.2998
-2.8606 WE'RE -0.2982
-3.4974 WE'VE -0.3004
-3.9745 WEAPONS -0.3010
-3.9745 WEATHER -0.2753
-3.9745 WEEK -0.2753
-3.9745 WEIGHT -0.2991
-3.9745 WELCOME -0.2974
-3.1964 WELL, -0.2982
-3.9745 WELL. -0.2753
-3.9745 WENT -0.3009
-3.6735 WERE -0.3004
-3.6735 WEREN'T -0.3008
-2.4430 WHAT -0.2818
-3.0203 WHAT'S -0.2916
-3.6735 WHAT? -0.2753
-3.1294 WHEN -0.2872
-3.4974 WHERE -0.2936
-3.0714 WHO -0.2971
-3.9745 WHO'S -0.3010
-3.9745 WHOA!|- -0.3007
-3.9745 WHOLE -0.3009
-3.6735 WHY -0.2999
-3.4974 WHY? -0.2749
-3.9745 WIFE -0.3005
-3.3725 WILL -0.2968
-3.6735 WIN -0.2909
-3.6735 WIN. -0.2753
-3.6735 WING -0.3004
-3.9745 WINNING -0.3009
-3.9745 WIPED -0.3009
-3.6735 WISH -0.2974
-3.0714 WITH -0.2850
-3.9745 WITH? -0.2753
-3.9745 WITH?|- -0.3010
-3.6735 WITHOUT -0.3009
-3.9745 WOMAN? -0.2974
-3.2755 WON'T -0.3003
-3.9745 WONDER -0.3010
-3.4974 WOPR -0.2991
-3.6735 WOPR'S -0.3002
-3.9745 WOPR. -0.2753
-3.9745 WORK, -0.3010
-3.4974 WORKING -0.3009
-3.9745 WORKING|WITH -0.3009
-3.9745 WORLD -0.2973
-3.9745 WORLD. -0.2753
-3.9745 WORLD|THROUGH -0.3010
-3.9745 WORSE.|- -0.3008
-3.0203 WOULD -0.2886
-3.4974 WOULDN'T -0.2991
-3.9745 WOW. -0.2753
-3.9745 X -0.2996
-3.6735 YEAH! -0.2747
-3.9745 YEAH, -0.3001
-3.3725 YEAH. -0.2732
-3.6735 YEAH? -0.2753
-3.9745 YEARS -0.3010
-3.9745 YEARS. -0.2753
-2.9745 YES, -0.2963
-3.4974 YES. -0.2751
-3.9745 YET. -0.2753
-2.0451 YOU -0.2766
-3.9745 YOU! -0.2753
-3.9745 YOU!|I -0.3008
-3.9745 YOU'D -0.3003
-3.6735 YOU'LL -0.2991
-3.0714 YOU'RE -0.2984
-3.9745 YOU'VE -0.3010
-3.0203 YOU. -0.2751
-3.9745 YOU...|WHAT -0.2995
-3.9745 YOU.|I -0.3004
-3.3725 YOU? -0.2753
-3.3725 YOU?|- -0.2997
-3.0203 YOUR -0.3005
-3.9745 YOURS -0.3009
-3.9745 YOURSELF. -0.2753
-3.9745 YOU|MISS -0.3010
-3.9745 YOU|TO -0.3000
-3.9745 ZERO. -0.2753
-3.9745 ZONE. -0.2753

\2-grams:
-0.6021 'EM MYSELF. 0.0000
-0.6021 'EM NEW -0.1761
-0.3010 'EM. </s> -0.3010
-2.1206 - AM 0.0000
-2.1206 - ANYWAY, 0.0000
-2.1206 - ARE -0.1928
-2.1206 - BUT -0.2553
-2.1206 - BYE.|- 0.0000
-2.1206 - CAN -0.2852
-2.1206 - CAN'T -0.2788
-2.1206 - CHECK -0.2218
-2.1206 - COBRA 0.0000
-1.8195 - COME -0.2285
-2.1206 - DAVID?|- 0.0000
-2.1206 - DID -0.2730
-1.6435 - DO -0.1938
-2.1206 - DOES -0.2041
-2.1206 - FOR -0.2798
-2.1206 - GAMES!|- 0.0000
-2.1206 - GET -0.2906
-2.1206 - GOT -0.2840
-2.1206 - HAS -0.2553
-2.1206 - HE -0.2553
-2.1206 - HE'S -0.2341
-2.1206 - HOW -0.2596
-1.8195 - I -0.2752
-1.8195 - I'M -0.2730
-2.1206 - INVADE 0.0000
-2.1206 - IS -0.2900
-1.8195 - IT'S -0.2455
-1.8195 - JESUS 0.0000
-2.1206 - JOHN, 0.0000
-2.1206 - LET -0.2430
-2.1206 - MISSILE 0.0000
-2.1206 - PENDING 0.0000
-1.6435 - PUT 0.0000
-2.1206 - SIGN 0.0000
-2.1206 - SIX 0.0000
-2.1206 - TELL -0.2374
-2.1206 - THANKS.|- 0.0000
-2.1206 - THIS -0.1532
-2.1206 - WAIT, -0.1249
-1.6435 - WELL, -0.1761
-1.4216 - WHAT -0.2089
-2.1206 - WHAT'S -0.2762
-2.1206 - WHERE -0.2218
-2.1206 - WHO -0.2109
-2.1206 - WHY -0.1761
-2.1206 - WHY? -0.2218
-1.5185 - YOU -0.2854
-2.1206 - YOU'D 0.0000
-0.3010 . </s> -0.3010
-0.3010 .|I CAN -0.2852
-0.3010 095 DEGREES. 0.0000
-0.7782 1 . 0.0000
-0.7782 1 .|I 0.0000
-0.7782 1 </s> -0.3010
-0.3010 1. </s> -0.3010
-0.3010 100,000 SOVIET -0.2688
-0.3010 17 YEARS 0.0000
-0.3010 1979. IS -0.2956
-0.3010 2,400 INBOUND|SOVIET 0.0000
-0.3010 2. </s> -0.3010
-0.3010 20 SECONDS 0.0000
-0.3010 22 TYPHOON-CLASS 0.0000
-0.3010 27, THIS -0.1532
-0.3010 27.|I HAVE -0.2910
-0.3010 28 HOURS. 0.0000
-0.3010 30 SECONDS 0.0000
-0.6021 319TH AT -0.2840
-0.6021 319TH BOMB 0.0000
-0.3010 3|AND GET -0.2906
-0.3010 40 MILES -0.1761
-0.3010 43RD BOMB 0.0000
-0.3010 48 NUCLEAR -0.2218
-0.3010 5 TALL 0.0000
-0.3010 5. </s> -0.3010
-0.3010 5.3 MINUTES. 0.0000
-0.3010 50 SECONDS 0.0000
-0.3010 50LB|SURVIVED THAT -0.2888
-0.3010 6.30, SO -0.2553
-0.3010 69% OF -0.2518
-0.3010 72 MILLION 0.0000
-0.3010 85 TO -0.2983
-0.3010 95% OF -0.2518
-0.3010 97... </s> -0.3010
-1.2155 <s> - -0.0000
-3.0350 <s> 20 0.0000
-3.0350 <s> 22 0.0000
-3.0350 <s> 27, 0.0000
-3.0350 <s> 30 0.0000
-2.7340 <s> 319TH 0.0000
-3.0350 <s> 5 0.0000
-3.0350 <s> 50 0.0000
-3.0350 <s> 69% 0.0000
-3.0350 <s> 72 0.0000
-2.4330 <s> A -0.2900
-3.0350 <s> ABOUT -0.2808
-3.0350 <s> AFTER -0.2218
-3.0350 <s> AKA 0.0000
-2.0808 <s> ALL -0.0969
-2.0808 <s> AND -0.1761
-3.0350 <s> APPROXIMATELY 0.0000
-2.4330 <s> ARE -0.1928
-3.0350 <s> AREN'T 0.0000
-3.0350 <s> AT -0.2840
-3.0350 <s> BATHROOM. 0.0000
-3.0350 <s> BECAUSE -0.2218
-3.0350 <s> BMEWS 0.0000
-3.0350 <s> BRASS -0.2218
-3.0350 <s> BULLSHIT! 0.0000
-2.4330 <s> BUT -0.0792
-3.0350 <s> BYE. 0.0000
-3.0350 <s> CALL -0.2730
-3.0350 <s> CAN -0.2852
-3.0350 <s> CHECKING 0.0000
-3.0350 <s> CHESS. 0.0000
-3.0350 <s> CHRIST! -0.1761
-3.0350 <s> COC, 0.0000
-3.0350 <s> CODES. -0.2218
-2.7340 <s> COLONEL -0.1249
-3.0350 <s> COLONEL, 0.0000
-2.3361 <s> COME -0.0902
-3.0350 <s> CONFIDENCE 0.0000
-3.0350 <s> COULD -0.2430
-3.0350 <s> CRYSTAL -0.2553
-3.0350 <s> DAVID! 0.0000
-2.5579 <s> DAVID, 0.0000
-3.0350 <s> DAVID... 0.0000
-3.0350 <s> DEFCON -0.2688
-3.0350 <s> DEPENDING 0.0000
-2.4330 <s> DID -0.1383
-3.0350 <s> DO -0.2872
-3.0350 <s> DOD 0.0000
-3.0350 <s> DON'T -0.2798
-3.0350 <s> DR -0.1549
-3.0350 <s> EIGHT. 0.0000
-3.0350 <s> EIGHT... 0.0000
-3.0350 <s> ELMENDORF 0.0000
-3.0350 <s> EXACTLY. 0.0000
-3.0350 <s> EXCEPT 0.0000
-2.7340 <s> EXCUSE -0.1249
-3.0350 <s> EXTERNAL 0.0000
-3.0350 <s> EXTINCTION 0.0000
-3.0350 <s> FALKEN 0.0000
-3.0350 <s> FALKEN. -0.2632
-3.0350 <s> FIVE 0.0000
-3.0350 <s> FIVE... 0.0000
-2.7340 <s> FOR -0.2798
-3.0350 <s> FOUR 0.0000
-3.0350 <s> FOUR... 0.0000
-3.0350 <s> FULL-SCALE -0.1761
-3.0350 <s> FUTILITY. 0.0000
-3.0350 <s> GATE. -0.1761
-2.1899 <s> GENERAL, -0.0000
-3.0350 <s> GENERATORS 0.0000
-2.7340 <s> GET -0.2576
-3.0350 <s> GIVE -0.2632
-3.0350 <s> GLOBAL 0.0000
-2.7340 <s> GO -0.1963
-3.0350 <s> GOOD -0.2218
-3.0350 <s> GOT -0.2840
-2.7340 <s> GREETINGS, 0.0000
-2.7340 <s> HE'S -0.1963
-2.7340 <s> HELLO, 0.0000
-2.7340 <s> HELLO. 0.0000
-3.0350 <s> HERE! 0.0000
-3.0350 <s> HEY! 0.0000
-3.0350 <s> HEY, 0.0000
-2.4330 <s> HOLD -0.0580
-2.7340 <s> HOW -0.2374
-1.4118 <s> I -0.1035
-3.0350 <s> I'D 0.0000
-2.7340 <s> I'LL -0.2341
-2.1899 <s> I'M -0.1576
-2.2569 <s> IF 0.0000
-2.7340 <s> INITIAL 0.0000
-3.0350 <s> INITIATE 0.0000
-3.0350 <s> INTELLIGENCE 0.0000
-2.5579 <s> IS -0.2788
-2.5579 <s> IT -0.2657
-2.4330 <s> IT'S -0.2553
-3.0350 <s> JENNIFER? 0.0000
-3.0350 <s> JOHN! 0.0000
-3.0350 <s> JOSHUA -0.2218
-3.0350 <s> JOSHUA'S -0.1761
-3.0350 <s> JOSHUA, -0.1761
-3.0350 <s> JOSHUA. -0.0792
-3.0350 <s> JUST -0.2840
-3.0350 <s> LAND -0.2218
-3.0350 <s> LAST -0.2430
-3.0350 <s> LET -0.1761
-2.4330 <s> LET'S -0.0669
-3.0350 <s> LISTEN, 0.0000
-3.0350 <s> LOOK 0.0000
-3.0350 <s> LOOK, -0.1761
-2.5579 <s> MAJOR 0.0000
-3.0350 <s> MAYBE -0.1761
-3.0350 <s> MEN, 0.0000
-2.5579 <s> MR -0.1963
-3.0350 <s> MUCH 0.0000
-3.0350 <s> MY -0.2762
-2.7340 <s> NATURE -0.1249
-3.0350 <s> NINE 0.0000
-3.0350 <s> NO! -0.2218
-2.4330 <s> NO, -0.0792
-2.5579 <s> NO. -0.2304
-3.0350 <s> NO... 0.0000
-2.7340 <s> NOW, 0.0000
-3.0350 <s> OF -0.2906
-3.0350 <s> OH! -0.1249
-2.3361 <s> OH, -0.1091
-3.0350 <s> OH... 0.0000
-2.5579 <s> OK. 0.0000
-2.7340 <s> ON -0.2711
-3.0350 <s> ONCE -0.1761
-2.5579 <s> ONE -0.1761
-3.0350 <s> ONE. -0.0969
-3.0350 <s> ONE... 0.0000
-3.0350 <s> OR -0.2430
-3.0350 <s> OUR -0.2688
-3.0350 <s> OUT -0.1761
-3.0350 <s> PARIS? 0.0000
-3.0350 <s> PATH. -0.1761
-3.0350 <s> PATIENT'S 0.0000
-3.0350 <s> PAUL, 0.0000
-3.0350 <s> PERHAPS 0.0000
-3.0350 <s> PLEASE! 0.0000
-3.0350 <s> POKER. 0.0000
-3.0350 <s> PRESIDENT'S -0.1761
-3.0350 <s> PUNCH 0.0000
-3.0350 <s> RADAR -0.2430
-3.0350 <s> REPEAT, -0.1761
-3.0350 <s> RIGHT -0.2840
-3.0350 <s> ROGER. 0.0000
-1.6371 <s> SABRE 0.0000
-3.0350 <s> SEAL 0.0000
-3.0350 <s> SECURITY -0.1761
-3.0350 <s> SERGEANT, 0.0000
-3.0350 <s> SEVEN! 0.0000
-3.0350 <s> SHAFT 0.0000
-2.3361 <s> SIR, -0.1091
-3.0350 <s> SIX... 0.0000
-2.7340 <s> SO -0.2041
-3.0350 <s> SOME -0.2632
-2.5579 <s> STAND -0.0792
-3.0350 <s> STAY -0.1761
-3.0350 <s> STEPHEN, 0.0000
-3.0350 <s> STOP -0.2218
-3.0350 <s> STRANGE 0.0000
-3.0350 <s> SURPRISE! 0.0000
-2.7340 <s> TAKE -0.1549
-3.0350 <s> TELL -0.2808
-3.0350 <s> TEN! 0.0000
-3.0350 <s> TEN... 0.0000
-2.7340 <s> THANK 0.0000
-3.0350 <s> THANKS. 0.0000
-2.3361 <s> THAT -0.2361
-3.0350 <s> THAT! -0.2218
-2.7340 <s> THAT'S -0.2341
-1.9558 <s> THE -0.2751
-2.7340 <s> THEN -0.1249
-3.0350 <s> THEN... 0.0000
-2.7340 <s> THERE -0.2109
-2.3361 <s> THERE'S -0.0512
-2.7340 <s> THEY -0.2762
-2.7340 <s> THEY'RE -0.1761
-3.0350 <s> THEY'VE 0.0000
-2.3361 <s> THIS -0.1532
-2.7340 <s> THOSE -0.2041
-3.0350 <s> THREE -0.2218
-3.0350 <s> THREE... 0.0000
-3.0350 <s> THROUGH -0.1761
-3.0350 <s> TIC-TAC-TOE. 0.0000
-3.0350 <s> TO -0.2955
-3.0350 <s> TURNING 0.0000
-3.0350 <s> TWO... 0.0000
-3.0350 <s> UNLESS 0.0000
-2.7340 <s> UNTIL -0.1249
-3.0350 <s> WAIT! -0.1761
-3.0350 <s> WATCH -0.1249
-2.0808 <s> WE -0.2083
-2.7340 <s> WE'LL -0.1461
-2.5579 <s> WE'RE -0.2478
-2.5579 <s> WELL, -0.1761
-1.9211 <s> WHAT -0.1406
-2.4330 <s> WHAT'S -0.0872
-3.0350 <s> WHAT? 0.0000
-2.7340 <s> WHEN -0.1963
-2.7340 <s> WHO -0.1761
-3.0350 <s> WHO'S 0.0000
-3.0350 <s> WHY -0.1761
-3.0350 <s> WHY? -0.1249
-3.0350 <s> WILL -0.1761
-2.7340 <s> WITH -0.2430
-2.7340 <s> WITHOUT 0.0000
-3.0350 <s> WOPR -0.2218
-3.0350 <s> WOPR'S 0.0000
-3.0350 <s> WOULD -0.2762
-2.7340 <s> YEAH! 0.0000
-2.7340 <s> YEAH. -0.0969
-2.7340 <s> YEAH? 0.0000
-2.1899 <s> YES, -0.1139
-2.0808 <s> YOU -0.2609
-3.0350 <s> YOU'LL -0.1761
-2.2569 <s> YOU'RE -0.0969
-3.0350 <s> YOU'VE 0.0000
-3.0350 <s> YOURS 0.0000
-2.2041 A BACKHAND. 0.0000
-2.2041 A BEDTIME 0.0000
-2.2041 A BLUFF, 0.0000
-2.2041 A BLUFF. 0.0000
-2.2041 A BOAT. 0.0000
-2.2041 A BOAT.|THERE'S 0.0000
-2.2041 A BOAT? 0.0000
-2.2041 A BODY 0.0000
-2.2041 A BORING 0.0000
-2.2041 A BUTTON 0.0000
-2.2041 A COMPLIMENTARY 0.0000
-2.2041 A COMPUTER-ENHANCED 0.0000
-2.2041 A CONVERSATION 0.0000
-2.2041 A COUNTERSTRIKE.|THAT'S 0.0000
-2.2041 A DAY -0.1761
-2.2041 A DECISION. 0.0000
-2.2041 A DR -0.2341
-2.2041 A FALSE 0.0000
-2.2041 A FANTASY. 0.0000
-2.2041 A FAVOUR|AND 0.0000
-1.7270 A FEW 0.0000
-2.2041 A FIRE 0.0000
-2.2041 A FULL-SCALE -0.1761
-2.2041 A GAME -0.2218
-2.2041 A GAME, 0.0000
-2.2041 A HARD 0.0000
-2.2041 A JOKE 0.0000
-1.5051 A LAUNCH -0.2218
-2.2041 A LAWYER. 0.0000
-2.2041 A LEAK 0.0000
-2.2041 A LESSON 0.0000
-2.2041 A LITTLE -0.1761
-2.2041 A LOAD 0.0000
-2.2041 A LONG -0.2218
-2.2041 A LOOP. 0.0000
-2.2041 A LOT 0.0000
-2.2041 A MACHINE. 0.0000
-2.2041 A MAN -0.1761
-2.2041 A MASSIVE 0.0000
-2.2041 A MESSAGE 0.0000
-2.2041 A MILLISECOND 0.0000
-2.2041 A MOVIE 0.0000
-2.2041 A NEW|SOVIET 0.0000
-2.2041 A NICE 0.0000
-2.2041 A NUCLEAR -0.2218
-2.2041 A PALAEONTOLOGIST? 0.0000
-2.2041 A PHONE -0.1761
-2.2041 A PHONE? 0.0000
-2.2041 A PRIMARY 0.0000
-2.2041 A PROBLEM. 0.0000
-2.2041 A REALLY -0.2218
-2.2041 A REPORT 0.0000
-2.2041 A SERIOUS 0.0000
-2.2041 A SHUTDOWN|AS 0.0000
-2.2041 A SIMPLE 0.0000
-2.2041 A SIMULATION.|EVERYTHING'S 0.0000
-2.2041 A SON 0.0000
-1.9031 A SOVIET -0.2341
-2.2041 A SPARK 0.0000
-2.2041 A SUITABLY 0.0000
-2.2041 A TAPEWORM.|- 0.0000
-2.2041 A TECHNICIAN? 0.0000
-2.2041 A TENNIS 0.0000
-2.2041 A THOUSAND 0.0000
-2.2041 A TICKET 0.0000
-2.2041 A TIE. 0.0000
-2.2041 A TIME, -0.1761
-2.2041 A TIME|WHEN 0.0000
-2.2041 A TOOTSIE 0.0000
-2.2041 A VISIT. 0.0000
-2.2041 A VISUAL 0.0000
-2.2041 A WAR! 0.0000
-2.2041 A WAY -0.0969
-1.3424 ABOUT A -0.2983
-1.3424 ABOUT ANY -0.2788
-1.3424 ABOUT ANYTHING. 0.0000
-1.3424 ABOUT DEATH|COS 0.0000
-1.3424 ABOUT GETTING 0.0000
-1.0414 ABOUT IT -0.2872
-1.3424 ABOUT IT?|- -0.1761
-1.0414 ABOUT JOSHUA. 0.0000
-1.3424 ABOUT YOU.|I 0.0000
-0.3010 ABOUT? </s> -0.3010
-0.3010 ACCEPT A -0.2872
-0.3010 ACCEPTABLE LOSSES. 0.0000
-0.3010 ACT LIKE -0.2553
-0.3010 ADDRESS. </s> -0.3010
-0.3010 ADDRESS? </s> -0.3010
-0.3010 AEROBICS SHOW|WITH 0.0000
-0.3010 AFFIRMATIVE, SIR. -0.1513
-0.3010 AFFIRMATIVE. </s> -0.3010
-0.3010 AFFORD TO -0.2983
-0.7782 AFTER AGE. 0.0000
-0.7782 AFTER ALL. 0.0000
-0.7782 AFTER THE -0.2995
-0.3010 AFTERMATH. </s> -0.3010
-0.3010 AGAIN. </s> -0.3010
-0.3010 AGE AFTER -0.2218
-0.3010 AGE. </s> -0.3010
-0.3010 AGE? </s> -0.3010
-0.6021 AHEAD. </s> -0.3010
-0.6021 AHEAD. IT'S -0.2742
-0.9031 AIR COMMAND, 0.0000
-0.9031 AIR DEFENCE -0.1761
-0.6021 AIR FORCE 0.0000
-0.3010 AIRBORNE COMMAND. 0.0000
-0.3010 AIRCRAFT. </s> -0.3010
-0.3010 AIRLINE TICKET.|I'LL 0.0000
-0.3010 AIRMAN DOUGHERTY, 0.0000
-0.3010 AIRPORT. </s> -0.3010
-0.3010 AKA STEPHEN -0.2553
-0.3010 ALARM </s> -0.3010
-0.3010 ALARM.|THE SYSTEM -0.2218
-0.3010 ALASKAN AIR -0.1761
-0.3010 ALERT. YES, -0.2788
-0.3010 ALIVE AND -0.2919
-0.3010 ALIVE,|WHY WOULD -0.2762
-0.3010 ALIVE,|YOUR JOSHUA, -0.1761
-1.5051 ALL ABOUT -0.2596
-0.9031 ALL RIGHT! 0.0000
-0.7270 ALL RIGHT. 0.0000
-1.5051 ALL RIGHT?|- 0.0000
-1.5051 ALL STATIONS, 0.0000
-1.5051 ALL TEN,|HE'LL 0.0000
-1.5051 ALL THE -0.2995
-1.5051 ALL UNITS 0.0000
-0.3010 ALL. </s> -0.3010
-0.3010 ALMOST ON -0.2937
-0.6021 ALREADY DEAD. -0.1761
-0.6021 ALREADY TRIED -0.2218
-0.7782 ALWAYS A -0.2983
-0.7782 ALWAYS LIKE -0.2553
-0.7782 ALWAYS THOUGHT|THERE 0.0000
-0.3010 AM I -0.2982
-1.3424 AN AIRLINE 0.0000
-1.0414 AN ASSHOLE 0.0000
-1.3424 AN ATTACK, 0.0000
-1.3424 AN EMAIL 0.0000
-1.3424 AN EXERCISE. 0.0000
-1.3424 AN EXERCISE?|- 0.0000
-1.3424 AN HOUR. 0.0000
-1.3424 AN ISLAND|AND 0.0000
-1.3424 AN UPDATE 0.0000
-1.3424 AN UPDATE... 0.0000
-1.6812 AND 20 0.0000
-1.6812 AND 30 0.0000
-1.6812 AND 40 0.0000
-1.6812 AND DOESN'T -0.2218
-1.6812 AND FUNCTIONING. 0.0000
-1.6812 AND HOW -0.2808
-1.6812 AND HURT|THEMSELVES, 0.0000
-1.3802 AND I -0.2811
-1.6812 AND LAUNCH -0.2888
-1.6812 AND NO -0.2852
-1.6812 AND POSSIBLY 0.0000
-1.6812 AND STARTED 0.0000
-1.6812 AND STOLE 0.0000
-1.6812 AND STOP -0.2218
-1.6812 AND SUBS, 0.0000
-1.2041 AND THEY -0.2632
-1.6812 AND WATCH -0.2218
-1.6812 AND WE'RE -0.2840
-1.6812 AND WE'VE -0.1249
-1.6812 AND WELL. 0.0000
-1.6812 AND WHEN -0.2688
-0.3010 ANIMAL </s> -0.3010
-0.3010 ANIMALS </s> -0.3010
-0.3010 ANNIHILATE THEM? 0.0000
-0.3010 ANSWER THE -0.2995
-0.3010 ANSWERS|OUT OF -0.2906
-1.3010 ANY GOOD. 0.0000
-1.3010 ANY INCREASE|IN 0.0000
-1.3010 ANY MINUTE. 0.0000
-1.3010 ANY MORE?|- 0.0000
-1.3010 ANY OF -0.2958
-1.3010 ANY SECOND. 0.0000
-1.3010 ANY SENSE? 0.0000
-1.3010 ANY SENSE?|- 0.0000
-1.3010 ANY TIME -0.1761
-1.3010 ANY WAY -0.0969
-0.3010 ANYBODY.|THE FBL'LL 0.0000
-0.6021 ANYONE THERE? 0.0000
-0.6021 ANYONE TO -0.2983
-0.6021 ANYTHING ELSE|UNTIL 0.0000
-0.6021 ANYTHING THROUGH. 0.0000
-0.3010 ANYTHING. </s> -0.3010
-0.3010 ANYTHING?|- I'M -0.2872
-0.3010 ANYWAY, THE -0.2947
-0.3010 ANYWAY. </s> -0.3010
-0.3010 ANYWAY? </s> -0.3010
-0.3010 ANYWHERE. </s> -0.3010
-0.3010 APES THEN. 0.0000
-0.3010 APPROXIMATELY 2,400 0.0000
-1.8325 ARE A -0.2983
-1.8325 ARE AT -0.2663
-1.8325 ARE CLOSED,|NOBODY 0.0000
-1.8325 ARE DEAD.|I'M 0.0000
-1.8325 ARE DILATED, 0.0000
-1.8325 ARE IN -0.2788
-1.8325 ARE LAUNCH -0.2762
-1.8325 ARE LISTENING 0.0000
-1.8325 ARE MEN -0.1761
-1.8325 ARE NOT -0.2888
-1.8325 ARE ON -0.2937
-1.8325 ARE SHOWING 0.0000
-1.8325 ARE STILL -0.2808
-1.8325 ARE THEY -0.2888
-1.8325 ARE THOSE? 0.0000
-1.8325 ARE UP -0.2730
-1.8325 ARE WE -0.2926
-0.6564 ARE YOU -0.2553
-1.8325 ARE YOU? 0.0000
-1.8325 ARE YOU?|- -0.2430
-0.3010 AREN'T YOU -0.2985
-0.3010 ARE|PENETRATING THE -0.2995
-0.6021 AROUND FROM -0.2218
-0.6021 AROUND TO -0.2983
-0.3010 AROUND. </s> -0.3010
-0.3010 ARRANGED MY -0.2762
-0.3010 ARREST, </s> -0.3010
-0.9031 AS LONG -0.2218
-0.9031 AS POSSIBLE, 0.0000
-0.9031 AS THE -0.2995
-0.9031 AS YOU -0.2985
-0.3010 AS: </s> -0.3010
-0.3010 ASK YOU -0.2959
-0.3010 ASKED IT -0.2802
-0.3010 ASS OUT -0.1761
-0.6021 ASSHOLE GROWS 0.0000
-0.6021 ASSHOLE LIVES 0.0000
-1.1139 AT DEFCON -0.1963
-1.4150 AT GRAND -0.2218
-1.4150 AT LEAST. 0.0000
-1.4150 AT LORING, 0.0000
-1.4150 AT NORAD. 0.0000
-1.4150 AT NORDKAPP,|BEARING 0.0000
-1.4150 AT THAT! -0.2218
-0.9379 AT THE -0.2947
-1.1139 AT THIS -0.2840
-0.4771 ATTACK </s> -0.3010
-0.7782 ATTACK PROFILE|IS 0.0000
-0.3010 ATTACK, IT'LL 0.0000
-0.3010 ATTACK. </s> -0.3010
-0.3010 AWAITING LAUNCH -0.2762
-0.3010 AWAY FROM -0.2218
-0.3010 AWAY. </s> -0.3010
-1.2041 BACK AT -0.2478
-1.2041 BACK DOOR?|- 0.0000
-1.2041 BACK IN. -0.0969
-1.2041 BACK ON. -0.1761
-1.2041 BACK ON.|WE'RE 0.0000
-1.2041 BACK THERE! 0.0000
-1.2041 BACK UP.|- -0.1761
-1.2041 BACK WHEN -0.2688
-0.3010 BACK. </s> -0.3010
-0.3010 BACKFIRE BOMBERS. 0.0000
-0.3010 BACKHAND. </s> -0.3010
-0.6021 BASE </s> -0.3010
-0.6021 BASE OPERATIONS.|LIEUTENANT 0.0000
-0.3010 BASE.|THE SENIOR -0.1761
-0.6021 BASTARD OUT -0.1761
-0.6021 BASTARD TURNED 0.0000
-0.3010 BASTARDS ARE -0.2946
-0.3010 BATHROOM. IT'S -0.2742
-1.5798 BE A -0.2983
-1.5798 BE ACCEPTABLE 0.0000
-1.5798 BE ANY -0.2788
-1.5798 BE CAUGHT 0.0000
-1.5798 BE COMING 0.0000
-1.5798 BE FAR.|- 0.0000
-1.5798 BE HERE -0.2553
-1.5798 BE IN -0.2937
-1.5798 BE ON -0.2937
-1.5798 BE OVER. 0.0000
-1.5798 BE PLACED 0.0000
-1.5798 BE PLENTY 0.0000
-1.2788 BE RIGHT -0.2663
-1.5798 BE SOMEWHERE. 0.0000
-1.5798 BE SORRY. -0.0792
-1.5798 BE SPARED 0.0000
-1.5798 BE STANDING 0.0000
-1.5798 BE YOUR -0.2762
-0.7782 BECAUSE IT'S -0.2742
-0.7782 BECAUSE OF -0.2958
-0.7782 BECAUSE OF|WHAT 0.0000
-0.3010 BEDTIME STORY. 0.0000
-1.0792 BEEN A -0.2983
-1.0792 BEEN INFORMED 0.0000
-1.0792 BEEN LISTENING.|- 0.0000
-1.0792 BEEN TELLING 0.0000
-1.0792 BEEN WATCHING 0.0000
-1.0792 BEEN WIPED 0.0000
-0.3010 BEES PROBABLY. 0.0000
-0.3010 BEFORE THAT. -0.1249
-0.3010 BEFORE. </s> -0.3010
-0.3010 BEFORE.|WE'LL LEAVE -0.1761
-0.3010 BEGIN. </s> -0.3010
-1.0792 BELIEVE ME! 0.0000
-1.0792 BELIEVE THEY -0.2888
-1.0792 BELIEVE WE'VE -0.2218
-1.0792 BELIEVE YOU -0.2959
-1.0792 BELIEVE YOU. -0.1249
-1.0792 BELIEVE YOU? 0.0000
-0.3010 BELIEVE|THAT THE -0.2979
-0.3010 BELIEVE|THEY MAY 0.0000
-0.3010 BERINGER AT -0.2840
-0.3010 BERINGER? STEPHEN -0.2553
-0.3010 BETCHA! </s> -0.3010
-0.7782 BETTER FORGET|ABOUT 0.0000
-0.7782 BETTER GET -0.2906
-0.7782 BETTER HUSTLE.|THE 0.0000
-0.3010 BETTER|THAN THAT -0.2888
-0.3010 BEVERAGE|WAITING FOR -0.2906
-0.3010 BIBLICAL ENDING 0.0000
-0.3010 BIG FAVOUR. 0.0000
-0.3010 BLIND THE -0.2979
-0.3010 BLIPS ARE -0.2946
-0.3010 BLOW THEIR -0.2430
-0.3010 BLUE SKIES. 0.0000
-0.3010 BLUFF, JOHN. 0.0000
-0.3010 BLUFF. IT'S -0.2923
-0.3010 BMEWS HAS -0.2553
-0.3010 BOARD THE -0.2995
-0.3010 BOARDS ARE -0.2946
-0.3010 BOAT. </s> -0.3010
-0.3010 BOAT.|THERE'S GOTTA -0.2218
-0.3010 BOAT? </s> -0.3010
-0.3010 BODY WEIGHT 0.0000
-0.3010 BOMB WING 0.0000
-0.3010 BOMBER WITH -0.2730
-0.3010 BOMBERS ON -0.2131
-0.3010 BOMBERS! </s> -0.3010
-0.3010 BOMBERS. </s> -0.3010
-0.3010 BOMBERS.|GET THE -0.2995
-0.3010 BOMBERS|BACK TO -0.2983
-0.3010 BOMBERS|THAT ARE -0.2946
-0.3010 BORING GAME.|IT'S 0.0000
-0.3010 BOTHERING YOU?|- -0.2430
-0.3010 BOWERS. </s> -0.3010
-0.3010 BOY IN -0.2937
-0.7782 BRASS HAT, 0.0000
-0.7782 BRASS HAT.|ACKNOWLEDGE. 0.0000
-0.7782 BRASS HAT.|THEY'RE 0.0000
-0.3010 BRIGHTER </s> -0.3010
-0.3010 BRILLIANT LIGHT 0.0000
-0.3010 BULLSHIT! </s> -0.3010
-0.3010 BUS|AS QUICKLY 0.0000
-1.0000 BUT </s> -0.3010
-1.0000 BUT AT -0.2478
-1.0000 BUT BACK -0.2730
-1.0000 BUT HUMANITY|PLANNING 0.0000
-1.0000 BUT YOU -0.2907
-0.3010 BUTTON TO -0.2983
-0.3010 BUT|I DON'T -0.2798
-0.3010 BUY THE -0.2995
-0.7782 BY FOR -0.2688
-0.7782 BY TO -0.2955
-0.7782 BY YOUR -0.2762
-0.3010 BY. </s> -0.3010
-0.3010 BYE NOW. 0.0000
-0.3010 BYE. </s> -0.3010
-0.3010 BYE.|- BYE 0.0000
-1.2041 CALL FALKEN. -0.2632
-1.2041 CALL HIM! 0.0000
-1.2041 CALL HIM. -0.1761
-1.2041 CALL IT -0.2942
-1.2041 CALL PEOPLE. 0.0000
-1.2041 CALL SAC.|GET 0.0000
-1.2041 CALL WON'T -0.2553
-1.2041 CALL YOU -0.2985
-0.3010 CALL? </s> -0.3010
-0.3010 CALLED ME. -0.1761
-0.3010 CAME BECAUSE -0.2218
-1.4472 CAN ASK 0.0000
-1.4472 CAN BE -0.2894
-1.4472 CAN CHANGE 0.0000
-1.4472 CAN DO -0.2872
-1.4472 CAN DO. 0.0000
-1.4472 CAN GET -0.2798
-1.4472 CAN HARDLY 0.0000
-1.4472 CAN I -0.2954
-1.4472 CAN LAUNCH -0.2499
-1.4472 CAN PROJECT 0.0000
-1.4472 CAN SWIM 0.0000
-1.4472 CAN WIN -0.1761
-1.4472 CAN WIN. 0.0000
-1.4472 CAN YOU -0.2985
-1.3010 CAN'T BE -0.2894
-1.3010 CAN'T GET -0.2688
-1.0000 CAN'T SWIM. 0.0000
-1.3010 CAN'T SWIM? 0.0000
-1.0000 CAN'T TALK 0.0000
-1.3010 CAN'T TALK. 0.0000
-1.3010 CAN'T THEY -0.2888
-1.3010 CAN'T WE -0.2926
-0.3010 CAN'T. </s> -0.3010
-0.3010 CAN. </s> -0.3010
-0.3010 CANNOT CONFIRM -0.1761
-0.3010 CANNOT|POSITIVELY CONFIRM -0.2430
-0.3010 CAPABILITIES. </s> -0.3010
-0.3010 CARE ABOUT -0.2808
-0.6021 CARE. </s> -0.3010
-0.6021 CARE. WATCH -0.1249
-0.3010 CARED ABOUT? 0.0000
-0.6021 CAREFUL CONSIDERATION, 0.0000
-0.6021 CAREFUL THERE. 0.0000
-0.3010 CAREFULLY. </s> -0.3010
-0.3010 CARRY|OUT THEIR -0.2430
-0.3010 CAUGHT IN -0.2788
-0.3010 CAUSE FOR -0.2906
-0.6021 CEDAR ROAD, 0.0000
-0.9031 CEDAR ROAD,|GOOSE 0.0000
-0.9031 CEDAR ROAD. 0.0000
-0.3010 CENTER OF -0.2798
-0.3010 CENTRE SQUARE.|- 0.0000
-0.3010 CENTRE. </s> -0.3010
-0.3010 CHANGE THOSE -0.2553
-0.3010 CHANGES. </s> -0.3010
-0.3010 CHANNEL AS -0.2430
-0.3010 CHASE. </s> -0.3010
-0.3010 CHASING SHADOWS. 0.0000
-0.7782 CHECK EVERYWHERE. 0.0000
-0.7782 CHECK HISTORY 0.0000
-0.7782 CHECK THE -0.2995
-0.3010 CHECKING UNDER -0.1761
-0.3010 CHESS. </s> -0.3010
-0.3010 CHESS? </s> -0.3010
-0.3010 CHILDREN, COME -0.2840
-0.3010 CHOICE|BUT TO -0.2983
-0.6021 CHRIST! NOW 0.0000
-0.6021 CHRIST! WE'RE -0.2840
-0.3010 CHRIST!|- THAT -0.2888
-0.6021 CHRIST'S SAKE!|- 0.0000
-0.6021 CHRIST'S SAKE. 0.0000
-0.3010 CITY, PLEASE?|- 0.0000
-0.3010 CLASS. </s> -0.3010
-0.6021 CLASSIFIED ADDRESS. 0.0000
-0.6021 CLASSIFIED ADDRESS? 0.0000
-0.3010 CLEANING THE -0.2995
-0.3010 CLEAR ENOUGH. 0.0000
-0.6021 CLEAR! </s> -0.3010
-0.6021 CLEAR! THEY'RE -0.2218
-0.3010 CLOSE GATE. -0.1761
-0.3010 CLOSED! </s> -0.3010
-0.3010 CLOSED,|NOBODY GETS -0.1761
-0.3010 CLOSING UP -0.2430
-0.3010 COBRA DANE, 0.0000
-0.3010 COC, I -0.2869
-0.3010 CODE </s> -0.3010
-0.6021 CODE. </s> -0.3010
-0.6021 CODE. IT'S -0.2923
-0.3010 CODES IN -0.2863
-0.4771 CODES. </s> -0.3010
-0.7782 CODES. TO -0.2955
-0.3010 CODES|SO HE -0.2553
-0.3010 CODES|THAT'LL LAUNCH -0.2888
-0.7782 COLONEL BOWERS. 0.0000
-0.4771 COLONEL CONLEY, 0.0000
-0.3010 COLONEL, THIS -0.1532
-0.3010 COLONEL? </s> -0.3010
-0.3010 COLORADO </s> -0.3010
-0.3010 COLORADO? </s> -0.3010
-1.4150 COME ON -0.2937
-0.9379 COME ON! 0.0000
-0.9379 COME ON, 0.0000
-0.8129 COME ON. 0.0000
-1.4150 COME ON.|- 0.0000
-1.4150 COME TO -0.2899
-0.3010 COME. I'M -0.2730
-0.3010 COMES. </s> -0.3010
-0.3010 COMFORTABLY? </s> -0.3010
-0.3010 COMING FROM -0.2762
-0.3010 COMMAND, ELMENDORF. 0.0000
-0.3010 COMMAND. </s> -0.3010
-0.3010 COMPLIMENTARY BEVERAGE|WAITING 0.0000
-1.0000 COMPUTER CENTRE. 0.0000
-1.0000 COMPUTER IS -0.2956
-0.6990 COMPUTER SAID 0.0000
-1.0000 COMPUTER THAT'S -0.2688
-0.3010 COMPUTER! </s> -0.3010
-0.3010 COMPUTER-ENHANCED HALLUCINATION. 0.0000
-0.6021 COMPUTERS IN -0.2632
-0.6021 COMPUTERS TO -0.2955
-0.3010 CONCLUSION|THAT YOUR -0.2762
-0.3010 CONFIDENCE IS -0.2900
-0.9031 CONFIRM THE -0.2995
-0.6021 CONFIRM THIS. 0.0000
-0.9031 CONFIRM WEAPONS 0.0000
-0.3010 CONFIRMATION ON -0.2937
-0.3010 CONFIRMED A -0.2983
-0.6021 CONLEY, CALL -0.2730
-0.6021 CONLEY, TAKE -0.2341
-0.3010 CONNECTED </s> -0.3010
-0.3010 CONSIDERATION, SIR, -0.2688
-0.3010 CONSISTENT|WITH USE 0.0000
-0.3010 CONTACT. </s> -0.3010
-0.3010 CONTROLLER ISN'T 0.0000
-0.3010 CONTROLLERS.|I WANNA -0.1761
-0.3010 CONVERSATION RIGHT -0.2285
-0.9031 COULD BE -0.2894
-0.9031 COULD FLY. 0.0000
-0.9031 COULD GET -0.2906
-0.9031 COULD NOT -0.2888
-0.3010 COULDN'T AFFORD 0.0000
-0.3010 COUNT </s> -0.3010
-0.3010 COUNTDOWN </s> -0.3010
-0.3010 COUNTERSTRIKE.|THAT'S WHAT -0.2946
-0.6021 COURSE. </s> -0.3010
-0.6021 COURSE. I -0.2954
-0.3010 CRAP </s> -0.3010
-1.0000 CRYSTAL PALACE, 0.0000
-0.6990 CRYSTAL PALACE. 0.0000
-1.0000 CRYSTAL PALACE.|ARE 0.0000
-1.0000 CRYSTAL PALACE.|WE'RE 0.0000
-0.7782 CURRENT ENEMY -0.2218
-0.7782 CURRENT MAILING 0.0000
-0.7782 CURRENT SITUATION... 0.0000
-0.3010 CURRENTLY TRACKING 0.0000
-0.3010 DAD'S CLASS. 0.0000
-0.3010 DAMN FISH 0.0000
-0.3010 DANE, IS -0.2844
-0.3010 DARK </s> -0.3010
-0.3010 DAVID! COME -0.2478
-0.7782 DAVID, MACHINES 0.0000
-0.7782 DAVID, WHAT -0.2539
-0.7782 DAVID, WHAT'S -0.2499
-0.3010 DAVID. </s> -0.3010
-0.3010 DAVID... DAVID. 0.0000
-0.3010 DAVID.|YOU'RE JUST -0.2840
-0.3010 DAVID?|- YEAH. -0.1761
-0.3010 DAVIS, GET -0.2576
-0.6021 DAY </s> -0.3010
-0.6021 DAY FOR -0.2688
-0.6021 DEAD. </s> -0.3010
-0.6021 DEAD. HE -0.2788
-0.3010 DEAD.|- I'M -0.2430
-0.3010 DEAD.|I'M TRYING -0.2430
-0.3010 DEAD? </s> -0.3010
-0.3010 DEATH. </s> -0.3010
-0.3010 DEATH|COS YOU'RE -0.2730
-0.3010 DECIDED TO -0.2955
-0.3010 DECISION. </s> -0.3010
-0.3010 DEE DAY -0.1761
-0.3010 DEEP LOGIC.|- 0.0000
-0.6690 DEFCON 1 0.0000
-1.1461 DEFCON 1. 0.0000
-1.1461 DEFCON 2. 0.0000
-1.1461 DEFCON 3|AND 0.0000
-1.1461 DEFCON 5. 0.0000
-0.6021 DEFENCE SYSTEM -0.2218
-0.6021 DEFENCE ZONE. 0.0000
-0.3010 DEGREES. </s> -0.3010
-0.3010 DELTA FOXTROT 0.0000
-0.3010 DENVER. </s> -0.3010
-0.3010 DENVER|WHERE YOU'LL -0.1761
-0.6021 DENY ANY -0.2788
-0.6021 DENY EVERYTHING. 0.0000
-0.3010 DEPENDING ON -0.2937
-0.3010 DEPLOYMENT. </s> -0.3010
-0.3010 DESTROY THE -0.2995
-0.3010 DESTROYED. </s> -0.3010
-0.3010 DESTROYING OURSELVES. 0.0000
-0.3010 DESTRUCTION OF -0.2958
-0.3010 DESTRUCTION... </s> -0.3010
-0.3010 DETECTION. </s> -0.3010
-0.3010 DETECTION.|WE HAVE -0.2258
-1.2041 DID I -0.2982
-1.2041 DID THE -0.2995
-1.2041 DID THIS? 0.0000
-1.2041 DID WITH -0.2730
-0.6021 DID YOU -0.2907
-0.3010 DID. </s> -0.3010
-0.7782 DIDN'T INVITE 0.0000
-0.7782 DIDN'T KNOW -0.2518
-0.7782 DIDN'T SOUND 0.0000
-0.3010 DIE YET. 0.0000
-0.3010 DIE. </s> -0.3010
-0.3010 DIFFERENCE? </s> -0.3010
-0.3010 DILATED, CONSISTENT|WITH 0.0000
-0.3010 DIM THE -0.2979
-0.3010 DISAPPEARED. </s> -0.3010
-0.3010 DISARM THE -0.2947
-0.3010 DISCONNECTED. </s> -0.3010
-1.5051 DO ANY -0.2788
-1.5051 DO HERE, 0.0000
-1.5051 DO IT, -0.2430
-1.5051 DO SOMETHING. 0.0000
-1.5051 DO THE -0.2995
-1.5051 DO THIS -0.2926
-1.5051 DO WORSE.|- 0.0000
-0.6601 DO YOU -0.2801
-1.5051 DO YOU...|WHAT 0.0000
-1.5051 DO YOU? 0.0000
-0.3010 DO, TOO. 0.0000
-0.3010 DO. </s> -0.3010
-0.3010 DO?|- I -0.2782
-0.3010 DOD PENSION 0.0000
-0.6990 DOES IT -0.2872
-1.0000 DOES THAT -0.2888
-1.0000 DOES WHAT -0.2946
-1.0000 DOES WOPR -0.2218
-0.7782 DOESN'T EVEN -0.2218
-0.7782 DOESN'T HAVE -0.2258
-0.7782 DOESN'T KNOW -0.2852
-0.3010 DOESN'T. IT -0.2942
-0.3010 DOIN', COLONEL? 0.0000
-0.7782 DOING HERE?|- -0.1761
-0.4771 DOING IN -0.2863
-0.3010 DOING? </s> -0.3010
-0.3010 DOING?|- IT'S -0.2923
-0.3010 DOMINATED THE -0.2995
-1.6232 DON'T ACT 0.0000
-1.6232 DON'T ANY -0.2788
-1.6232 DON'T CALL -0.2730
-1.6232 DON'T CARE 0.0000
-1.6232 DON'T EVEN -0.2218
-1.3222 DON'T HAVE -0.2486
-1.6232 DON'T I -0.2926
-1.1461 DON'T KNOW -0.2156
-1.3222 DON'T KNOW. -0.0969
-1.6232 DON'T MAKE -0.2632
-1.6232 DON'T MOVE. 0.0000
-1.3222 DON'T THINK -0.2041
-1.6232 DON'T UNDERSTAND. 0.0000
-1.3222 DON'T WANT -0.2218
-1.6232 DON'T YOU -0.2985
-0.3010 DON'T. </s> -0.3010
-0.3010 DOOR OPEN -0.1761
-0.4771 DOOR! </s> -0.3010
-0.7782 DOOR! HOLD -0.1963
-0.3010 DOOR?|- WE -0.2926
-0.3010 DOUGHERTY, SIR. -0.1513
-0.4771 DOWN THE -0.2979
-0.7782 DOWN THERE. 0.0000
-0.3010 DOWN. </s> -0.3010
-0.3010 DPS IS -0.2956
-1.1461 DR MCKITTRICK 0.0000
-0.5441 DR ROBERT 0.0000
-0.8451 DR STEPHEN -0.2041
-0.3010 EACH OF -0.2958
-0.3010 EAST GERMANY. 0.0000
-0.3010 EDUCATION. </s> -0.3010
-0.3010 EGGS. </s> -0.3010
-0.3010 EIGHT. </s> -0.3010
-0.3010 EIGHT... SEVEN... 0.0000
-0.3010 EITHER OF -0.2906
-0.3010 ELECTION </s> -0.3010
-0.3010 ELEVATOR. </s> -0.3010
-0.3010 ELMENDORF AIR -0.1761
-0.3010 ELMENDORF. </s> -0.3010
-0.3010 ELSE IN -0.2632
-0.3010 ELSE|UNTIL I -0.2982
-0.3010 EMAIL </s> -0.3010
-0.3010 ENABLED. </s> -0.3010
-0.3010 ENCOM </s> -0.3010
-0.3010 END THE -0.2995
-0.3010 ENDING FOR -0.2906
-0.6021 ENEMIES </s> -0.3010
-0.6021 ENEMIES OF -0.2958
-0.7782 ENEMY </s> -0.3010
-0.7782 ENEMY COUNT 0.0000
-0.7782 ENEMY WOULD -0.2762
-0.3010 ENEMY? </s> -0.3010
-0.3010 ENGLISH. </s> -0.3010
-0.3010 ENOUGH FOR -0.2906
-0.3010 ENOUGH. </s> -0.3010
-0.3010 ENTIRE PASSWORD 0.0000
-0.3010 ESCORTING YOU -0.2959
-0.3010 ESPIONAGE.|- ESPIONAGE?! 0.0000
-0.3010 ESPIONAGE?! </s> -0.3010
-0.7782 EVEN APES 0.0000
-0.7782 EVEN BELIEVE -0.2632
-0.7782 EVEN HAVE -0.2258
-0.3010 EVER PLAY -0.2632
-0.3010 EVERYBODY OK? 0.0000
-0.3010 EVERYTHING. </s> -0.3010
-0.3010 EVERYWHERE. HE -0.2788
-0.3010 EXACTLY. THERE'S -0.1761
-0.3010 EXCEPT I -0.2954
-0.4771 EXCUSE ME. -0.0969
-0.7782 EXCUSE ME.|THANK 0.0000
-0.3010 EXECUTION ORDER -0.1761
-0.3010 EXERCISE. </s> -0.3010
-0.3010 EXERCISE?|- THIS -0.1532
-0.3010 EXIST. </s> -0.3010
-0.3010 EXTERNAL POWER 0.0000
-0.3010 EXTINCTION IS -0.2956
-0.3010 EXTINGUISHED, IT'S -0.2742
-0.3010 EYES ARE -0.2946
-0.3010 EYES.|- THAT'S -0.2688
-0.3010 F-16S OUT -0.1761
-0.3010 F-A-L-K-E-N, </s> -0.3010
-0.3010 FAIL-SAFE. </s> -0.3010
-0.3010 FALKEN KNOWS -0.2218
-0.6021 FALKEN, F-A-L-K-E-N, 0.0000
-0.6021 FALKEN, YOU -0.2985
-0.3010 FALKEN,|F-A-L-K-E-N, AT -0.2478
-0.4771 FALKEN. </s> -0.3010
-1.0792 FALKEN. DR -0.2341
-1.0792 FALKEN. HE'LL 0.0000
-0.3010 FALKEN? </s> -0.3010
-0.3010 FALSE RADAR -0.2430
-0.3010 FANTASY. </s> -0.3010
-0.6021 FAR DO -0.1938
-0.6021 FAR HAS -0.2553
-0.3010 FAR.|- MOVE -0.1761
-0.3010 FAULT. </s> -0.3010
-0.3010 FAULT? THE -0.2995
-0.3010 FAVOUR. </s> -0.3010
-0.3010 FAVOUR|AND DON'T -0.2906
-0.3010 FBI|ASKING QUESTIONS. 0.0000
-0.3010 FBL'LL BE -0.2894
-0.3010 FEED IT -0.2942
-0.3010 FEELING </s> -0.3010
-0.6021 FERRY 6.30, 0.0000
-0.6021 FERRY LEAVES 0.0000
-0.3010 FERRY. </s> -0.3010
-0.7782 FEW ANSWERS|OUT 0.0000
-0.7782 FEW MINUTES. 0.0000
-0.7782 FEW YEARS. 0.0000
-0.3010 FILE. </s> -0.3010
-0.3010 FILES|INDICATE CURRENT -0.2218
-0.3010 FILE|HAS BEEN -0.2632
-0.3010 FILLED WITH -0.2730
-0.8451 FIND A -0.2956
-0.8451 FIND NO -0.2518
-1.1461 FIND OUT|HOW 0.0000
-1.1461 FIND THE -0.2979
-1.1461 FIND YOU -0.2985
-0.3010 FINE IN -0.2937
-0.3010 FIRE WALL. 0.0000
-0.3010 FIRST AND -0.2919
-0.3010 FISH EGGS. 0.0000
-0.3010 FIVE NUMBERS. -0.2430
-0.3010 FIVE... </s> -0.3010
-0.3010 FIVE.|LET ME -0.2872
-0.3010 FLEW. </s> -0.3010
-0.3010 FLIGHT PROFILE|SUGGESTS 0.0000
-0.3010 FLOOR? </s> -0.3010
-0.3010 FLOORS|IN THE -0.2947
-0.3010 FLUSH THE -0.2995
-0.3010 FLY. </s> -0.3010
-0.3010 FOLKS. I'VE -0.2218
-0.3010 FOLLOW PATH. -0.1761
-1.1461 FOR A -0.2928
-1.6232 FOR ALARM.|THE 0.0000
-1.3222 FOR CHRIST'S 0.0000
-1.3222 FOR DR -0.1549
-1.6232 FOR EACH 0.0000
-1.6232 FOR ENEMIES -0.1761
-1.6232 FOR ESPIONAGE.|- 0.0000
-1.6232 FOR IT! -0.0969
-1.6232 FOR IT.|- 0.0000
-1.6232 FOR IT.|HOW 0.0000
-1.6232 FOR ME? 0.0000
-1.6232 FOR REAL! 0.0000
-1.6232 FOR SECURITY -0.1761
-1.6232 FOR SOMETHING 0.0000
-1.6232 FOR THE -0.2995
-1.6232 FOR TWO -0.2553
-1.6232 FOR YOU|TO 0.0000
-0.3010 FOR? </s> -0.3010
-0.6021 FORCE BASE -0.1761
-0.6021 FORCE BASE.|THE 0.0000
-0.3010 FORCES. </s> -0.3010
-0.3010 FORGET|ABOUT THE -0.2995
-0.3010 FORKS,|AND ALASKAN 0.0000
-0.3010 FORTUNATE THAN 0.0000
-0.3010 FOUGHT AND -0.2730
-0.3010 FOUR NUMBERS. -0.0969
-0.3010 FOUR... </s> -0.3010
-0.3010 FOXTROT 27.|I 0.0000
-0.3010 FREAKED. </s> -0.3010
-1.2553 FROM A -0.2983
-1.2553 FROM ANYWHERE. 0.0000
-1.2553 FROM BRASS -0.2218
-1.2553 FROM GRAND -0.2218
-1.2553 FROM INSIDE.|- 0.0000
-1.2553 FROM MY -0.2762
-0.7782 FROM THE -0.2947
-0.3010 FROM|MISTAKES WE -0.2926
-0.3010 FRONT OF -0.2958
-0.3010 FULL OF -0.2958
-0.6021 FULL-SCALE RETALIATORY 0.0000
-0.6021 FULL-SCALE SOVIET -0.2688
-0.3010 FUNCTIONING. </s> -0.3010
-0.3010 FUTILITY. THAT -0.2888
-0.3010 GAIN A -0.2928
-0.3010 GALENA. </s> -0.3010
-0.7782 GAME </s> -0.3010
-0.7782 GAME ITSELF 0.0000
-0.7782 GAME OF -0.2958
-0.3010 GAME!|HE'S GONNA -0.2788
-0.3010 GAME, THEN -0.2218
-0.3010 GAME. </s> -0.3010
-0.3010 GAME.|IT'S ALWAYS -0.2218
-0.3010 GAME? </s> -0.3010
-0.3010 GAMES WITH -0.2730
-0.3010 GAMES!|- TRY -0.1761
-0.3010 GAMES. </s> -0.3010
-0.3010 GAMES? IT'S -0.2833
-0.3010 GAME|THAT WE -0.2926
-0.6021 GATE'S CLOSED! 0.0000
-0.6021 GATE'S GONNA -0.2788
-0.6021 GATE, CLOSE 0.0000
-0.6021 GATE, THROUGH -0.1761
-0.6021 GATE. </s> -0.3010
-0.6021 GATE. OPEN -0.1761
-0.3010 GATES ARE -0.2946
-0.6021 GAVE UP -0.2730
-0.6021 GAVE UP? 0.0000
-0.6021 GENERAL BERINGER 0.0000
-0.6021 GENERAL BERINGER? 0.0000
-1.1461 GENERAL, ARE -0.1928
-1.1461 GENERAL, DO -0.1938
-1.1461 GENERAL, DPS 0.0000
-1.1461 GENERAL, IT'S -0.2833
-1.1461 GENERAL, THE -0.2995
-1.1461 GENERAL, WHAT -0.2814
-1.1461 GENERAL, YOU -0.2959
-0.3010 GENERAL. </s> -0.3010
-0.3010 GENERAL.|JUST BLUE 0.0000
-0.3010 GENERATORS ON -0.2937
-0.3010 GENERATORS|AREN'T RUNNING. 0.0000
-0.3010 GERMANY. </s> -0.3010
-1.6232 GET A -0.2928
-1.3222 GET BACK -0.2430
-1.1461 GET IN -0.2472
-1.6232 GET IN. -0.0969
-1.6232 GET JOSHUA|TO 0.0000
-1.0212 GET ME -0.1938
-1.6232 GET OFF -0.1761
-1.6232 GET ON -0.2131
-1.6232 GET OUTTA 0.0000
-1.6232 GET SAC 0.0000
-1.6232 GET THAT -0.2888
-1.3222 GET THE -0.2963
-1.6232 GET TO -0.2899
-1.6232 GET US -0.2688
-0.6021 GETS ALL -0.2872
-0.6021 GETS IN -0.2937
-0.3010 GETTING ON -0.2131
-0.3010 GIRLS FROM -0.2762
-1.0792 GIVE 'EM -0.1761
-1.0792 GIVE IT -0.2802
-1.0792 GIVE LAUNCH -0.2888
-1.0792 GIVE ME -0.2730
-1.0792 GIVE UP, 0.0000
-1.0792 GIVE UP. -0.0792
-0.3010 GIVING UP. -0.0792
-0.3010 GLOBAL THERMONUCLEAR 0.0000
-1.1461 GO AHEAD. -0.1761
-1.1461 GO DARK 0.0000
-1.1461 GO FOR -0.2906
-1.1461 GO INTO 0.0000
-1.1461 GO THROUGH|THIS 0.0000
-0.8451 GO TO -0.2899
-0.3010 GO, NATURE -0.2218
-0.3010 GO. </s> -0.3010
-0.3010 GO.|- NO. -0.2788
-0.3010 GOD I -0.2982
-0.7782 GODDAMN DOOR! -0.1249
-0.7782 GODDAMN IT. -0.1249
-0.7782 GODDAMN THING! 0.0000
-1.0792 GOING ON. -0.1761
-1.0792 GOING ON? -0.1249
-1.0792 GOING ON?|- 0.0000
-0.6021 GOING TO -0.2899
-0.3010 GONE? </s> -0.3010
-1.3010 GONNA ANSWER 0.0000
-1.0000 GONNA BE -0.2775
-1.3010 GONNA BLOW 0.0000
-1.3010 GONNA DO?|- 0.0000
-1.3010 GONNA LET -0.2430
-1.3010 GONNA SHUT! 0.0000
-1.3010 GONNA START -0.2218
-1.0000 GONNA TELL -0.2596
-0.7782 GOOD NIGHT. 0.0000
-0.7782 GOOD ON -0.2131
-0.7782 GOOD TO -0.2983
-0.3010 GOOD. </s> -0.3010
-0.6021 GOOSE LSLAND, -0.1761
-0.6021 GOOSE LSLAND. 0.0000
-1.4150 GOT 100,000 0.0000
-1.4150 GOT 48 0.0000
-1.4150 GOT A -0.2983
-1.4150 GOT ANYTHING?|- 0.0000
-1.4150 GOT AROUND -0.1761
-1.4150 GOT HALF 0.0000
-1.4150 GOT IT. -0.2218
-1.4150 GOT NO -0.2852
-1.4150 GOT NOTHING -0.1761
-1.4150 GOT ONE. -0.2430
-1.4150 GOT THE -0.2979
-1.4150 GOT TO -0.2955
-1.4150 GOT US -0.2688
-0.7782 GOTTA BE -0.2894
-0.7782 GOTTA GET -0.2906
-0.7782 GOTTA RUN. 0.0000
-0.3010 GOT|INTO MR -0.2688
-0.3010 GRACIOUSLY ARRANGED 0.0000
-0.3010 GRADE? </s> -0.3010
-0.7782 GRAND FORKS,|AND 0.0000
-0.7782 GRAND JUNCTION 0.0000
-0.7782 GRAND JUNCTION,|COLORADO 0.0000
-0.3010 GREETINGS, PROFESSOR 0.0000
-0.3010 GROUND. </s> -0.3010
-0.3010 GROUP.|SO GET -0.2798
-0.3010 GROWS UP|IN 0.0000
-0.3010 GUYS.|WE'VE TAKEN -0.1761
-0.3010 H CHRIST! -0.1761
-0.3010 HACK THE -0.2995
-0.6021 HAD HIM -0.2218
-0.6021 HAD RESERVATIONS 0.0000
-0.3010 HALF THE -0.2979
-0.3010 HALLUCINATION. </s> -0.3010
-0.3010 HAPPENING? </s> -0.3010
-0.3010 HARD MAN -0.1761
-0.3010 HARDER ON -0.2937
-0.3010 HARDLY DO -0.2872
-1.0000 HAS CONFIRMED 0.0000
-1.0000 HAS HE -0.2788
-1.0000 HAS IT -0.2942
-1.0000 HAS LOCKED -0.1761
-1.0000 HAS THIS -0.2926
-0.3010 HASN'T LEARNED. 0.0000
-0.3010 HAT, WE -0.2840
-0.3010 HAT.|ACKNOWLEDGE. </s> -0.3010
-0.3010 HAT.|THEY'RE RIGHT -0.2840
-0.7984 HAVE A -0.2701
-1.6435 HAVE BEEN -0.2632
-1.6435 HAVE COME -0.2840
-1.6435 HAVE COME. 0.0000
-1.6435 HAVE NEGATIVE -0.1761
-1.3424 HAVE NO -0.2518
-1.6435 HAVE PRETTY 0.0000
-1.6435 HAVE REASON 0.0000
-1.6435 HAVE THE -0.2979
-1.6435 HAVE TIME|FOR 0.0000
-1.0414 HAVE TO -0.2871
-1.6435 HAVE TRIED -0.2218
-0.3010 HAVE. </s> -0.3010
-0.3010 HAVEN'T BEEN -0.2632
-1.0000 HE CAN -0.2688
-1.3010 HE CAN'T -0.2788
-1.3010 HE DO. 0.0000
-1.3010 HE DOESN'T -0.2218
-1.3010 HE DOING -0.1249
-1.3010 HE GETS -0.1761
-1.3010 HE LEFT. 0.0000
-1.3010 HE SAYIN'?|- 0.0000
-1.3010 HE SPOKEN 0.0000
-0.3010 HE'LL TELL -0.2808
-1.1461 HE'S DEAD? 0.0000
-1.1461 HE'S GOT -0.2840
-0.8451 HE'S NOT -0.2762
-1.1461 HE'S PLAYED 0.0000
-0.8451 HE'S STILL -0.2374
-0.3010 HE'S|THE ONLY -0.2218
-0.3010 HEADSET. </s> -0.3010
-0.3010 HEARD THEY -0.2888
-0.3010 HELL OF -0.2798
-0.3010 HELL'S HE -0.2553
-0.3010 HELL?! </s> -0.3010
-0.6021 HELLO, GENERAL -0.1761
-0.6021 HELLO, JOSHUA. -0.0792
-0.3010 HELLO. </s> -0.3010
-1.0000 HERE ANY -0.2788
-1.0000 HERE ANYWAY? 0.0000
-1.0000 HERE IS -0.2956
-1.0000 HERE IT -0.2942
-1.0000 HERE RIGHT -0.2285
-0.3010 HERE! </s> -0.3010
-0.3010 HERE!|- OUR -0.2688
-0.3010 HERE, STEPHEN. 0.0000
-0.4771 HERE. </s> -0.3010
-0.7782 HERE. DON'T -0.2906
-0.3010 HERE.|- OH, -0.2688
-0.3010 HERE.|I'M GOING -0.1761
-0.6021 HERE?|- YEAH, 0.0000
-0.6021 HERE?|- YOU -0.2985
-0.3010 HEY! </s> -0.3010
-0.3010 HEY, SCOOTER! 0.0000
-0.6021 HIGH-SCHOOL STUDENTS, 0.0000
-0.6021 HIGH-SCHOOL STUDENTS. 0.0000
-0.6021 HIGH. </s> -0.3010
-0.6021 HIGH. FLIGHT 0.0000
-0.7782 HIM BEFORE.|WE'LL 0.0000
-0.7782 HIM DIE. 0.0000
-0.7782 HIM WHERE -0.2218
-0.3010 HIM! </s> -0.3010
-0.3010 HIM!|HE'S RIGHT -0.2840
-0.6021 HIM. CALL -0.2730
-0.6021 HIM. PLEASE, 0.0000
-0.3010 HIM? </s> -0.3010
-0.3010 HIMSELF. </s> -0.3010
-0.3010 HIS WAY|TO 0.0000
-0.3010 HISTORY </s> -0.3010
-0.4771 HIT A -0.2956
-0.7782 HIT THE -0.2995
-1.1461 HOLD HIM -0.2218
-0.8451 HOLD IT! 0.0000
-1.1461 HOLD IT, -0.2430
-0.6690 HOLD THE -0.2947
-0.6021 HOPE THEY -0.2762
-0.6021 HOPE YOU -0.2959
-0.3010 HOPING FOR -0.2906
-0.3010 HORROR OF -0.2958
-0.3010 HOUR. </s> -0.3010
-0.3010 HOURS. </s> -0.3010
-0.3010 HOUSE.|YOUR PARENTS 0.0000
-0.3010 HOUSING DESTROYED. 0.0000
-1.0414 HOW ABOUT -0.2596
-1.3424 HOW ARE -0.1928
-1.3424 HOW FAR -0.1761
-1.3424 HOW IS -0.2788
-1.3424 HOW LONG -0.2218
-1.3424 HOW MANY -0.1761
-1.3424 HOW SOON? 0.0000
-1.0414 HOW TO -0.2955
-1.3424 HOW YOU -0.2985
-0.3010 HUH? I -0.2982
-0.3010 HUMANITY|PLANNING ITS 0.0000
-0.3010 HUME,|H-U-M-E, ON -0.2788
-0.3010 HUME. </s> -0.3010
-0.3010 HUME.|- IS -0.2956
-0.3010 HURRY IT -0.2872
-0.3010 HURRY! </s> -0.3010
-0.3010 HURT|THEMSELVES, SO -0.2553
-0.3010 HUSTLE.|THE FERRY -0.1761
-2.1931 I ALWAYS -0.2218
-1.7160 I BELIEVE -0.1761
-2.1931 I BOTHERING 0.0000
-2.1931 I CAME 0.0000
-2.1931 I CAN -0.2852
-1.4942 I CAN'T -0.1461
-2.1931 I CAN. 0.0000
-2.1931 I DID. 0.0000
-1.8921 I DIDN'T -0.1249
-2.1931 I DO, 0.0000
-1.2900 I DON'T -0.1963
-1.8921 I FIND -0.2341
-2.1931 I GET -0.2906
-2.1931 I GOT -0.2840
-1.7160 I HAVE -0.2596
-2.1931 I HAVE. 0.0000
-2.1931 I HEARD 0.0000
-2.1931 I HOPE -0.1761
-1.8921 I JUST -0.2663
-1.7160 I KNOW -0.2518
-1.8921 I KNOW. -0.0969
-2.1931 I LOVED 0.0000
-2.1931 I MEAN, 0.0000
-1.4942 I NEED 0.0000
-1.8921 I NEVER 0.0000
-2.1931 I REALLY -0.2218
-2.1931 I REPEAT, -0.1761
-2.1931 I SAW 0.0000
-1.8921 I SHOULD -0.1249
-2.1931 I SWEAR 0.0000
-2.1931 I TALK -0.0580
-2.1931 I TELL -0.2374
-1.5911 I THINK -0.1139
-2.1931 I THOUGHT 0.0000
-2.1931 I TOLD -0.1761
-2.1931 I TRIED -0.2218
-2.1931 I WANNA|KNOW 0.0000
-1.8921 I WANT -0.2218
-2.1931 I WANTED 0.0000
-1.7160 I WAS -0.1761
-2.1931 I WAS... 0.0000
-2.1931 I WENT 0.0000
-1.8921 I WISH 0.0000
-2.1931 I WOULD -0.2762
-0.3010 I'D PISS 0.0000
-0.8451 I'LL BE -0.2775
-1.1461 I'LL BEGIN. 0.0000
-1.1461 I'LL CALL -0.2730
-1.1461 I'LL GET -0.2798
-1.1461 I'LL GIVE -0.2632
-1.1461 I'LL TELL -0.2374
-1.5051 I'M ESCORTING 0.0000
-1.5051 I'M GONNA -0.2788
-1.2041 I'M IN -0.2863
-1.5051 I'M LATE. 0.0000
-1.5051 I'M LOOKING -0.1761
-1.2041 I'M NOT -0.2762
-1.5051 I'M ONLY -0.2218
-1.5051 I'M ORDERING 0.0000
-0.9031 I'M SORRY. 0.0000
-1.5051 I'M STILL -0.2808
-1.5051 I'M WORKING -0.2218
-0.7782 I'VE BEEN -0.2632
-0.7782 I'VE GOTTA -0.2218
-0.7782 I'VE PLANNED 0.0000
-0.3010 ICBMS. </s> -0.3010
-0.3010 IDEA.|IT COULD -0.2430
-0.3010 IDENTITIES. </s> -0.3010
-1.0792 IF HE'S -0.2341
-1.0792 IF I -0.2982
-1.0792 IF IT -0.2942
-1.0792 IF JOSHUA -0.2218
-1.0792 IF THE -0.2979
-1.0792 IF WE'RE -0.2840
-0.3010 IMAGE|600 MILES -0.1761
-0.3522 IMPACT. </s> -0.3010
-1.2553 IMPACT. WE'RE -0.2840
-0.3010 IMPACT|IN THE -0.2995
-0.3010 IMPORTANT LESSON. 0.0000
-1.7782 IN 1979. 0.0000
-1.7782 IN 28 0.0000
-1.7782 IN 5.3 0.0000
-1.3010 IN A -0.2759
-1.7782 IN AN -0.2808
-1.7782 IN AND -0.2919
-1.7782 IN COLORADO 0.0000
-1.7782 IN COLORADO? 0.0000
-1.7782 IN EAST 0.0000
-1.7782 IN ENGLISH. 0.0000
-1.7782 IN FRONT 0.0000
-1.7782 IN GRAND -0.2218
-1.7782 IN HERE -0.2553
-1.7782 IN HERE?|- -0.1761
-1.7782 IN LAUNCH -0.2762
-1.7782 IN OPERATION|AT 0.0000
-1.7782 IN OR -0.2430
-1.7782 IN SEATTLE -0.1761
-1.0792 IN THE -0.2931
-1.7782 IN THERE, -0.1761
-1.7782 IN TIME, -0.1761
-1.7782 IN TO -0.2983
-1.7782 IN TOUCH|AS 0.0000
-1.7782 IN TROUBLE.|- 0.0000
-0.3010 IN! </s> -0.3010
-0.4260 IN. </s> -0.3010
-0.9031 IN. ORDER -0.1761
-0.3010 INBOUND SOVIET -0.2688
-0.3010 INBOUNDS. </s> -0.3010
-0.3010 INBOUND|SOVIET WARHEADS. 0.0000
-0.3010 INCOMMING ATTACK -0.1249
-0.3010 INCREASE|IN THEIR -0.2430
-0.3010 INDICATE A -0.2983
-0.3010 INDICTMENT FOR -0.2906
-0.6021 INFORMATION CHANGES. 0.0000
-0.6021 INFORMATION YOU -0.2985
-0.3010 INFORMED </s> -0.3010
-0.6021 INITIAL ATTACK -0.2218
-0.6021 INITIAL IMPACT|IN 0.0000
-0.3010 INITIATE INTERNAL 0.0000
-0.3010 INSIDE.|- COME -0.2285
-0.3010 INSTRUCTIONS. THEY'D 0.0000
-0.3010 INTELLIGENCE REPORTS -0.1761
-0.3010 INTERNAL POWER. 0.0000
-0.3010 INTERPRET A -0.2983
-0.3010 INTO A -0.2872
-0.3010 INVADE THE -0.2995
-0.3010 INVITE YOU. -0.1249
-1.9031 IS A -0.2983
-1.9031 IS AIRMAN 0.0000
-1.9031 IS BRASS -0.2218
-1.9031 IS CONNECTED 0.0000
-1.3010 IS CRYSTAL -0.0792
-1.9031 IS DELTA 0.0000
-1.9031 IS EITHER 0.0000
-1.9031 IS EVERYBODY 0.0000
-1.9031 IS GENERAL -0.1761
-1.6021 IS HIGH. 0.0000
-1.9031 IS IN -0.2937
-1.9031 IS IT -0.2942
-1.9031 IS LORING 0.0000
-1.9031 IS MCKITTRICK. 0.0000
-1.9031 IS MCKITTRICK.|- 0.0000
-1.6021 IS NOT -0.2632
-1.9031 IS ONE -0.2632
-1.9031 IS PART 0.0000
-1.9031 IS POINTLESS. 0.0000
-1.9031 IS PUTTING 0.0000
-1.9031 IS SOME -0.2218
-1.9031 IS THAT -0.2888
-1.9031 IS THAT? -0.0669
-1.3010 IS THE -0.2947
-1.6021 IS THERE -0.2430
-1.4260 IS THIS -0.2752
-1.9031 IS TRACKING|300 0.0000
-1.9031 IS TRYING -0.1761
-1.9031 IS UNREAL! 0.0000
-0.3010 IS? </s> -0.3010
-0.3010 ISLAND|AND HE -0.2788
-0.3010 ISN'T HERE -0.2553
-1.8062 IT A -0.2983
-1.5051 IT CAN -0.2688
-1.8062 IT COMES. 0.0000
-1.8062 IT DOESN'T. 0.0000
-1.8062 IT DOING?|- 0.0000
-1.8062 IT GONE? 0.0000
-1.8062 IT HARDER 0.0000
-1.8062 IT HASN'T 0.0000
-1.8062 IT IS? 0.0000
-1.8062 IT LATER. 0.0000
-1.8062 IT LIST -0.1249
-1.8062 IT MAKE -0.2218
-1.8062 IT MIGHT -0.2218
-1.8062 IT MUST 0.0000
-1.8062 IT OFF.|- 0.0000
-1.8062 IT OUT. 0.0000
-1.8062 IT PLAY -0.2632
-1.8062 IT REAL? 0.0000
-1.8062 IT RIGHT -0.2285
-1.8062 IT TAKE -0.2688
-1.3291 IT TO -0.2899
-1.8062 IT UP -0.2730
-1.8062 IT UP!|- 0.0000
-1.5051 IT UP. 0.0000
-1.8062 IT WANTS 0.0000
-1.8062 IT WHEN -0.2341
-1.5051 IT WOULD -0.2499
-0.4260 IT! </s> -0.3010
-0.9031 IT! WHAT -0.2539
-0.3010 IT'D DO -0.2872
-0.3010 IT'LL BE -0.2894
-1.2218 IT'S A -0.2928
-1.3979 IT'S ALL -0.2109
-1.6990 IT'S GAMES. 0.0000
-1.6990 IT'S GOING -0.1761
-1.2218 IT'S GOT -0.2478
-1.6990 IT'S JAMMED 0.0000
-1.6990 IT'S JOSHUA! 0.0000
-1.6990 IT'S KINDA 0.0000
-1.6990 IT'S LEARNING. 0.0000
-1.6990 IT'S LIKE -0.2553
-1.6990 IT'S ME. -0.2430
-1.2218 IT'S NOT -0.2499
-1.6990 IT'S NOT, 0.0000
-1.6990 IT'S REAL. 0.0000
-1.6990 IT'S TAKING|POWER 0.0000
-1.3979 IT'S THE -0.2963
-1.6990 IT'S TWO -0.2553
-0.9031 IT, HOLD -0.2341
-0.9031 IT, OK? 0.0000
-0.9031 IT, WILL -0.2430
-0.9031 IT, WOULDN'T -0.2218
-0.4771 IT. </s> -0.3010
-0.7782 IT. HERE -0.2553
-0.3010 IT.|- NO. -0.2041
-0.3010 IT.|HAVE IT -0.2942
-0.3010 IT.|HOW FAR -0.1761
-0.3010 IT?! </s> -0.3010
-0.6021 IT?|- NO. -0.2788
-0.6021 IT?|- THEY -0.2762
-0.3010 ITS OWN -0.1761
-0.3010 ITSELF IS -0.2956
-0.3010 ITSELF?|- YES. -0.2218
-0.3010 JACK. </s> -0.3010
-0.3010 JAMMED FROM -0.2762
-0.3010 JENNIFER? IT'S -0.2923
-0.6021 JESUS CHRIST!|- 0.0000
-0.6021 JESUS H 0.0000
-0.3010 JESUS! </s> -0.3010
-0.3010 JOHN! GOOD -0.2218
-0.3010 JOHN, FEED 0.0000
-0.3010 JOHN. CALL -0.2730
-0.3010 JOIN AIRBORNE 0.0000
-0.3010 JOKE </s> -0.3010
-0.7782 JOSHUA CALLED 0.0000
-0.7782 JOSHUA TRICKS 0.0000
-0.7782 JOSHUA WAS -0.2730
-0.3010 JOSHUA! </s> -0.3010
-0.6021 JOSHUA'S DOING? 0.0000
-0.6021 JOSHUA'S TRYING -0.1761
-0.6021 JOSHUA, </s> -0.3010
-0.6021 JOSHUA, WHAT -0.2539
-0.3979 JOSHUA. </s> -0.3010
-1.0000 JOSHUA. HE'S|THE 0.0000
-0.3010 JOSHUA|TO LEARN -0.2218
-0.3010 JUNCTION AIRPORT. 0.0000
-0.3010 JUNCTION,|COLORADO TO -0.2983
-1.4150 JUST BE -0.2894
-1.4150 JUST DO -0.2872
-1.4150 JUST FREAKED. 0.0000
-1.4150 JUST GAVE -0.1761
-1.4150 JUST GIVE -0.2632
-1.4150 JUST HOPE -0.1761
-1.4150 JUST LOOKING -0.1761
-1.4150 JUST MAKING 0.0000
-1.4150 JUST STUPID! 0.0000
-1.4150 JUST TALK -0.0580
-1.4150 JUST THESE -0.1761
-1.4150 JUST THREE -0.2218
-1.4150 JUST UNPLUG 0.0000
-0.6021 KID BEEN -0.2632
-0.6021 KID GET -0.2688
-0.3010 KID'S WORKING|WITH 0.0000
-0.3010 KID. LET'S -0.2632
-0.3010 KIDDING? </s> -0.3010
-0.6021 KIDS BETTER -0.2218
-0.6021 KIDS THINK -0.2788
-0.3010 KILL RATIOS? 0.0000
-0.3010 KIND OF -0.2688
-0.3010 KINDA STUPID, 0.0000
-0.3010 KING </s> -0.3010
-1.4472 KNOW A -0.2983
-0.9700 KNOW ABOUT -0.2139
-1.4472 KNOW HOW -0.2596
-1.4472 KNOW THAT -0.2888
-1.4472 KNOW THAT. -0.2218
-1.4472 KNOW THAT?|- 0.0000
-1.4472 KNOW THEY'RE -0.2632
-1.4472 KNOW TOO -0.2218
-1.1461 KNOW WHAT -0.2747
-1.4472 KNOW WHAT'S -0.2218
-1.4472 KNOW YOU -0.2985
-0.6021 KNOW. </s> -0.3010
-0.9031 KNOW. DO -0.2872
-0.9031 KNOW. NO -0.2852
-0.7782 KNOWS ABOUT -0.2596
-0.7782 KNOWS WHAT -0.2946
-0.7782 KNOWS WHEN -0.2688
-0.3010 KNOW|WHY WE'RE -0.2840
-0.7782 LAND AND -0.2825
-0.7782 LAND ANIMAL 0.0000
-0.7782 LAND LINES 0.0000
-0.3010 LAS VEGAS. 0.0000
-0.9031 LAST FERRY -0.1761
-0.9031 LAST FERRY. 0.0000
-0.9031 LAST INSTRUCTIONS. 0.0000
-0.9031 LAST THING -0.1761
-0.3010 LATE. </s> -0.3010
-0.3010 LATER. </s> -0.3010
-1.5563 LAUNCH CODE 0.0000
-1.5563 LAUNCH CODES 0.0000
-1.2553 LAUNCH CODES. -0.1249
-1.5563 LAUNCH DETECTION. 0.0000
-1.5563 LAUNCH DETECTION.|WE 0.0000
-1.5563 LAUNCH MISSILES|AT 0.0000
-1.2553 LAUNCH MODE. 0.0000
-1.5563 LAUNCH MODE.|CLOSE 0.0000
-1.5563 LAUNCH MY -0.2762
-1.5563 LAUNCH OPTION. 0.0000
-1.5563 LAUNCH OUR -0.2688
-1.5563 LAUNCH STATUS 0.0000
-0.9542 LAUNCH THE -0.2931
-0.3010 LAUNCH. </s> -0.3010
-0.3010 LAUNCHING AN -0.2808
-0.3010 LAWYER CRAP 0.0000
-0.3010 LAWYER. </s> -0.3010
-0.3010 LEAK OR -0.2430
-0.7782 LEARN FROM|MISTAKES 0.0000
-0.7782 LEARN HOW -0.2596
-0.7782 LEARN THE -0.2995
-0.3010 LEARN, GODDAMN -0.2218
-0.3010 LEARNED. </s> -0.3010
-0.3010 LEARNING. </s> -0.3010
-0.3010 LEAST. MAYBE -0.1761
-0.6021 LEAVE IN -0.2788
-0.6021 LEAVE THE -0.2995
-0.3010 LEAVE?|- YES. -0.1249
-0.3010 LEAVES ANY -0.2788
-0.3010 LEFT. </s> -0.3010
-0.6021 LEM, GET -0.2576
-0.6021 LEM, LOCK 0.0000
-0.3010 LEND ME -0.2872
-0.3010 LESSON IS -0.2956
-0.3010 LESSON. </s> -0.3010
-0.9031 LET ANYTHING -0.1761
-0.6021 LET ME -0.2730
-0.9031 LET THE -0.2995
-1.0792 LET'S GET -0.2906
-0.7782 LET'S GO -0.2341
-1.0792 LET'S GO. 0.0000
-1.0792 LET'S GO.|- 0.0000
-1.0792 LET'S SAY -0.2218
-0.6021 LETTING ME -0.2872
-0.6021 LETTING US -0.2688
-0.3010 LICKS DOES -0.2041
-0.3010 LIGHT </s> -0.3010
-0.6021 LIGHTS </s> -0.3010
-0.6021 LIGHTS BRIGHTER 0.0000
-1.0000 LIKE ONE. -0.0969
-1.0000 LIKE THE -0.2995
-1.0000 LIKE THIS. 0.0000
-1.0000 LIKE TO -0.2983
-1.0000 LIKE VODKA. 0.0000
-0.3010 LIKE|EVERYBODY ELSE 0.0000
-0.3010 LINE. </s> -0.3010
-0.3010 LINES OUT -0.1761
-0.7782 LIST BACK -0.2730
-0.4771 LIST GAMES. 0.0000
-0.3010 LIST!|- WHAT'S -0.2762
-0.3010 LIST? </s> -0.3010
-0.3010 LISTEN CAREFULLY. 0.0000
-0.3010 LISTEN, I'M -0.2730
-0.3010 LISTENING TO -0.2955
-0.3010 LISTENING.|- YES, -0.2788
-0.3010 LISTING. </s> -0.3010
-0.3010 LISTING|FOR A -0.2983
-0.6021 LITTLE BETTER|THAN 0.0000
-0.6021 LITTLE RODENTS|HIDING 0.0000
-0.3010 LIVED|A MAGNIFICENT 0.0000
-0.3010 LIVES ON -0.2937
-0.3010 LOAD OF -0.2958
-0.3010 LOCK OUT -0.2553
-0.6021 LOCKED IN. -0.0969
-0.6021 LOCKED US -0.2688
-0.3010 LOCKS SEALED. 0.0000
-0.3010 LOG BACK -0.2730
-0.3010 LOGIC.|- WE -0.2926
-0.7782 LONG AS -0.2430
-0.7782 LONG RIDE -0.1761
-0.7782 LONG UNTIL -0.2218
-0.3010 LOOK AT -0.2840
-0.6021 LOOK, I -0.2782
-0.6021 LOOK, WE -0.2840
-0.6021 LOOKING AROUND. 0.0000
-0.6021 LOOKING FOR -0.2798
-0.3010 LOOKING. </s> -0.3010
-0.3010 LOOP. IT'S -0.2923
-0.3010 LORING AIR -0.1761
-0.3010 LORING, </s> -0.3010
-0.3010 LOSSES. </s> -0.3010
-0.3010 LOSSES|AT 85 0.0000
-0.3010 LOT ABOUT -0.2808
-0.3010 LOVED IT -0.2942
-0.6021 LSLAND, OREGON 0.0000
-0.6021 LSLAND, OREGON, 0.0000
-0.3010 LSLAND. </s> -0.3010
-0.6021 MACHINE HAS -0.2553
-0.6021 MACHINE TO -0.2955
-0.3010 MACHINE. </s> -0.3010
-0.3010 MACHINES DON'T -0.2906
-0.3010 MADE THAT -0.2888
-0.3010 MAGNIFICENT RACE 0.0000
-0.3010 MAILING AS: 0.0000
-0.7782 MAJOR DAVIS, 0.0000
-0.4771 MAJOR LEM, 0.0000
-0.3010 MAJOR.|- LIST -0.1249
-1.0792 MAKE A -0.2983
-0.7782 MAKE ANY -0.2553
-1.0792 MAKE IT -0.2942
-1.0792 MAKE ME|EAT 0.0000
-1.0792 MAKE THE -0.2979
-0.3010 MAKE. </s> -0.3010
-0.3010 MAKING IT -0.2942
-0.3010 MALFUNCTION.|- CONFIDENCE 0.0000
-0.6021 MAN OF -0.2906
-0.6021 MAN TO -0.2983
-0.6021 MANY LICKS 0.0000
-0.6021 MANY MISSILES -0.2218
-0.3010 MARIJUANA AND -0.2919
-0.3010 MASSACRE PLAYLIST 0.0000
-0.3010 MASSIVE ATTACK. 0.0000
-0.3010 MAY NOT -0.2888
-0.6021 MAYBE MORE. 0.0000
-0.6021 MAYBE WE -0.2926
-0.3010 MCKITTRICK RIGHT -0.2840
-0.3010 MCKITTRICK'S SYSTEM -0.2218
-0.3010 MCKITTRICK. </s> -0.3010
-0.3010 MCKITTRICK.|- SIR, -0.2688
-0.3010 MCKITTRICK? </s> -0.3010
-0.3010 MCKITTRICK?|AFTER VERY -0.1761
-0.3010 MCKITTRICK?|I THINK -0.2041
-1.0280 ME A -0.2816
-1.2041 ME AN -0.2596
-1.5051 ME ANYWAY. 0.0000
-1.5051 ME LOG 0.0000
-1.5051 ME SEE -0.2430
-1.5051 ME SOME -0.2632
-1.2041 ME TALK -0.0580
-1.5051 ME THAT? -0.0669
-1.2041 ME THE -0.2963
-1.5051 ME THIS -0.1532
-1.5051 ME TO -0.2983
-0.3010 ME! </s> -0.3010
-0.6021 ME. </s> -0.3010
-0.9031 ME. DAVID. 0.0000
-0.9031 ME. WHAT -0.2814
-0.3010 ME.|THANK YOU -0.2985
-0.3010 ME? </s> -0.3010
-0.3010 MEAN, NOBODY|WOULD 0.0000
-0.3010 MEAN?|HE DOESN'T -0.2218
-0.6021 MEN AROUND -0.1761
-0.6021 MEN TOLD -0.1761
-0.3010 MEN, WE'RE -0.2840
-0.3010 MESSAGE FROM -0.2762
-0.3010 ME|EAT NONE 0.0000
-0.3010 ME|THAT YOU'RE -0.2730
-0.7782 MIGHT GAIN 0.0000
-0.7782 MIGHT HAVE -0.2596
-0.7782 MIGHT SMASH 0.0000
-0.6021 MILES AWAY 0.0000
-0.6021 MILES VISIBILITY. 0.0000
-0.3010 MILES. </s> -0.3010
-0.3010 MILES|FROM A -0.2983
-0.3010 MILITARY'S COMPUTER! 0.0000
-0.3010 MILLION PEOPLE 0.0000
-0.3010 MILLIONS|WHO'LL WANDER 0.0000
-0.3010 MILLISECOND OF -0.2958
-0.4771 MINUTE AND -0.2825
-0.7782 MINUTE TO -0.2842
-0.3010 MINUTE. </s> -0.3010
-0.3010 MINUTES. </s> -0.3010
-0.3010 MISSED THE -0.2979
-0.3010 MISSILE WARNING. 0.0000
-0.7782 MISSILES AND -0.2919
-0.7782 MISSILES HIMSELF. 0.0000
-0.7782 MISSILES IN -0.2937
-0.3010 MISSILES! </s> -0.3010
-0.3010 MISSILES. </s> -0.3010
-0.3010 MISSILES.|- STAND -0.2553
-0.3010 MISSILES.|THEY'RE PHANTOMS. 0.0000
-0.3010 MISSILES?|- OVER -0.2430
-0.3010 MISSILES|AT MY -0.2762
-0.3010 MODE. </s> -0.3010
-0.3010 MODE.|CLOSE UP -0.2430
-0.3010 MOMENT|WE CANNOT 0.0000
-0.3010 MONEY?|- WHAT? 0.0000
-0.3010 MONITORING THEIR -0.2430
-0.3010 MORE FORTUNATE 0.0000
-0.3010 MORE. </s> -0.3010
-0.3010 MORE?|- NO. -0.2041
-0.3010 MOST IMPORTANT 0.0000
-0.3010 MOUNTAIN ARE -0.2946
-0.3010 MOUNTAIN. </s> -0.3010
-0.6021 MOVE IS -0.2900
-0.6021 MOVE IT, -0.2430
-0.3010 MOVE. </s> -0.3010
-0.3010 MOVIE STAR. 0.0000
-1.1461 MR FALKEN, -0.1761
-1.1461 MR MCKITTRICK'S 0.0000
-1.1461 MR MCKITTRICK. 0.0000
-1.1461 MR MCKITTRICK?|AFTER 0.0000
-1.1461 MR MCKITTRICK?|I 0.0000
-1.1461 MR PRESIDENT, 0.0000
-1.1461 MR PRESIDENT. 0.0000
-0.3010 MUCH MORE 0.0000
-0.3010 MUCH, SIR. -0.1513
-0.3010 MUCH,|THEY GIVE -0.2632
-0.3010 MUST BE -0.2894
-1.2553 MY BASE -0.1761
-1.2553 MY COMMAND. 0.0000
-1.2553 MY DAD'S 0.0000
-1.2553 MY DEATH. 0.0000
-1.2553 MY FAULT? 0.0000
-1.2553 MY GRADE? 0.0000
-1.2553 MY LAND -0.2218
-1.2553 MY MISSILES -0.2218
-1.2553 MY PASSWORD. 0.0000
-0.3010 MYSELF. </s> -0.3010
-0.3010 NATURAL ORDER. 0.0000
-0.3010 NATURAL.|IT'S JUST -0.2840
-0.7782 NATURE JUST -0.2840
-0.7782 NATURE KNOWS -0.2218
-0.7782 NATURE WILL -0.2430
-0.6021 NEED A -0.2928
-1.0792 NEED AN -0.2808
-1.0792 NEED DR -0.2688
-1.0792 NEED SOME -0.2632
-0.6021 NEGATIVE RADAR -0.2430
-0.6021 NEGATIVE SOVIET -0.2688
-0.6021 NEVER COULD -0.2430
-0.6021 NEVER GOT -0.2840
-0.6021 NEW DEFENCE -0.1761
-0.6021 NEW IDENTITIES. 0.0000
-0.3010 NEW|SOVIET BOMBER 0.0000
-0.3010 NEXT WEEK 0.0000
-0.3010 NICE GAME -0.2218
-0.3010 NIGHT. </s> -0.3010
-0.3010 NINE NUMBERS. -0.0969
-0.3010 NINE... </s> -0.3010
-1.4472 NO CAUSE 0.0000
-1.4472 NO CHOICE|BUT 0.0000
-1.4472 NO IDEA.|IT 0.0000
-1.4472 NO IMPACT. -0.2762
-1.4472 NO LAND -0.2218
-1.1461 NO LISTING. 0.0000
-1.4472 NO LISTING|FOR 0.0000
-1.4472 NO MALFUNCTION.|- 0.0000
-1.4472 NO ONE -0.2632
-1.4472 NO TERMINAL 0.0000
-1.4472 NO TIME. 0.0000
-1.1461 NO WAY 0.0000
-0.7782 NO! </s> -0.3010
-0.7782 NO! IT'S -0.2923
-0.7782 NO! NO. -0.2041
-1.0000 NO, HE'S -0.2341
-1.0000 NO, IT'S -0.2742
-1.0000 NO, NO. -0.2788
-0.6990 NO, SIR. -0.2632
-0.6990 NO. </s> -0.3010
-1.3010 NO. BEFORE 0.0000
-1.3010 NO. IT'S -0.2923
-1.3010 NO. OK, 0.0000
-1.3010 NO. THEY -0.2888
-1.3010 NO. TRY -0.1761
-1.3010 NO. WE'RE -0.2840
-0.3010 NO... YOU -0.2907
-0.3010 NOBODY! </s> -0.3010
-0.3010 NOBODY|WOULD HAVE -0.2910
-0.3010 NONE OF -0.2958
-0.3010 NORAD. </s> -0.3010
-0.3010 NORDKAPP,|BEARING 095 0.0000
-1.5563 NOT A -0.2983
-1.5563 NOT AN -0.2808
-1.5563 NOT DEAD. -0.1761
-1.5563 NOT DEAD.|- 0.0000
-1.5563 NOT EXIST. 0.0000
-1.5563 NOT FIND -0.2688
-1.5563 NOT GIVING 0.0000
-1.2553 NOT LETTING 0.0000
-1.5563 NOT NATURAL.|IT'S 0.0000
-1.2553 NOT ON -0.2131
-1.5563 NOT READY -0.1761
-1.5563 NOT REAL -0.2218
-1.5563 NOT SUPPOSED 0.0000
-1.2553 NOT TO -0.2927
-1.5563 NOT YOU. -0.1249
-0.3010 NOT, JACK. 0.0000
-0.3010 NOT?|- NO. -0.2041
-0.3010 NOTHIN' OUT -0.2788
-0.6021 NOTHING ON -0.2937
-0.6021 NOTHING TO -0.2983
-0.3010 NOTIFY ENEMIES -0.1761
-0.3010 NOW THEY -0.2888
-0.6021 NOW, CHILDREN, 0.0000
-0.6021 NOW, LISTEN 0.0000
-0.3010 NOW. </s> -0.3010
-0.7782 NUCLEAR SUBS|CLOSING 0.0000
-0.7782 NUCLEAR WAR -0.2218
-0.7782 NUCLEAR WAR. 0.0000
-0.3010 NUKED LAS 0.0000
-0.3010 NUKES </s> -0.3010
-0.9031 NUMBER FIVE.|LET 0.0000
-0.9031 NUMBER FOR -0.2798
-0.9031 NUMBER GENERATORS|AREN'T 0.0000
-0.9031 NUMBER OF -0.2958
-0.6021 NUMBERS LOCKED -0.1761
-0.6021 NUMBERS TO -0.2899
-0.4260 NUMBERS. </s> -0.3010
-0.9031 NUMBERS. IT'S -0.2742
-0.3010 OBITUARY SAY -0.2218
-1.9243 OF 'EM. 0.0000
-1.3222 OF A -0.2900
-1.6232 OF AN -0.2596
-1.9243 OF ANIMALS 0.0000
-1.9243 OF BRILLIANT 0.0000
-1.9243 OF CHESS? 0.0000
-1.6232 OF COURSE. 0.0000
-1.9243 OF GALENA. 0.0000
-1.9243 OF INCOMMING 0.0000
-1.9243 OF JOSHUA. -0.0792
-1.9243 OF MARIJUANA 0.0000
-1.9243 OF NORAD. 0.0000
-1.9243 OF OVER -0.2430
-1.9243 OF PLAYERS 0.0000
-1.9243 OF SHIT! 0.0000
-1.9243 OF SHIT. 0.0000
-1.9243 OF SHIT.|WE 0.0000
-1.9243 OF SURVIVAL. 0.0000
-0.9700 OF THE -0.2834
-1.9243 OF THEM -0.1761
-1.9243 OF THEM? 0.0000
-1.9243 OF THIS. 0.0000
-1.9243 OF TIME! 0.0000
-1.6232 OF YOU -0.2933
-1.9243 OF YOU! 0.0000
-1.9243 OF YOU. -0.1249
-1.6232 OF YOUR -0.2499
-0.6021 OFF THE -0.2995
-0.6021 OFF VENTILATION 0.0000
-0.3010 OFF.|- NO, -0.2553
-0.3010 OF|WHAT YOU -0.2985
-0.4771 OH! </s> -0.3010
-0.7782 OH! I -0.2982
-1.1461 OH, I'M -0.2430
-1.1461 OH, IT'S -0.2833
-0.8451 OH, JESUS! 0.0000
-1.1461 OH, THE -0.2947
-1.1461 OH, WAIT. 0.0000
-1.1461 OH, WOW. 0.0000
-0.3010 OH... PITY. 0.0000
-0.3010 OK, WONDER 0.0000
-0.7782 OK. </s> -0.3010
-0.7782 OK. EXCUSE -0.2218
-0.7782 OK. I'LL -0.2341
-0.3010 OK? </s> -0.3010
-0.3010 OLD. </s> -0.3010
-1.7782 ON A -0.2983
-1.7782 ON ALERT. 0.0000
-1.7782 ON AN -0.2808
-1.7782 ON AND -0.2919
-1.7782 ON HIS 0.0000
-1.7782 ON MY -0.2762
-1.7782 ON OVER -0.2430
-1.7782 ON RADAR -0.2430
-1.3010 ON TALL 0.0000
-1.7782 ON THAT -0.2888
-1.7782 ON THAT.|SCRAMBLE 0.0000
-0.7368 ON THE -0.2834
-1.7782 ON THIS -0.2926
-1.7782 ON THOSE -0.2553
-1.7782 ON TOP 0.0000
-1.7782 ON TV? 0.0000
-1.7782 ON WHAT -0.2946
-1.7782 ON YOURSELF. 0.0000
-0.4771 ON! </s> -0.3010
-0.7782 ON! HURRY! 0.0000
-0.7782 ON, DAVID.|YOU'RE 0.0000
-0.7782 ON, HURRY 0.0000
-0.7782 ON, KID. 0.0000
-0.6021 ON. </s> -0.3010
-1.0792 ON. LEARN, 0.0000
-1.0792 ON. WE -0.2926
-1.0792 ON. WE'LL -0.2553
-0.3010 ON.|- NO! -0.2218
-0.3010 ON.|WE'RE TRYING -0.2430
-0.4771 ON? </s> -0.3010
-0.7782 ON? ANYONE -0.1761
-0.3010 ON?|- I'LL -0.2688
-0.6021 ONCE FILLED 0.0000
-0.6021 ONCE UPON 0.0000
-1.0792 ONE CAN -0.2852
-0.6021 ONE MINUTE 0.0000
-1.0792 ONE OF -0.2906
-1.0792 ONE WHO -0.2730
-0.4260 ONE. </s> -0.3010
-0.9031 ONE. WHEN -0.2688
-0.3010 ONE... IMPACT. -0.0458
-0.7782 ONLY 17 0.0000
-0.7782 ONLY ONE -0.2632
-0.7782 ONLY WINNING 0.0000
-0.6021 OPEN GATE, -0.1761
-0.6021 OPEN RIGHT -0.2285
-0.3010 OPERATIONS.|COLONEL CHASE. 0.0000
-0.3010 OPERATIONS.|LIEUTENANT COLONEL -0.2218
-0.3010 OPERATION|AT YOUR -0.2762
-0.3010 OPTION. </s> -0.3010
-0.9031 OR IS -0.2956
-0.9031 OR NOT?|- 0.0000
-0.9031 OR OUT. 0.0000
-0.9031 OR THREE -0.2218
-0.6021 ORDER FILE. 0.0000
-0.6021 ORDER IT -0.2802
-0.3010 ORDER. </s> -0.3010
-0.3010 ORDERING OUR -0.2688
-0.3010 OREGON 97... 0.0000
-0.3010 OREGON, PLEASE. 0.0000
-0.3010 OREGON. </s> -0.3010
-0.3010 ORIGINAL. </s> -0.3010
-1.1461 OUR BOARDS 0.0000
-1.1461 OUR BOMBERS 0.0000
-1.1461 OUR BOMBERS|BACK 0.0000
-1.1461 OUR CURRENT -0.2218
-1.1461 OUR LOSSES|AT 0.0000
-1.1461 OUR MISSILES. 0.0000
-1.1461 OUR WOPR -0.2218
-0.3010 OURSELVES. </s> -0.3010
-1.3010 OUT CHANGES. 0.0000
-1.3010 OUT ENABLED. 0.0000
-1.3010 OUT MY -0.2762
-0.6021 OUT OF -0.2460
-1.3010 OUT THE -0.2995
-1.3010 OUT THERE, -0.1761
-0.3010 OUT. </s> -0.3010
-0.3010 OUT.|IT'S SENDING 0.0000
-0.3010 OUTSIDE. </s> -0.3010
-0.3010 OUTTA HERE. -0.1249
-0.3010 OUT|HOW TO -0.2983
-0.9031 OVER 50LB|SURVIVED 0.0000
-0.9031 OVER A -0.2983
-0.9031 OVER HERE.|I'M 0.0000
-0.9031 OVER THERE. 0.0000
-0.3010 OVER. </s> -0.3010
-0.6021 OWN DESTRUCTION... 0.0000
-0.6021 OWN THIS -0.2926
-0.3010 PALACE, THIS -0.1532
-0.6021 PALACE. </s> -0.3010
-0.6021 PALACE. ARE -0.1928
-0.3010 PALACE.|ARE YOU -0.2933
-0.3010 PALACE.|WE'RE CLOSING 0.0000
-0.3010 PALAEONTOLOGIST? </s> -0.3010
-0.3010 PARENTS WERE 0.0000
-0.3010 PARIS WITH? 0.0000
-0.3010 PARIS. </s> -0.3010
-0.3010 PARIS? OH! -0.1249
-0.3010 PART OF -0.2518
-0.3010 PASSWORD FILE|HAS 0.0000
-0.3010 PASSWORD. </s> -0.3010
-0.6021 PATH. </s> -0.3010
-0.6021 PATH. FOLLOW 0.0000
-0.3010 PATIENT'S EYES 0.0000
-0.3010 PAUL, THIS -0.1532
-0.3010 PAY YOU -0.2985
-0.3010 PCP. </s> -0.3010
-0.3010 PENDING INDICTMENT 0.0000
-0.3010 PENETRATION|INTO OUR -0.2688
-0.3010 PENSION FILES|INDICATE 0.0000
-0.3010 PEOPLE DEAD? 0.0000
-0.3010 PEOPLE. </s> -0.3010
-0.3010 PEOPLE|WHO WON'T -0.2553
-0.3010 PERFECTLY. </s> -0.3010
-0.3010 PERHAPS TIME -0.1761
-0.3010 PETROPAVLOVSK, </s> -0.3010
-0.3010 PHANTOMS. </s> -0.3010
-0.6021 PHONE CALL -0.2730
-0.6021 PHONE CALL? 0.0000
-0.3010 PHONE. </s> -0.3010
-0.3010 PHONE.|PLEASE, WILL -0.1761
-0.3010 PHONE? </s> -0.3010
-0.3010 PHONE?|- IS -0.2900
-0.3010 PICK IT -0.2942
-0.3010 PICKED|A HELL 0.0000
-0.3010 PICKS YOUR -0.2762
-0.3010 PIG-EYED SACK 0.0000
-0.3010 PISS ON -0.2937
-0.3010 PITY. </s> -0.3010
-0.3010 PLACE,|DON'T YOU -0.2985
-0.3010 PLACE?|- OH! -0.2218
-0.3010 PLACED UNDER -0.1761
-0.3010 PLANNED AHEAD. -0.1761
-1.0792 PLAY A -0.2983
-1.0792 PLAY DEAD? 0.0000
-1.0792 PLAY IT.|HAVE 0.0000
-1.0792 PLAY ITSELF?|- 0.0000
-1.0792 PLAY MASSACRE 0.0000
-1.0792 PLAY TIC-TAC-TOE? 0.0000
-0.3010 PLAY. </s> -0.3010
-0.3010 PLAYED BEFORE. 0.0000
-0.3010 PLAYER. </s> -0.3010
-0.3010 PLAYERS ZERO. 0.0000
-0.3010 PLAYING THE -0.2979
-0.3010 PLAYING|THE GAMES? 0.0000
-0.3010 PLAYLIST </s> -0.3010
-0.3010 PLEASE! LET -0.1761
-0.3010 PLEASE, CALL -0.2730
-0.3010 PLEASE,|CALL HIM. -0.1761
-0.3010 PLEASE. </s> -0.3010
-0.3010 PLEASE?|- GOOSE -0.1761
-0.3010 PLENTY OF -0.2958
-0.3010 PLUG|IF I -0.2982
-0.6021 POINT IN -0.2937
-0.6021 POINT WAS|TO 0.0000
-0.3010 POINTLESS. </s> -0.3010
-0.3010 POKER. </s> -0.3010
-0.3010 POP </s> -0.3010
-0.3010 POSSIBLE, </s> -0.3010
-0.3010 POSSIBLY PCP. 0.0000
-0.3010 POWER DISCONNECTED. 0.0000
-0.3010 POWER. </s> -0.3010
-0.3010 PRACTISE NUCLEAR -0.2218
-0.3010 PREMIER?|- THE -0.2995
-0.3010 PREPARED|TO DESTROY 0.0000
-0.3010 PRESIDENT TO -0.2983
-0.6021 PRESIDENT'S ON -0.2937
-0.6021 PRESIDENT'S READY -0.1761
-0.3010 PRESIDENT, WE'VE -0.1249
-0.3010 PRESIDENT. </s> -0.3010
-0.3010 PRESS. </s> -0.3010
-0.3010 PRETTY EYES.|- 0.0000
-0.3010 PRIMARY TARGET. 0.0000
-0.3010 PROBABLY. </s> -0.3010
-0.3010 PROBLEM. </s> -0.3010
-0.3010 PROFESSOR FALKEN. -0.1249
-0.3010 PROFILE|IS A -0.2983
-0.3010 PROFILE|SUGGESTS SOVIET -0.2688
-0.3010 PROGRAM. </s> -0.3010
-0.3010 PROJECT A -0.2983
-0.3010 PROJECTED KILL 0.0000
-0.3010 PROVOCATION,|USING SO -0.2553
-0.3010 PROVOKING THEM. 0.0000
-0.3010 PUNCH UP -0.2730
-0.6021 PUT IT -0.2802
-0.9031 PUT THE -0.2995
-0.9031 PUT X 0.0000
-0.3010 PUTTING OUR -0.2688
-0.3010 QUESTIONS. </s> -0.3010
-0.3010 QUICKLY AS -0.2430
-0.3010 QUITE A -0.2983
-0.3010 RACE OF -0.2958
-0.9031 RADAR </s> -0.3010
-0.9031 RADAR CONTACT. 0.0000
-0.9031 RADAR IMAGE|600 0.0000
-0.9031 RADAR REPORTS -0.1761
-0.3010 RAN AND -0.2730
-0.6021 RANDOM NUMBER -0.2430
-0.6021 RANDOM NUMBERS -0.1761
-0.3010 RATE|IT'LL HIT -0.2218
-0.3010 RATIOS? </s> -0.3010
-0.3010 REACH DEFCON -0.1963
-0.3010 REACH. </s> -0.3010
-0.6021 READY FOR -0.2688
-0.6021 READY TO -0.2983
-0.3010 READY. AWAITING 0.0000
-0.7782 REAL AIRCRAFT. 0.0000
-0.7782 REAL JOSHUA -0.2218
-0.7782 REAL MISSILES.|THEY'RE 0.0000
-0.3010 REAL! </s> -0.3010
-0.3010 REAL. </s> -0.3010
-0.3010 REAL? </s> -0.3010
-0.7782 REALLY BELIEVE|THAT 0.0000
-0.7782 REALLY BIG 0.0000
-0.7782 REALLY WANTED 0.0000
-0.3010 REASON TO -0.2983
-0.3010 REASONS,|THEY GRACIOUSLY 0.0000
-0.3010 RECALL THE -0.2995
-0.3010 RECENTLY, THEY -0.2888
-0.3010 RECOMMEND,|MR MCKITTRICK? 0.0000
-0.3010 RECOMMENDING HE -0.2788
-0.6021 REPEAT, NEGATIVE -0.1761
-0.6021 REPEAT, WE -0.2926
-0.3010 REPORT ON -0.2131
-0.3010 REPORT. </s> -0.3010
-0.6021 REPORTS RUMOURS 0.0000
-0.6021 REPORTS TWO -0.2553
-0.3010 RESERVATIONS FOR -0.2906
-0.3010 REST OF -0.2518
-0.3010 RETALIATORY STRIKE. 0.0000
-0.6021 RIDE OUT -0.2788
-0.6021 RIDE TO -0.2983
-1.4150 RIGHT AWAY. 0.0000
-1.4150 RIGHT CODES|SO 0.0000
-1.4150 RIGHT DOWN. 0.0000
-1.4150 RIGHT IN -0.2937
-0.8129 RIGHT NOW. 0.0000
-1.4150 RIGHT OVER -0.2430
-1.4150 RIGHT PROGRAM. 0.0000
-1.4150 RIGHT THERE -0.2730
-1.4150 RIGHT THIS -0.2926
-1.4150 RIGHT WITH -0.2730
-0.4260 RIGHT! </s> -0.3010
-0.9031 RIGHT! RECALL 0.0000
-1.0792 RIGHT. FLUSH 0.0000
-1.0792 RIGHT. GET -0.2906
-0.7782 RIGHT. I'LL -0.1963
-1.0792 RIGHT. I'VE -0.2218
-1.0792 RIGHT. WHO -0.2109
-0.3010 RIGHT?|- YEAH. -0.2430
-0.3010 RISKY. IT -0.2942
-0.6021 ROAD, </s> -0.3010
-0.6021 ROAD, GOOSE -0.1761
-0.3010 ROAD,|GOOSE LSLAND, -0.1761
-0.3010 ROAD. </s> -0.3010
-0.6021 ROBERT HUME,|H-U-M-E, 0.0000
-0.9031 ROBERT HUME. 0.0000
-0.9031 ROBERT HUME.|- 0.0000
-0.3010 ROCKS. </s> -0.3010
-0.3010 RODENTS|HIDING IN -0.2632
-0.3010 ROGER. LOCK 0.0000
-0.3010 ROOM!|- NO! -0.2218
-0.3010 ROOM,|THEY BELIEVE -0.2632
-0.3010 RUMOURS OF -0.2798
-0.3010 RUN FOR -0.2906
-0.6021 RUN, RUN, -0.1761
-0.6021 RUN, RUN. 0.0000
-0.3010 RUN. </s> -0.3010
-0.3010 RUNNING. </s> -0.3010
-0.3010 RUSSIANS DENY -0.1761
-1.6990 SABRE BLIND 0.0000
-1.3979 SABRE CHECK -0.1249
-1.6990 SABRE DIM 0.0000
-1.3979 SABRE GO -0.1963
-1.6990 SABRE HACK 0.0000
-1.0969 SABRE HOW -0.2139
-1.6990 SABRE LAUNCH -0.2499
-1.6990 SABRE MAKE -0.2632
-1.6990 SABRE NOTIFY 0.0000
-1.6990 SABRE PLAY -0.2632
-1.6990 SABRE SEARCH 0.0000
-1.6990 SABRE SEND 0.0000
-1.6990 SABRE SET 0.0000
-1.6990 SABRE SHUTDOWN 0.0000
-1.6990 SABRE START -0.2218
-1.6990 SABRE TELL -0.2374
-1.6990 SABRE WHAT -0.2946
-1.6990 SABRE WHERE -0.2218
-1.3979 SABRE WHO -0.2430
-0.3010 SAC ON -0.2131
-0.3010 SAC.|GET ME -0.2583
-0.3010 SACK OF -0.2958
-0.6021 SAID SO. 0.0000
-0.6021 SAID SO.|- 0.0000
-0.3010 SAKE!|- HE'S -0.2688
-0.3010 SAKE. DO -0.2872
-0.3010 SAME ADDRESS. 0.0000
-0.3010 SATELLITES. </s> -0.3010
-0.3010 SAW ONE. -0.0969
-0.7782 SAY ANYTHING -0.1761
-0.7782 SAY HE'S -0.2688
-0.7782 SAY I -0.2982
-0.3010 SAY? LET'S -0.2218
-0.3010 SAY?|- THIS -0.1532
-0.3010 SAYIN'?|- IN -0.2937
-0.3010 SCOOTER! WAIT 0.0000
-0.3010 SCREENS UP -0.2730
-0.3010 SEAL OFF -0.1761
-0.3010 SEALED. </s> -0.3010
-0.3010 SEARCH FOR -0.2906
-0.6021 SEATTLE </s> -0.3010
-0.6021 SEATTLE AND -0.2919
-0.3010 SECOND. </s> -0.3010
-0.3010 SECONDS TO -0.2842
-0.6021 SECURITY REASONS,|THEY 0.0000
-0.6021 SECURITY SYSTEM'S|NOT 0.0000
-0.9031 SEE THAT? -0.2632
-0.9031 SEE THE -0.2995
-0.9031 SEE WHAT -0.2814
-0.9031 SEE YOU!|I 0.0000
-0.3010 SEE|ON THESE -0.1761
-0.3010 SEE|SOME PROJECTED 0.0000
-0.3010 SEND AN -0.2808
-0.3010 SENDING RANDOM -0.1761
-0.6021 SENIOR CONTROLLER 0.0000
-0.6021 SENIOR CONTROLLERS.|I 0.0000
-0.3010 SENSE? </s> -0.3010
-0.3010 SENSE?|- DOES -0.2553
-0.3010 SERGEANT, I -0.2982
-0.3010 SERIOUS PENETRATION|INTO 0.0000
-0.3010 SET ALARM 0.0000
-0.3010 SETUP. </s> -0.3010
-0.3010 SEVEN! </s> -0.3010
-0.3010 SEVEN... </s> -0.3010
-0.3010 SHADOWS. </s> -0.3010
-0.3010 SHAFT LOCKS 0.0000
-0.3010 SHAFTS. </s> -0.3010
-0.3010 SHIT! </s> -0.3010
-0.3010 SHIT. </s> -0.3010
-0.3010 SHIT.|WE KNOW -0.2852
-0.7782 SHOULD JUST -0.2840
-0.7782 SHOULD REACH 0.0000
-0.7782 SHOULD SAY -0.2218
-0.3010 SHOULDN'T HAVE -0.2910
-0.3010 SHOWING IMPACT. -0.0458
-0.3010 SHOW|WITH SOME -0.2632
-0.3010 SHUT! COME -0.2478
-0.3010 SHUTDOWN </s> -0.3010
-0.3010 SHUTDOWN|AS THE -0.2995
-0.3010 SIGHTLESS </s> -0.3010
-0.3010 SIGN IN -0.2937
-0.3010 SILOS WOULD -0.2762
-0.3010 SILOS. </s> -0.3010
-0.3010 SIMPLE PHONE -0.1761
-0.3010 SIMULATION.|EVERYTHING'S WORKING -0.2218
-0.3010 SIMULATIONS.|- IT'S -0.2923
-1.1461 SIR, </s> -0.3010
-1.1461 SIR, AT -0.2663
-1.1461 SIR, THE -0.2995
-1.1461 SIR, THEY -0.2888
-1.1461 SIR, THIS -0.1532
-1.1461 SIR, WE -0.2840
-1.1461 SIR, YOU -0.2985
-0.5351 SIR. </s> -0.3010
-1.3802 SIR. I -0.2954
-1.3802 SIR. NO -0.2852
-1.3802 SIR. NOT -0.2888
-1.3802 SIR. THAT'S -0.2688
-1.3802 SIR. WE'LL -0.1461
-0.3010 SIR... </s> -0.3010
-0.3010 SITTING COMFORTABLY? 0.0000
-0.3010 SITUATION... </s> -0.3010
-0.3010 SIX UP.|- -0.1761
-0.3010 SIX... </s> -0.3010
-0.3010 SKIES. </s> -0.3010
-0.3010 SKY WAS -0.2730
-0.3010 SLEEP ON -0.2131
-0.3010 SLIP AND -0.2919
-0.3010 SMART LITTLE -0.1761
-0.3010 SMASH THE -0.2979
-0.3010 SMOULDERING AFTERMATH. 0.0000
-1.0000 SO MANY -0.1761
-1.0000 SO RUN, -0.1761
-1.0000 SO THAT -0.2888
-1.0000 SO WE'LL -0.2553
-1.0000 SO YOU -0.2985
-0.3010 SO. </s> -0.3010
-0.3010 SO.|- OH, -0.2688
-1.0792 SOME GIRLS 0.0000
-1.0792 SOME MACHINE -0.1761
-1.0792 SOME MONEY?|- 0.0000
-1.0792 SOME OF -0.2518
-0.7782 SOME SETUP. 0.0000
-0.6021 SOMEBODY GOT|INTO 0.0000
-0.6021 SOMEBODY ON -0.2131
-0.3010 SOMETHING A -0.2983
-0.3010 SOMETHING. </s> -0.3010
-0.3010 SOMEWHERE. </s> -0.3010
-0.3010 SON AND -0.2919
-0.3010 SOON AS -0.2430
-0.3010 SOON? </s> -0.3010
-0.3979 SORRY. </s> -0.3010
-1.0000 SORRY. I -0.2926
-0.3010 SOUND TOO -0.2218
-0.3010 SOUTHBOUND AT -0.2840
-1.1461 SOVIET AIRCRAFT. 0.0000
-1.1461 SOVIET BACKFIRE 0.0000
